{"learner":{"attributes":{"best_iteration":"203","best_ntree_limit":"204","best_score":"31.65180699488794"},"feature_names":["s2_cloud_pct","cp_probability","s2_prop_MEAN_SOLAR_AZIMUTH_ANGLE","s2_prop_MEAN_SOLAR_ZENITH_ANGLE","s2_prop_SOLAR_IRRADIANCE_B1","s2_prop_MEAN_INCIDENCE_AZIMUTH_ANGLE_B1","s2_prop_MEAN_INCIDENCE_ZENITH_ANGLE_B1","RCC","s2_med3_B10_median","s2_med3_B11_median","s2_med3_B12_median","s2_med3_B1_median","s2_med3_B2_median","s2_med3_B3_median","s2_med3_B4_median","s2_med3_B5_median","s2_med3_B6_median","s2_med3_B7_median","s2_med3_B8A_median","s2_med3_B8_median","s2_med3_B9_median","s2_med3_probability_median","s2_med3_NDWI","t2m_3d","rh_3d","cloud_3d","ws10_3d","precip_3d_sum","swrad_3d_sum","sunshine_3d_sum_s","t2m_inst","rh_inst","cloud_inst","ws10_inst","swrad_inst","precip_inst","sunshine_inst_s","weather_code_3d_mode","t2m_3d_mean","rh_3d_mean","cloud_3d_mean","ws10_3d_mean","cp_source_index"],"feature_types":["float","float","float","float","float","float","float","float","float","float","float","float","float","float","float","float","float","float","float","float","float","float","float","float","float","float","float","float","float","float","float","float","float","float","float","float","float","float","float","float","float","float","i"],"gradient_booster":{"model":{"gbtree_model_param":{"num_parallel_tree":"1","num_trees":"404","size_leaf_vector":"0"},"tree_info":[0,0,0,0,0,0,0,0,0,0,0,0,0,0,0,0,0,0,0,0,0,0,0,0,0,0,0,0,0,0,0,0,0,0,0,0,0,0,0,0,0,0,0,0,0,0,0,0,0,0,0,0,0,0,0,0,0,0,0,0,0,0,0,0,0,0,0,0,0,0,0,0,0,0,0,0,0,0,0,0,0,0,0,0,0,0,0,0,0,0,0,0,0,0,0,0,0,0,0,0,0,0,0,0,0,0,0,0,0,0,0,0,0,0,0,0,0,0,0,0,0,0,0,0,0,0,0,0,0,0,0,0,0,0,0,0,0,0,0,0,0,0,0,0,0,0,0,0,0,0,0,0,0,0,0,0,0,0,0,0,0,0,0,0,0,0,0,0,0,0,0,0,0,0,0,0,0,0,0,0,0,0,0,0,0,0,0,0,0,0,0,0,0,0,0,0,0,0,0,0,0,0,0,0,0,0,0,0,0,0,0,0,0,0,0,0,0,0,0,0,0,0,0,0,0,0,0,0,0,0,0,0,0,0,0,0,0,0,0,0,0,0,0,0,0,0,0,0,0,0,0,0,0,0,0,0,0,0,0,0,0,0,0,0,0,0,0,0,0,0,0,0,0,0,0,0,0,0,0,0,0,0,0,0,0,0,0,0,0,0,0,0,0,0,0,0,0,0,0,0,0,0,0,0,0,0,0,0,0,0,0,0,0,0,0,0,0,0,0,0,0,0,0,0,0,0,0,0,0,0,0,0,0,0,0,0,0,0,0,0,0,0,0,0,0,0,0,0,0,0,0,0,0,0,0,0,0,0,0,0,0,0,0,0,0,0,0,0,0,0,0,0,0,0,0,0,0,0,0,0,0,0,0,0,0,0,0,0,0,0,0,0,0,0,0,0,0,0,0,0,0,0,0,0],"trees":[{"base_weights":[4.1674503E1,2.8099773E0,9.173611E1,9.9297784E-2,1.6698E0,3.6153367E0,6.8975115E0],"categories":[],"categories_nodes":[],"categories_segments":[],"categories_sizes":[],"default_left":[1,0,0,0,0,0,0],"id":0,"left_children":[1,3,5,-1,-1,-1,-1],"loss_changes":[3.3159938E5,2.3989807E3,6.1907062E4,0E0,0E0,0E0,0E0],"parents":[2147483647,0,0,1,1,2,2],"right_children":[2,4,6,-1,-1,-1,-1],"split_conditions":[4.8E1,2E0,2.2E0,9.9297784E-2,1.6698E0,3.6153367E0,6.8975115E0],"split_indices":[31,1,27,0,0,0,0],"split_type":[0,0,0,0,0,0,0],"sum_hessian":[1.7E2,9.6E1,7.4E1,9.4E1,2E0,5.3E1,2.1E1],"tree_param":{"num_deleted":"0","num_feature":"43","num_nodes":"7","size_leaf_vector":"0"}},{"base_weights":[3.757136E1,2.6783736E0,8.506622E1,1.4063289E0,7.1293764E-2,7.1900826E0,3.5268228E0],"categories":[],"categories_nodes":[],"categories_segments":[],"categories_sizes":[],"default_left":[0,1,0,0,0,0,0],"id":1,"left_children":[1,3,5,-1,-1,-1,-1],"loss_changes":[2.758161E5,3.0557727E3,5.5093938E4,0E0,0E0,0E0,0E0],"parents":[2147483647,0,0,1,1,2,2],"right_children":[2,4,6,-1,-1,-1,-1],"split_conditions":[4E0,6.7666664E1,7.752475E1,1.4063289E0,7.1293764E-2,7.1900826E0,3.5268228E0],"split_indices":[21,39,2,0,0,0,0],"split_type":[0,0,0,0,0,0,0],"sum_hessian":[1.66E2,9.6E1,7E1,4E0,9.2E1,1.3E1,5.7E1],"tree_param":{"num_deleted":"0","num_feature":"43","num_nodes":"7","size_leaf_vector":"0"}},{"base_weights":[3.3816624E1,2.6061835E0,8.273375E1,1.2971038E0,7.405807E-2,3.5754166E0,8.014312E0],"categories":[],"categories_nodes":[],"categories_segments":[],"categories_sizes":[],"default_left":[1,1,0,0,0,0,0],"id":2,"left_children":[1,3,5,-1,-1,-1,-1],"loss_changes":[2.4493155E5,2.566747E3,4.8679E4,0E0,0E0,0E0,0E0],"parents":[2147483647,0,0,1,1,2,2],"right_children":[2,4,6,-1,-1,-1,-1],"split_conditions":[4.8E1,6.7666664E1,1.41E-1,1.2971038E0,7.405807E-2,3.5754166E0,8.014312E0],"split_indices":[31,39,9,0,0,0,0],"split_type":[0,0,0,0,0,0,0],"sum_hessian":[1.6E2,9.8E1,6.2E1,4E0,9.4E1,5.5E1,7E0],"tree_param":{"num_deleted":"0","num_feature":"43","num_nodes":"7","size_leaf_vector":"0"}},{"base_weights":[3.3724598E1,2.0628886E0,7.808004E1,6.9401935E-2,1.4524609E0,6.4047318E0,3.3137233E0],"categories":[],"categories_nodes":[],"categories_segments":[],"categories_sizes":[],"default_left":[1,0,0,0,0,0,0],"id":3,"left_children":[1,3,5,-1,-1,-1,-1],"loss_changes":[2.4779061E5,1.8647526E3,3.9153438E4,0E0,0E0,0E0,0E0],"parents":[2147483647,0,0,1,1,2,2],"right_children":[2,4,6,-1,-1,-1,-1],"split_conditions":[4.8E1,2E0,7.752475E1,6.9401935E-2,1.4524609E0,6.4047318E0,3.3137233E0],"split_indices":[31,1,2,0,0,0,0],"split_type":[0,0,0,0,0,0,0],"sum_hessian":[1.76E2,1.03E2,7.3E1,1.01E2,2E0,1.3E1,6E1],"tree_param":{"num_deleted":"0","num_feature":"43","num_nodes":"7","size_leaf_vector":"0"}},{"base_weights":[2.9712456E1,2.2852561E0,7.054527E1,1.2056354E0,6.5313965E-2,2.7589176E0,5.3339877E0],"categories":[],"categories_nodes":[],"categories_segments":[],"categories_sizes":[],"default_left":[1,1,0,0,0,0,0],"id":4,"left_children":[1,3,5,-1,-1,-1,-1],"loss_changes":[1.9646708E5,2.2386357E3,3.620372E4,0E0,0E0,0E0,0E0],"parents":[2147483647,0,0,1,1,2,2],"right_children":[2,4,6,-1,-1,-1,-1],"split_conditions":[4.8E1,6.7666664E1,2.2E0,1.2056354E0,6.5313965E-2,2.7589176E0,5.3339877E0],"split_indices":[31,39,27,0,0,0,0],"split_type":[0,0,0,0,0,0,0],"sum_hessian":[1.75E2,1.05E2,7E1,4E0,1.01E2,5E1,2E1],"tree_param":{"num_deleted":"0","num_feature":"43","num_nodes":"7","size_leaf_vector":"0"}},{"base_weights":[2.838434E1,2.476669E0,7.005175E1,1.134118E0,5.8525424E-2,4.706058E0,2.7209058E0],"categories":[],"categories_nodes":[],"categories_segments":[],"categories_sizes":[],"default_left":[1,1,0,0,0,0,0],"id":5,"left_children":[1,3,5,-1,-1,-1,-1],"loss_changes":[1.8720747E5,2.8238516E3,2.24625E4,0E0,0E0,0E0,0E0],"parents":[2147483647,0,0,1,1,2,2],"right_children":[2,4,6,-1,-1,-1,-1],"split_conditions":[5.3E1,6.7666664E1,4.127403E1,1.134118E0,5.8525424E-2,4.706058E0,2.7209058E0],"split_indices":[31,39,3,0,0,0,0],"split_type":[0,0,0,0,0,0,0],"sum_hessian":[1.73E2,1.07E2,6.6E1,6E0,1.01E2,2.5E1,4.1E1],"tree_param":{"num_deleted":"0","num_feature":"43","num_nodes":"7","size_leaf_vector":"0"}},{"base_weights":[2.73363E1,2.050235E0,6.378933E1,1.0674832E0,5.9647094E-2,5.1976457E0,2.7150013E0],"categories":[],"categories_nodes":[],"categories_segments":[],"categories_sizes":[],"default_left":[0,1,0,0,0,0,0],"id":6,"left_children":[1,3,5,-1,-1,-1,-1],"loss_changes":[1.6538939E5,1.7493365E3,2.5190344E4,0E0,0E0,0E0,0E0],"parents":[2147483647,0,0,1,1,2,2],"right_children":[2,4,6,-1,-1,-1,-1],"split_conditions":[4E0,6.7666664E1,7.752475E1,1.0674832E0,5.9647094E-2,5.1976457E0,2.7150013E0],"split_indices":[1,39,2,0,0,0,0],"split_type":[0,0,0,0,0,0,0],"sum_hessian":[1.79E2,1.06E2,7.3E1,4E0,1.02E2,1.3E1,6E1],"tree_param":{"num_deleted":"0","num_feature":"43","num_nodes":"7","size_leaf_vector":"0"}},{"base_weights":[2.7830132E1,2.0089676E0,6.3431675E1,1.0200394E0,5.704544E-2,2.645166E0,6.1539965E0],"categories":[],"categories_nodes":[],"categories_segments":[],"categories_sizes":[],"default_left":[0,1,0,0,0,0,0],"id":7,"left_children":[1,3,5,-1,-1,-1,-1],"loss_changes":[1.5851095E5,1.5928633E3,4.2274188E4,0E0,0E0,0E0,0E0],"parents":[2147483647,0,0,1,1,2,2],"right_children":[2,4,6,-1,-1,-1,-1],"split_conditions":[4E0,6.7666664E1,7.5E0,1.0200394E0,5.704544E-2,2.645166E0,6.1539965E0],"split_indices":[1,39,27,0,0,0,0],"split_type":[0,0,0,0,0,0,0],"sum_hessian":[1.72E2,1E2,7.2E1,4E0,9.6E1,6.2E1,1E1],"tree_param":{"num_deleted":"0","num_feature":"43","num_nodes":"7","size_leaf_vector":"0"}},{"base_weights":[2.6716927E1,1.8536403E0,6.1341274E1,9.725049E-1,5.1599514E-2,7.741913E0,2.8095744E0],"categories":[],"categories_nodes":[],"categories_segments":[],"categories_sizes":[],"default_left":[1,1,0,0,0,0,0],"id":8,"left_children":[1,3,5,-1,-1,-1,-1],"loss_changes":[1.4930497E5,1.457464E3,3.0557688E4,0E0,0E0,0E0,0E0],"parents":[2147483647,0,0,1,1,2,2],"right_children":[2,4,6,-1,-1,-1,-1],"split_conditions":[4.8E1,6.7666664E1,-8.492997E-2,9.725049E-1,5.1599514E-2,7.741913E0,2.8095744E0],"split_indices":[31,39,22,0,0,0,0],"split_type":[0,0,0,0,0,0,0],"sum_hessian":[1.73E2,1.01E2,7.2E1,4E0,9.7E1,3E0,6.9E1],"tree_param":{"num_deleted":"0","num_feature":"43","num_nodes":"7","size_leaf_vector":"0"}},{"base_weights":[2.477626E1,1.7646805E0,5.8535957E1,9.1107005E-1,5.0194647E-2,5.2501407E0,2.345762E0],"categories":[],"categories_nodes":[],"categories_segments":[],"categories_sizes":[],"default_left":[0,1,0,0,0,0,0],"id":9,"left_children":[1,3,5,-1,-1,-1,-1],"loss_changes":[1.331805E5,1.274161E3,3.5065344E4,0E0,0E0,0E0,0E0],"parents":[2147483647,0,0,1,1,2,2],"right_children":[2,4,6,-1,-1,-1,-1],"split_conditions":[4E0,6.7666664E1,7.752475E1,9.1107005E-1,5.0194647E-2,5.2501407E0,2.345762E0],"split_indices":[1,39,2,0,0,0,0],"split_type":[0,0,0,0,0,0,0],"sum_hessian":[1.71E2,1.02E2,6.9E1,4E0,9.8E1,1.3E1,5.6E1],"tree_param":{"num_deleted":"0","num_feature":"43","num_nodes":"7","size_leaf_vector":"0"}},{"base_weights":[2.4895906E1,1.4408766E0,5.63695E1,8.705781E-1,3.4433197E-2,4.304984E0,2.1128013E0],"categories":[],"categories_nodes":[],"categories_segments":[],"categories_sizes":[],"default_left":[0,1,0,0,0,0,0],"id":10,"left_children":[1,3,5,-1,-1,-1,-1],"loss_changes":[1.2877774E5,1.2013464E3,2.9440797E4,0E0,0E0,0E0,0E0],"parents":[2147483647,0,0,1,1,2,2],"right_children":[2,4,6,-1,-1,-1,-1],"split_conditions":[4E0,6.7666664E1,6.88259E-2,8.705781E-1,3.4433197E-2,4.304984E0,2.1128013E0],"split_indices":[1,39,22,0,0,0,0],"split_type":[0,0,0,0,0,0,0],"sum_hessian":[1.74E2,1E2,7.4E1,4E0,9.6E1,2.3E1,5.1E1],"tree_param":{"num_deleted":"0","num_feature":"43","num_nodes":"7","size_leaf_vector":"0"}},{"base_weights":[2.2890884E1,1.5565522E0,5.219686E1,8.203546E-1,4.315802E-2,4.8964972E0,2.123858E0],"categories":[],"categories_nodes":[],"categories_segments":[],"categories_sizes":[],"default_left":[1,1,0,0,0,0,0],"id":11,"left_children":[1,3,5,-1,-1,-1,-1],"loss_changes":[1.0906088E5,1.0380891E3,3.0591734E4,0E0,0E0,0E0,0E0],"parents":[2147483647,0,0,1,1,2,2],"right_children":[2,4,6,-1,-1,-1,-1],"split_conditions":[4.8E1,6.7666664E1,7.752475E1,8.203546E-1,4.315802E-2,4.8964972E0,2.123858E0],"split_indices":[31,39,2,0,0,0,0],"split_type":[0,0,0,0,0,0,0],"sum_hessian":[1.74E2,1.01E2,7.3E1,4E0,9.7E1,1.2E1,6.1E1],"tree_param":{"num_deleted":"0","num_feature":"43","num_nodes":"7","size_leaf_vector":"0"}},{"base_weights":[2.184565E1,1.5099784E0,5.027659E1,7.8094214E-1,4.221142E-2,6.7907615E0,2.276951E0],"categories":[],"categories_nodes":[],"categories_segments":[],"categories_sizes":[],"default_left":[0,1,0,0,0,0,0],"id":12,"left_children":[1,3,5,-1,-1,-1,-1],"loss_changes":[9.911686E4,9.374012E2,2.5882594E4,0E0,0E0,0E0,0E0],"parents":[2147483647,0,0,1,1,2,2],"right_children":[2,4,6,-1,-1,-1,-1],"split_conditions":[4E0,6.7666664E1,-8.492997E-2,7.8094214E-1,4.221142E-2,6.7907615E0,2.276951E0],"split_indices":[1,39,22,0,0,0,0],"split_type":[0,0,0,0,0,0,0],"sum_hessian":[1.71E2,1E2,7.1E1,4E0,9.6E1,3E0,6.8E1],"tree_param":{"num_deleted":"0","num_feature":"43","num_nodes":"7","size_leaf_vector":"0"}},{"base_weights":[2.0470123E1,1.3066269E0,4.764312E1,7.3256356E-1,3.3878386E-2,4.3906765E0,1.8898758E0],"categories":[],"categories_nodes":[],"categories_segments":[],"categories_sizes":[],"default_left":[1,1,0,0,0,0,0],"id":13,"left_children":[1,3,5,-1,-1,-1,-1],"loss_changes":[8.8753266E4,8.386908E2,2.6223328E4,0E0,0E0,0E0,0E0],"parents":[2147483647,0,0,1,1,2,2],"right_children":[2,4,6,-1,-1,-1,-1],"split_conditions":[4.8E1,6.7666664E1,7.752475E1,7.3256356E-1,3.3878386E-2,4.3906765E0,1.8898758E0],"split_indices":[31,39,2,0,0,0,0],"split_type":[0,0,0,0,0,0,0],"sum_hessian":[1.7E2,1E2,7E1,4E0,9.6E1,1.3E1,5.7E1],"tree_param":{"num_deleted":"0","num_feature":"43","num_nodes":"7","size_leaf_vector":"0"}},{"base_weights":[1.9739069E1,1.6324494E0,4.5780018E1,7.69165E-1,4.159844E-2,6.311557E0,2.060077E0],"categories":[],"categories_nodes":[],"categories_segments":[],"categories_sizes":[],"default_left":[1,1,0,0,0,0,0],"id":14,"left_children":[1,3,5,-1,-1,-1,-1],"loss_changes":[7.9884195E4,1.0998334E3,2.2999422E4,0E0,0E0,0E0,0E0],"parents":[2147483647,0,0,1,1,2,2],"right_children":[2,4,6,-1,-1,-1,-1],"split_conditions":[1.7E1,6.7666664E1,-8.492997E-2,7.69165E-1,4.159844E-2,6.311557E0,2.060077E0],"split_indices":[25,39,22,0,0,0,0],"split_type":[0,0,0,0,0,0,0],"sum_hessian":[1.69E2,1E2,6.9E1,5E0,9.5E1,3E0,6.6E1],"tree_param":{"num_deleted":"0","num_feature":"43","num_nodes":"7","size_leaf_vector":"0"}},{"base_weights":[1.9200344E1,1.2579608E0,4.375731E1,6.371331E-1,3.6344673E-2,6.0410614E0,1.9839478E0],"categories":[],"categories_nodes":[],"categories_segments":[],"categories_sizes":[],"default_left":[1,1,0,0,0,0,0],"id":15,"left_children":[1,3,5,-1,-1,-1,-1],"loss_changes":[7.774023E4,6.205316E2,2.1017875E4,0E0,0E0,0E0,0E0],"parents":[2147483647,0,0,1,1,2,2],"right_children":[2,4,6,-1,-1,-1,-1],"split_conditions":[4.8E1,6.7666664E1,-8.492997E-2,6.371331E-1,3.6344673E-2,6.0410614E0,1.9839478E0],"split_indices":[31,39,22,0,0,0,0],"split_type":[0,0,0,0,0,0,0],"sum_hessian":[1.76E2,1.02E2,7.4E1,4E0,9.8E1,3E0,7.1E1],"tree_param":{"num_deleted":"0","num_feature":"43","num_nodes":"7","size_leaf_vector":"0"}},{"base_weights":[1.7631016E1,9.7625655E-1,4.1804024E1,9.9187595E-1,3.4053843E-2,3.1375644E0,1.4762819E0],"categories":[],"categories_nodes":[],"categories_segments":[],"categories_sizes":[],"default_left":[1,0,0,0,0,0,0],"id":16,"left_children":[1,3,5,-1,-1,-1,-1],"loss_changes":[6.660917E4,5.4163965E2,1.6434523E4,0E0,0E0,0E0,0E0],"parents":[2147483647,0,0,1,1,2,2],"right_children":[2,4,6,-1,-1,-1,-1],"split_conditions":[4.8E1,7.924663E1,4.127403E1,9.9187595E-1,3.4053843E-2,3.1375644E0,1.4762819E0],"split_indices":[31,2,3,0,0,0,0],"split_type":[0,0,0,0,0,0,0],"sum_hessian":[1.65E2,9.8E1,6.7E1,1E0,9.7E1,2.4E1,4.3E1],"tree_param":{"num_deleted":"0","num_feature":"43","num_nodes":"7","size_leaf_vector":"0"}},{"base_weights":[1.7177956E1,9.810437E-1,4.083457E1,9.588135E-1,3.5499327E-2,8.2482605E0,1.8003098E0],"categories":[],"categories_nodes":[],"categories_segments":[],"categories_sizes":[],"default_left":[0,0,0,0,0,0,0],"id":17,"left_children":[1,3,5,-1,-1,-1,-1],"loss_changes":[6.6458945E4,5.0364905E2,3.9284266E4,0E0,0E0,0E0,0E0],"parents":[2147483647,0,0,1,1,2,2],"right_children":[2,4,6,-1,-1,-1,-1],"split_conditions":[4E0,7.924663E1,-8.492997E-2,9.588135E-1,3.5499327E-2,8.2482605E0,1.8003098E0],"split_indices":[1,2,22,0,0,0,0],"split_type":[0,0,0,0,0,0,0],"sum_hessian":[1.73E2,1.03E2,7E1,1E0,1.02E2,2E0,6.8E1],"tree_param":{"num_deleted":"0","num_feature":"43","num_nodes":"7","size_leaf_vector":"0"}},{"base_weights":[1.574521E1,3.4603438E-1,3.71487E1,2.1229088E-1,-1.8997477E-2,1.2322991E0,3.163674E0],"categories":[],"categories_nodes":[],"categories_segments":[],"categories_sizes":[],"default_left":[1,0,0,0,0,0,0],"id":18,"left_children":[1,3,5,-1,-1,-1,-1],"loss_changes":[5.553052E4,2.7967783E2,2.224775E4,0E0,0E0,0E0,0E0],"parents":[2147483647,0,0,1,1,2,2],"right_children":[2,4,6,-1,-1,-1,-1],"split_conditions":[4.47E2,1.6963364E2,3.54E-2,2.1229088E-1,-1.8997477E-2,1.2322991E0,3.163674E0],"split_indices":[34,5,10,0,0,0,0],"split_type":[0,0,0,0,0,0,0],"sum_hessian":[1.68E2,9.8E1,7E1,1.5E1,8.3E1,4.8E1,2.2E1],"tree_param":{"num_deleted":"0","num_feature":"43","num_nodes":"7","size_leaf_vector":"0"}},{"base_weights":[1.4081249E1,1.4502885E0,3.344415E1,1.2864469E0,2.9448895E-2,1.2635707E0,3.5716195E0],"categories":[],"categories_nodes":[],"categories_segments":[],"categories_sizes":[],"default_left":[1,0,0,0,0,0,0],"id":19,"left_children":[1,3,5,-1,-1,-1,-1],"loss_changes":[4.118614E4,2.135848E3,1.9743508E4,0E0,0E0,0E0,0E0],"parents":[2147483647,0,0,1,1,2,2],"right_children":[2,4,6,-1,-1,-1,-1],"split_conditions":[5.9E1,2.3333334E1,1.41E-1,1.2864469E0,2.9448895E-2,1.2635707E0,3.5716195E0],"split_indices":[31,23,9,0,0,0,0],"split_type":[0,0,0,0,0,0,0],"sum_hessian":[1.68E2,1.02E2,6.6E1,3E0,9.9E1,5.5E1,1.1E1],"tree_param":{"num_deleted":"0","num_feature":"43","num_nodes":"7","size_leaf_vector":"0"}},{"base_weights":[1.4600682E1,9.9818873E-1,3.3355858E1,9.265046E-1,3.6443632E-2,1.1108205E0,2.7363343E0],"categories":[],"categories_nodes":[],"categories_segments":[],"categories_sizes":[],"default_left":[0,0,0,0,0,0,0],"id":20,"left_children":[1,3,5,-1,-1,-1,-1],"loss_changes":[4.399106E4,4.677701E2,1.6651375E4,0E0,0E0,0E0,0E0],"parents":[2147483647,0,0,1,1,2,2],"right_children":[2,4,6,-1,-1,-1,-1],"split_conditions":[4E0,7.924663E1,3.54E-2,9.265046E-1,3.6443632E-2,1.1108205E0,2.7363343E0],"split_indices":[1,2,10,0,0,0,0],"split_type":[0,0,0,0,0,0,0],"sum_hessian":[1.72E2,1E2,7.2E1,1E0,9.9E1,4.8E1,2.4E1],"tree_param":{"num_deleted":"0","num_feature":"43","num_nodes":"7","size_leaf_vector":"0"}},{"base_weights":[1.29738E1,1.6133863E0,3.342799E1,1.0238032E0,3.0644706E-2,4.921241E0,1.4590491E0],"categories":[],"categories_nodes":[],"categories_segments":[],"categories_sizes":[],"default_left":[1,0,0,0,0,0,0],"id":21,"left_children":[1,3,5,-1,-1,-1,-1],"loss_changes":[3.9359418E4,2.060205E3,1.5264469E4,0E0,0E0,0E0,0E0],"parents":[2147483647,0,0,1,1,2,2],"right_children":[2,4,6,-1,-1,-1,-1],"split_conditions":[6E1,6.9E1,-8.492997E-2,1.0238032E0,3.0644706E-2,4.921241E0,1.4590491E0],"split_indices":[31,24,22,0,0,0,0],"split_type":[0,0,0,0,0,0,0],"sum_hessian":[1.69E2,1.09E2,6E1,5E0,1.04E2,3E0,5.7E1],"tree_param":{"num_deleted":"0","num_feature":"43","num_nodes":"7","size_leaf_vector":"0"}},{"base_weights":[1.3287696E1,4.187389E0,3.7383377E1,-1.6435815E-2,1.2534568E0,1.1288458E0,2.9991663E0],"categories":[],"categories_nodes":[],"categories_segments":[],"categories_sizes":[],"default_left":[1,1,0,0,0,0,0],"id":22,"left_children":[1,3,5,-1,-1,-1,-1],"loss_changes":[3.7966477E4,1.1933598E4,1.5217586E4,0E0,0E0,0E0,0E0],"parents":[2147483647,0,0,1,1,2,2],"right_children":[2,4,6,-1,-1,-1,-1],"split_conditions":[3.6333332E1,4.8E0,3.54E-2,-1.6435815E-2,1.2534568E0,1.1288458E0,2.9991663E0],"split_indices":[25,33,10,0,0,0,0],"split_type":[0,0,0,0,0,0,0],"sum_hessian":[1.73E2,1.26E2,4.7E1,1.04E2,2.2E1,2.9E1,1.8E1],"tree_param":{"num_deleted":"0","num_feature":"43","num_nodes":"7","size_leaf_vector":"0"}},{"base_weights":[9.679016E0,6.233192E0,6.156182E1,9.398181E-1,-5.3573777E-3,5.836202E0,9.3185323E-1],"categories":[],"categories_nodes":[],"categories_segments":[],"categories_sizes":[],"default_left":[0,0,0,0,0,0,0],"id":23,"left_children":[1,3,5,-1,-1,-1,-1],"loss_changes":[3.0111184E4,1.2705941E4,2.3774469E4,0E0,0E0,0E0,0E0],"parents":[2147483647,0,0,1,1,2,2],"right_children":[2,4,6,-1,-1,-1,-1],"split_conditions":[2.279E-1,7.9333336E1,1.803E-1,9.398181E-1,-5.3573777E-3,5.836202E0,9.3185323E-1],"split_indices":[18,24,14,0,0,0,0],"split_type":[0,0,0,0,0,0,0],"sum_hessian":[1.69E2,1.59E2,1E1,5.3E1,1.06E2,4E0,6E0],"tree_param":{"num_deleted":"0","num_feature":"43","num_nodes":"7","size_leaf_vector":"0"}},{"base_weights":[1.2289411E1,1.4264884E0,2.8930193E1,1.7876471E0,4.6346944E-2,1.1310947E0,3.1349409E0],"categories":[],"categories_nodes":[],"categories_segments":[],"categories_sizes":[],"default_left":[1,0,0,0,0,0,0],"id":24,"left_children":[1,3,5,-1,-1,-1,-1],"loss_changes":[3.1342533E4,1.7925187E3,1.3882867E4,0E0,0E0,0E0,0E0],"parents":[2147483647,0,0,1,1,2,2],"right_children":[2,4,6,-1,-1,-1,-1],"split_conditions":[5.3E1,2.31E1,1.41E-1,1.7876471E0,4.6346944E-2,1.1310947E0,3.1349409E0],"split_indices":[31,30,9,0,0,0,0],"split_type":[0,0,0,0,0,0,0],"sum_hessian":[1.73E2,1.05E2,6.8E1,1E0,1.04E2,5.8E1,1E1],"tree_param":{"num_deleted":"0","num_feature":"43","num_nodes":"7","size_leaf_vector":"0"}},{"base_weights":[1.0834019E1,3.2092557E0,3.0704884E1,1.7323397E0,7.3564634E-2,3.0285704E0,1.0437135E0],"categories":[],"categories_nodes":[],"categories_segments":[],"categories_sizes":[],"default_left":[1,0,0,0,0,0,0],"id":25,"left_children":[1,3,5,-1,-1,-1,-1],"loss_changes":[2.5934803E4,6.776854E3,1.3314109E4,0E0,0E0,0E0,0E0],"parents":[2147483647,0,0,1,1,2,2],"right_children":[2,4,6,-1,-1,-1,-1],"split_conditions":[6.3E1,7.924663E1,3.0785315E0,1.7323397E0,7.3564634E-2,3.0285704E0,1.0437135E0],"split_indices":[31,2,6,0,0,0,0],"split_type":[0,0,0,0,0,0,0],"sum_hessian":[1.71E2,1.24E2,4.7E1,6E0,1.18E2,1.1E1,3.6E1],"tree_param":{"num_deleted":"0","num_feature":"43","num_nodes":"7","size_leaf_vector":"0"}},{"base_weights":[1.1310451E1,5.4588504E0,4.0164703E1,1.235597E0,4.0545397E-2,7.665843E-1,2.6586792E0],"categories":[],"categories_nodes":[],"categories_segments":[],"categories_sizes":[],"default_left":[1,0,0,0,0,0,0],"id":26,"left_children":[1,3,5,-1,-1,-1,-1],"loss_changes":[2.8509354E4,1.2652428E4,8.799301E3,0E0,0E0,0E0,0E0],"parents":[2147483647,0,0,1,1,2,2],"right_children":[2,4,6,-1,-1,-1,-1],"split_conditions":[2.7166666E1,2.4033333E1,3.54E-2,1.235597E0,4.0545397E-2,7.665843E-1,2.6586792E0],"split_indices":[23,23,10,0,0,0,0],"split_type":[0,0,0,0,0,0,0],"sum_hessian":[1.69E2,1.41E2,2.8E1,2.7E1,1.14E2,1E1,1.8E1],"tree_param":{"num_deleted":"0","num_feature":"43","num_nodes":"7","size_leaf_vector":"0"}},{"base_weights":[9.490565E0,6.289349E0,5.7056877E1,-1.1600698E-2,9.667142E-1,6.636314E0,1.5722443E0],"categories":[],"categories_nodes":[],"categories_segments":[],"categories_sizes":[],"default_left":[0,1,0,0,0,0,0],"id":27,"left_children":[1,3,5,-1,-1,-1,-1],"loss_changes":[2.5325805E4,1.3400888E4,1.826268E4,0E0,0E0,0E0,0E0],"parents":[2147483647,0,0,1,1,2,2],"right_children":[2,4,6,-1,-1,-1,-1],"split_conditions":[2.263E-1,4.8E0,3.2E-3,-1.1600698E-2,9.667142E-1,6.636314E0,1.5722443E0],"split_indices":[18,33,8,0,0,0,0],"split_type":[0,0,0,0,0,0,0],"sum_hessian":[1.67E2,1.57E2,1E1,1.05E2,5.2E1,2E0,8E0],"tree_param":{"num_deleted":"0","num_feature":"43","num_nodes":"7","size_leaf_vector":"0"}},{"base_weights":[9.097346E0,4.2778936E-1,2.2594765E1,8.350717E-1,9.259241E-3,5.309051E0,1.0237873E0],"categories":[],"categories_nodes":[],"categories_segments":[],"categories_sizes":[],"default_left":[1,0,0,0,0,0,0],"id":28,"left_children":[1,3,5,-1,-1,-1,-1],"loss_changes":[1.9595453E4,4.0312973E2,1.0514352E4,0E0,0E0,0E0,0E0],"parents":[2147483647,0,0,1,1,2,2],"right_children":[2,4,6,-1,-1,-1,-1],"split_conditions":[3.7E0,7.924663E1,-8.492997E-2,8.350717E-1,9.259241E-3,5.309051E0,1.0237873E0],"split_indices":[26,2,22,0,0,0,0],"split_type":[0,0,0,0,0,0,0],"sum_hessian":[1.67E2,1.02E2,6.5E1,1E0,1.01E2,1E0,6.4E1],"tree_param":{"num_deleted":"0","num_feature":"43","num_nodes":"7","size_leaf_vector":"0"}},{"base_weights":[9.76893E0,2.4778328E0,2.8303059E1,-2.238003E-2,8.387622E-1,8.1338274E-1,2.3200974E0],"categories":[],"categories_nodes":[],"categories_segments":[],"categories_sizes":[],"default_left":[1,1,0,0,0,0,0],"id":29,"left_children":[1,3,5,-1,-1,-1,-1],"loss_changes":[2.3680977E4,5.294759E3,1.0405035E4,0E0,0E0,0E0,0E0],"parents":[2147483647,0,0,1,1,2,2],"right_children":[2,4,6,-1,-1,-1,-1],"split_conditions":[3.6333332E1,4.8E0,3.54E-2,-2.238003E-2,8.387622E-1,8.1338274E-1,2.3200974E0],"split_indices":[25,33,10,0,0,0,0],"split_type":[0,0,0,0,0,0,0],"sum_hessian":[1.75E2,1.26E2,4.9E1,1.05E2,2.1E1,3E1,1.9E1],"tree_param":{"num_deleted":"0","num_feature":"43","num_nodes":"7","size_leaf_vector":"0"}},{"base_weights":[7.530077E0,2.953567E0,3.110781E1,9.765832E-1,3.9199257E-4,-1.8605231E0,1.719397E0],"categories":[],"categories_nodes":[],"categories_segments":[],"categories_sizes":[],"default_left":[1,0,0,0,0,0,0],"id":30,"left_children":[1,3,5,-1,-1,-1,-1],"loss_changes":[1.8243742E4,6.958847E3,6.8023496E3,0E0,0E0,0E0,0E0],"parents":[2147483647,0,0,1,1,2,2],"right_children":[2,4,6,-1,-1,-1,-1],"split_conditions":[2.7166666E1,2.54E1,-9.486272E-2,9.765832E-1,3.9199257E-4,-1.8605231E0,1.719397E0],"split_indices":[23,30,22,0,0,0,0],"split_type":[0,0,0,0,0,0,0],"sum_hessian":[1.69E2,1.42E2,2.7E1,2.1E1,1.21E2,1E0,2.6E1],"tree_param":{"num_deleted":"0","num_feature":"43","num_nodes":"7","size_leaf_vector":"0"}},{"base_weights":[7.6411185E0,5.9969196E0,6.000982E0,7.424427E-2,8.9824456E-1],"categories":[],"categories_nodes":[],"categories_segments":[],"categories_sizes":[],"default_left":[0,0,1,0,0],"id":31,"left_children":[1,-1,3,-1,-1],"loss_changes":[3.1964223E4,0E0,9.360896E3,0E0,0E0],"parents":[2147483647,0,0,2,2],"right_children":[2,-1,4,-1,-1],"split_conditions":[-8.492997E-2,5.9969196E0,6.3E1,7.424427E-2,8.9824456E-1],"split_indices":[22,0,31,0,0],"split_type":[0,0,0,0,0],"sum_hessian":[1.75E2,2E0,1.73E2,1.26E2,4.7E1],"tree_param":{"num_deleted":"0","num_feature":"43","num_nodes":"5","size_leaf_vector":"0"}},{"base_weights":[6.9449596E0,3.849056E1,3.7782118E0,1.143524E0,5.757043E0,9.2258924E-1,-1.2499108E-2],"categories":[],"categories_nodes":[],"categories_segments":[],"categories_sizes":[],"default_left":[0,0,0,0,0,0,0],"id":32,"left_children":[1,3,5,-1,-1,-1,-1],"loss_changes":[1.6959717E4,1.7241232E4,9.1936E3,0E0,0E0,0E0,0E0],"parents":[2147483647,0,0,1,1,2,2],"right_children":[2,4,6,-1,-1,-1,-1],"split_conditions":[7.924663E1,3.92E-2,2.63E1,1.143524E0,5.757043E0,9.2258924E-1,-1.2499108E-2],"split_indices":[2,20,30,0,0,0,0],"split_type":[0,0,0,0,0,0,0],"sum_hessian":[1.7E2,1.5E1,1.55E2,1.3E1,2E0,3.3E1,1.22E2],"tree_param":{"num_deleted":"0","num_feature":"43","num_nodes":"7","size_leaf_vector":"0"}},{"base_weights":[7.260712E0,3.4389608E0,2.7627182E1,8.178092E-1,-2.5128469E-2,-2.0365205E0,1.5487607E0],"categories":[],"categories_nodes":[],"categories_segments":[],"categories_sizes":[],"default_left":[1,0,0,0,0,0,0],"id":33,"left_children":[1,3,5,-1,-1,-1,-1],"loss_changes":[1.3534806E4,7.51387E3,6.9245566E3,0E0,0E0,0E0,0E0],"parents":[2147483647,0,0,1,1,2,2],"right_children":[2,4,6,-1,-1,-1,-1],"split_conditions":[2.7166666E1,4E1,-9.486272E-2,8.178092E-1,-2.5128469E-2,-2.0365205E0,1.5487607E0],"split_indices":[23,32,22,0,0,0,0],"split_type":[0,0,0,0,0,0,0],"sum_hessian":[1.74E2,1.47E2,2.7E1,3.4E1,1.13E2,1E0,2.6E1],"tree_param":{"num_deleted":"0","num_feature":"43","num_nodes":"7","size_leaf_vector":"0"}},{"base_weights":[7.5010543E0,1.6036555E0,2.3210207E1,5.2049797E-2,2.3697371E0,1.4636348E0,-5.133128E-1],"categories":[],"categories_nodes":[],"categories_segments":[],"categories_sizes":[],"default_left":[1,1,0,0,0,0,0],"id":34,"left_children":[1,3,5,-1,-1,-1,-1],"loss_changes":[1.5777044E4,3.1830476E3,9.587469E3,0E0,0E0,0E0,0E0],"parents":[2147483647,0,0,1,1,2,2],"right_children":[2,4,6,-1,-1,-1,-1],"split_conditions":[6.3E1,3.1066668E1,2.178E-1,5.2049797E-2,2.3697371E0,1.4636348E0,-5.133128E-1],"split_indices":[31,23,12,0,0,0,0],"split_type":[0,0,0,0,0,0,0],"sum_hessian":[1.7E2,1.24E2,4.6E1,1.23E2,1E0,3.9E1,7E0],"tree_param":{"num_deleted":"0","num_feature":"43","num_nodes":"7","size_leaf_vector":"0"}},{"base_weights":[6.947506E0,3.3201814E0,2.7508366E1,7.834214E-1,-3.3096276E-2,-2.0174246E0,1.5550736E0],"categories":[],"categories_nodes":[],"categories_segments":[],"categories_sizes":[],"default_left":[1,0,0,0,0,0,0],"id":35,"left_children":[1,3,5,-1,-1,-1,-1],"loss_changes":[1.2670379E4,7.159717E3,6.8447793E3,0E0,0E0,0E0,0E0],"parents":[2147483647,0,0,1,1,2,2],"right_children":[2,4,6,-1,-1,-1,-1],"split_conditions":[2.7166666E1,2.64E1,-9.486272E-2,7.834214E-1,-3.3096276E-2,-2.0174246E0,1.5550736E0],"split_indices":[23,30,22,0,0,0,0],"split_type":[0,0,0,0,0,0,0],"sum_hessian":[1.7E2,1.45E2,2.5E1,3.5E1,1.1E2,1E0,2.4E1],"tree_param":{"num_deleted":"0","num_feature":"43","num_nodes":"7","size_leaf_vector":"0"}},{"base_weights":[6.3594685E0,3.5689216E0,3.21273E1,7.4861103E-1,-5.849273E-3,-1.9501771E0,1.8987284E0],"categories":[],"categories_nodes":[],"categories_segments":[],"categories_sizes":[],"default_left":[1,0,0,0,0,0,0],"id":36,"left_children":[1,3,5,-1,-1,-1,-1],"loss_changes":[1.2130796E4,6.452712E3,7.6032656E3,0E0,0E0,0E0,0E0],"parents":[2147483647,0,0,1,1,2,2],"right_children":[2,4,6,-1,-1,-1,-1],"split_conditions":[7.3666664E1,2.5033333E1,-9.486272E-2,7.4861103E-1,-5.849273E-3,-1.9501771E0,1.8987284E0],"split_indices":[25,23,22,0,0,0,0],"split_type":[0,0,0,0,0,0,0],"sum_hessian":[1.69E2,1.53E2,1.6E1,3.7E1,1.16E2,1E0,1.5E1],"tree_param":{"num_deleted":"0","num_feature":"43","num_nodes":"7","size_leaf_vector":"0"}},{"base_weights":[6.0982394E0,2.0404468E0,2.7604328E1,7.4891675E-1,-9.206663E-3,1.7136191E0,-5.142429E-1],"categories":[],"categories_nodes":[],"categories_segments":[],"categories_sizes":[],"default_left":[1,0,0,0,0,0,0],"id":37,"left_children":[1,3,5,-1,-1,-1,-1],"loss_changes":[1.5112705E4,4.217849E3,7.124035E3,0E0,0E0,0E0,0E0],"parents":[2147483647,0,0,1,1,2,2],"right_children":[2,4,6,-1,-1,-1,-1],"split_conditions":[2.7166666E1,2.53E1,8.3E1,7.4891675E-1,-9.206663E-3,1.7136191E0,-5.142429E-1],"split_indices":[23,30,1,0,0,0,0],"split_type":[0,0,0,0,0,0,0],"sum_hessian":[1.73E2,1.46E2,2.7E1,2.1E1,1.25E2,2.3E1,4E0],"tree_param":{"num_deleted":"0","num_feature":"43","num_nodes":"7","size_leaf_vector":"0"}},{"base_weights":[5.3274355E0,2.3108938E0,2.822622E1,8.232568E-1,2.0595629E-2,8.612408E-1,5.199568E0],"categories":[],"categories_nodes":[],"categories_segments":[],"categories_sizes":[],"default_left":[1,0,0,0,0,0,0],"id":38,"left_children":[1,3,5,-1,-1,-1,-1],"loss_changes":[1.2159146E4,4.203116E3,1.6191602E4,0E0,0E0,0E0,0E0],"parents":[2147483647,0,0,1,1,2,2],"right_children":[2,4,6,-1,-1,-1,-1],"split_conditions":[7.3666664E1,4.89E2,3.92E-2,8.232568E-1,2.0595629E-2,8.612408E-1,5.199568E0],"split_indices":[25,34,20,0,0,0,0],"split_type":[0,0,0,0,0,0,0],"sum_hessian":[1.76E2,1.56E2,2E1,1.8E1,1.38E2,1.8E1,2E0],"tree_param":{"num_deleted":"0","num_feature":"43","num_nodes":"7","size_leaf_vector":"0"}},{"base_weights":[4.1794353E0,1.5935522E0,3.618064E1,7.6587987E-1,1.4389411E-2,9.6513695E-1,4.9915853E0],"categories":[],"categories_nodes":[],"categories_segments":[],"categories_sizes":[],"default_left":[1,0,0,0,0,0,0],"id":39,"left_children":[1,3,5,-1,-1,-1,-1],"loss_changes":[1.3832025E4,2.7844126E3,1.2465192E4,0E0,0E0,0E0,0E0],"parents":[2147483647,0,0,1,1,2,2],"right_children":[2,4,6,-1,-1,-1,-1],"split_conditions":[1.46E1,2.48E1,1.848E-1,7.6587987E-1,1.4389411E-2,9.6513695E-1,4.9915853E0],"split_indices":[33,30,11,0,0,0,0],"split_type":[0,0,0,0,0,0,0],"sum_hessian":[1.67E2,1.55E2,1.2E1,1.3E1,1.42E2,1E1,2E0],"tree_param":{"num_deleted":"0","num_feature":"43","num_nodes":"7","size_leaf_vector":"0"}},{"base_weights":[5.005056E0,2.1124481E1,2.4544938E0,1.4698243E0,-4.3099713E-1,8.090662E-2,2.5654461E0],"categories":[],"categories_nodes":[],"categories_segments":[],"categories_sizes":[],"default_left":[0,0,1,0,0,0,0],"id":40,"left_children":[1,3,5,-1,-1,-1,-1],"loss_changes":[7.06617E3,5.9087793E3,6.067052E3,0E0,0E0,0E0,0E0],"parents":[2147483647,0,0,1,1,2,2],"right_children":[2,4,6,-1,-1,-1,-1],"split_conditions":[4.89E2,2.646E-1,3.32E1,1.4698243E0,-4.3099713E-1,8.090662E-2,2.5654461E0],"split_indices":[34,11,30,0,0,0,0],"split_type":[0,0,0,0,0,0,0],"sum_hessian":[1.72E2,2.3E1,1.49E2,1.8E1,5E0,1.47E2,2E0],"tree_param":{"num_deleted":"0","num_feature":"43","num_nodes":"7","size_leaf_vector":"0"}},{"base_weights":[6.410727E0,2.8877008E0,2.467796E1,8.4792274E-1,-2.2305759E-2,1.2846547E-1,1.768204E0],"categories":[],"categories_nodes":[],"categories_segments":[],"categories_sizes":[],"default_left":[1,0,0,0,0,0,0],"id":41,"left_children":[1,3,5,-1,-1,-1,-1],"loss_changes":[1.0937058E4,6.7352676E3,6.4515996E3,0E0,0E0,0E0,0E0],"parents":[2147483647,0,0,1,1,2,2],"right_children":[2,4,6,-1,-1,-1,-1],"split_conditions":[2.7166666E1,2.4033333E1,3.54E-2,8.4792274E-1,-2.2305759E-2,1.2846547E-1,1.768204E0],"split_indices":[23,23,10,0,0,0,0],"split_type":[0,0,0,0,0,0,0],"sum_hessian":[1.7E2,1.43E2,2.7E1,2.7E1,1.16E2,9E0,1.8E1],"tree_param":{"num_deleted":"0","num_feature":"43","num_nodes":"7","size_leaf_vector":"0"}},{"base_weights":[4.7983727E0,4.0152832E1,2.8872552E0,-2.0648077E0,2.6882887E0,8.401848E-1,4.6579886E-2],"categories":[],"categories_nodes":[],"categories_segments":[],"categories_sizes":[],"default_left":[0,0,0,0,0,0,0],"id":42,"left_children":[1,3,5,-1,-1,-1,-1],"loss_changes":[1.1191859E4,1.0534622E4,4.305876E3,0E0,0E0,0E0,0E0],"parents":[2147483647,0,0,1,1,2,2],"right_children":[2,4,6,-1,-1,-1,-1],"split_conditions":[7.4697044E1,-9.486272E-2,4.83E2,-2.0648077E0,2.6882887E0,8.401848E-1,4.6579886E-2],"split_indices":[2,22,34,0,0,0,0],"split_type":[0,0,0,0,0,0,0],"sum_hessian":[1.66E2,8E0,1.58E2,1E0,7E0,1.9E1,1.39E2],"tree_param":{"num_deleted":"0","num_feature":"43","num_nodes":"7","size_leaf_vector":"0"}},{"base_weights":[4.6594524E0,4.1177837E1,2.6863549E0,9.191565E-1,4.6104255E0,6.533882E-1,2.5256172E-2],"categories":[],"categories_nodes":[],"categories_segments":[],"categories_sizes":[],"default_left":[0,0,0,0,0,0,0],"id":43,"left_children":[1,3,5,-1,-1,-1,-1],"loss_changes":[1.1941738E4,9.039908E3,3.5858147E3,0E0,0E0,0E0,0E0],"parents":[2147483647,0,0,1,1,2,2],"right_children":[2,4,6,-1,-1,-1,-1],"split_conditions":[7.4697044E1,1.848E-1,4.8E0,9.191565E-1,4.6104255E0,6.533882E-1,2.5256172E-2],"split_indices":[2,11,26,0,0,0,0],"split_type":[0,0,0,0,0,0,0],"sum_hessian":[1.66E2,8E0,1.58E2,6E0,2E0,2.7E1,1.31E2],"tree_param":{"num_deleted":"0","num_feature":"43","num_nodes":"7","size_leaf_vector":"0"}},{"base_weights":[4.7780056E0,2.2465221E1,2.2183795E0,1.6186718E0,-9.2814285E-1,2.1756463E-1,-5.2905434E-1],"categories":[],"categories_nodes":[],"categories_segments":[],"categories_sizes":[],"default_left":[0,0,0,0,0,0,0],"id":44,"left_children":[1,3,5,-1,-1,-1,-1],"loss_changes":[7.6940703E3,9.040545E3,4.1043926E3,0E0,0E0,0E0,0E0],"parents":[2147483647,0,0,1,1,2,2],"right_children":[2,4,6,-1,-1,-1,-1],"split_conditions":[6.88259E-2,2.042E-1,1.207E-1,1.6186718E0,-9.2814285E-1,2.1756463E-1,-5.2905434E-1],"split_indices":[22,13,17,0,0,0,0],"split_type":[0,0,0,0,0,0,0],"sum_hessian":[1.7E2,2.1E1,1.49E2,1.7E1,4E0,1.28E2,2.1E1],"tree_param":{"num_deleted":"0","num_feature":"43","num_nodes":"7","size_leaf_vector":"0"}},{"base_weights":[4.0644464E0,2.5025995E0,2.774485E1,1.6509926E-1,-1.6913637E0,3.4234865E0,-1.2917563E-1],"categories":[],"categories_nodes":[],"categories_segments":[],"categories_sizes":[],"default_left":[0,0,0,0,0,0,0],"id":45,"left_children":[1,3,5,-1,-1,-1,-1],"loss_changes":[6.271255E3,4.7170234E3,1.3057193E4,0E0,0E0,0E0,0E0],"parents":[2147483647,0,0,1,1,2,2],"right_children":[2,4,6,-1,-1,-1,-1],"split_conditions":[2.279E-1,1.725E-1,4.9E-3,1.6509926E-1,-1.6913637E0,3.4234865E0,-1.2917563E-1],"split_indices":[18,19,8,0,0,0,0],"split_type":[0,0,0,0,0,0,0],"sum_hessian":[1.7E2,1.6E2,1E1,1.57E2,3E0,4E0,6E0],"tree_param":{"num_deleted":"0","num_feature":"43","num_nodes":"7","size_leaf_vector":"0"}},{"base_weights":[3.2998633E0,1.7136785E0,2.584573E1,1.2880401E-1,-1.4617865E0,3.271331E0,1.8707326E-2],"categories":[],"categories_nodes":[],"categories_segments":[],"categories_sizes":[],"default_left":[0,0,0,0,0,0,0],"id":46,"left_children":[1,3,5,-1,-1,-1,-1],"loss_changes":[6.25407E3,4.428298E3,1.1581923E4,0E0,0E0,0E0,0E0],"parents":[2147483647,0,0,1,1,2,2],"right_children":[2,4,6,-1,-1,-1,-1],"split_conditions":[2.279E-1,1.725E-1,4.9E-3,1.2880401E-1,-1.4617865E0,3.271331E0,1.8707326E-2],"split_indices":[18,19,8,0,0,0,0],"split_type":[0,0,0,0,0,0,0],"sum_hessian":[1.75E2,1.64E2,1.1E1,1.6E2,4E0,4E0,7E0],"tree_param":{"num_deleted":"0","num_feature":"43","num_nodes":"7","size_leaf_vector":"0"}},{"base_weights":[3.3411155E0,1.7805791E0,2.6590063E1,5.4128826E-2,2.2420113E0,3.1259387E0,-1.6452437E-2],"categories":[],"categories_nodes":[],"categories_segments":[],"categories_sizes":[],"default_left":[0,1,0,0,0,0,0],"id":47,"left_children":[1,3,5,-1,-1,-1,-1],"loss_changes":[6.053366E3,4.7095083E3,1.0165559E4,0E0,0E0,0E0,0E0],"parents":[2147483647,0,0,1,1,2,2],"right_children":[2,4,6,-1,-1,-1,-1],"split_conditions":[2.279E-1,3.32E1,4.9E-3,5.4128826E-2,2.2420113E0,3.1259387E0,-1.6452437E-2],"split_indices":[18,30,8,0,0,0,0],"split_type":[0,0,0,0,0,0,0],"sum_hessian":[1.67E2,1.57E2,1E1,1.55E2,2E0,4E0,6E0],"tree_param":{"num_deleted":"0","num_feature":"43","num_nodes":"7","size_leaf_vector":"0"}},{"base_weights":[3.0304193E0,1.545769E0,2.3619217E1,1.1424359E0,2.719067E-3,3.9684308E0,3.8526025E-1],"categories":[],"categories_nodes":[],"categories_segments":[],"categories_sizes":[],"default_left":[0,0,0,0,0,0,0],"id":48,"left_children":[1,3,5,-1,-1,-1,-1],"loss_changes":[5.2240137E3,5.0986167E3,9.896985E3,0E0,0E0,0E0,0E0],"parents":[2147483647,0,0,1,1,2,2],"right_children":[2,4,6,-1,-1,-1,-1],"split_conditions":[2.279E-1,2.47E1,1.605E-1,1.1424359E0,2.719067E-3,3.9684308E0,3.8526025E-1],"split_indices":[18,30,9,0,0,0,0],"split_type":[0,0,0,0,0,0,0],"sum_hessian":[1.71E2,1.6E2,1.1E1,1E1,1.5E2,2E0,9E0],"tree_param":{"num_deleted":"0","num_feature":"43","num_nodes":"7","size_leaf_vector":"0"}},{"base_weights":[3.377575E0,7.170203E-1,1.6352537E1,2.1824915E0,-1.9351386E-3,-1.9773645E0,9.503873E-1],"categories":[],"categories_nodes":[],"categories_segments":[],"categories_sizes":[],"default_left":[1,0,0,0,0,0,0],"id":49,"left_children":[1,3,5,-1,-1,-1,-1],"loss_changes":[5.983461E3,4.6891924E3,4.7544126E3,0E0,0E0,0E0,0E0],"parents":[2147483647,0,0,1,1,2,2],"right_children":[2,4,6,-1,-1,-1,-1],"split_conditions":[2.7166666E1,4E0,-9.486272E-2,2.1824915E0,-1.9351386E-3,-1.9773645E0,9.503873E-1],"split_indices":[23,33,22,0,0,0,0],"split_type":[0,0,0,0,0,0,0],"sum_hessian":[1.73E2,1.44E2,2.9E1,2E0,1.42E2,1E0,2.8E1],"tree_param":{"num_deleted":"0","num_feature":"43","num_nodes":"7","size_leaf_vector":"0"}},{"base_weights":[4.432298E0,6.179755E-1,1.1922897E1,6.1502546E-2,-1.3402094E0,4.4773218E-1,3.7716777E0],"categories":[],"categories_nodes":[],"categories_segments":[],"categories_sizes":[],"default_left":[1,0,0,0,0,0,0],"id":50,"left_children":[1,3,5,-1,-1,-1,-1],"loss_changes":[4.8677676E3,1.9215186E3,1.0501916E4,0E0,0E0,0E0,0E0],"parents":[2147483647,0,0,1,1,2,2],"right_children":[2,4,6,-1,-1,-1,-1],"split_conditions":[4.8E0,4.963E-1,2.014E-1,6.1502546E-2,-1.3402094E0,4.4773218E-1,3.7716777E0],"split_indices":[33,9,19,0,0,0,0],"split_type":[0,0,0,0,0,0,0],"sum_hessian":[1.7E2,1.13E2,5.7E1,1.11E2,2E0,5.5E1,2E0],"tree_param":{"num_deleted":"0","num_feature":"43","num_nodes":"7","size_leaf_vector":"0"}},{"base_weights":[2.4542239E0,1.867872E1,8.497364E-1,3.6020556E-1,2.8495538E0,2.0927317E0,9.38807E-3],"categories":[],"categories_nodes":[],"categories_segments":[],"categories_sizes":[],"default_left":[0,0,0,0,0,0,0],"id":51,"left_children":[1,3,5,-1,-1,-1,-1],"loss_changes":[4.482584E3,6.608814E3,4.2712847E3,0E0,0E0,0E0,0E0],"parents":[2147483647,0,0,1,1,2,2],"right_children":[2,4,6,-1,-1,-1,-1],"split_conditions":[7.924663E1,6E1,4E0,3.6020556E-1,2.8495538E0,2.0927317E0,9.38807E-3],"split_indices":[2,1,33,0,0,0,0],"split_type":[0,0,0,0,0,0,0],"sum_hessian":[1.72E2,1.5E1,1.57E2,1.2E1,3E0,2E0,1.55E2],"tree_param":{"num_deleted":"0","num_feature":"43","num_nodes":"7","size_leaf_vector":"0"}},{"base_weights":[3.3764439E0,2.9223573E0,2.8820493E0,1.1482022E-1,2.0889056E0],"categories":[],"categories_nodes":[],"categories_segments":[],"categories_sizes":[],"default_left":[0,0,1,0,0],"id":52,"left_children":[1,-1,3,-1,-1],"loss_changes":[4.5851475E3,0E0,3.835898E3,0E0,0E0],"parents":[2147483647,0,0,2,2],"right_children":[2,-1,4,-1,-1],"split_conditions":[-8.492997E-2,2.9223573E0,3.32E1,1.1482022E-1,2.0889056E0],"split_indices":[22,0,30,0,0],"split_type":[0,0,0,0,0],"sum_hessian":[1.71E2,1E0,1.7E2,1.68E2,2E0],"tree_param":{"num_deleted":"0","num_feature":"43","num_nodes":"5","size_leaf_vector":"0"}},{"base_weights":[3.7349982E0,1.9448847E1,1.6865761E0,1.511434E0,-5.3693956E-1,2.7749395E-2,1.9169331E0],"categories":[],"categories_nodes":[],"categories_segments":[],"categories_sizes":[],"default_left":[0,0,0,0,0,0,0],"id":53,"left_children":[1,3,5,-1,-1,-1,-1],"loss_changes":[5.439566E3,6.5079546E3,6.231359E3,0E0,0E0,0E0,0E0],"parents":[2147483647,0,0,1,1,2,2],"right_children":[2,4,6,-1,-1,-1,-1],"split_conditions":[4.83E2,8.1E1,5.03E-2,1.511434E0,-5.3693956E-1,2.7749395E-2,1.9169331E0],"split_indices":[34,21,20,0,0,0,0],"split_type":[0,0,0,0,0,0,0],"sum_hessian":[1.69E2,1.9E1,1.5E2,1.4E1,5E0,1.46E2,4E0],"tree_param":{"num_deleted":"0","num_feature":"43","num_nodes":"7","size_leaf_vector":"0"}},{"base_weights":[2.0709875E0,-1.1161485E-2,1.8408134E1,1.7151631E0,-2.8868465E-2,-2.036721E0,1.135298E0],"categories":[],"categories_nodes":[],"categories_segments":[],"categories_sizes":[],"default_left":[1,0,0,0,0,0,0],"id":54,"left_children":[1,3,5,-1,-1,-1,-1],"loss_changes":[5.867927E3,2.9922688E3,5.4190503E3,0E0,0E0,0E0,0E0],"parents":[2147483647,0,0,1,1,2,2],"right_children":[2,4,6,-1,-1,-1,-1],"split_conditions":[7.3666664E1,2.31E1,-9.486272E-2,1.7151631E0,-2.8868465E-2,-2.036721E0,1.135298E0],"split_indices":[25,30,22,0,0,0,0],"split_type":[0,0,0,0,0,0,0],"sum_hessian":[1.72E2,1.53E2,1.9E1,2E0,1.51E2,1E0,1.8E1],"tree_param":{"num_deleted":"0","num_feature":"43","num_nodes":"7","size_leaf_vector":"0"}},{"base_weights":[2.5991745E0,1.3284383E0,2.7188263E1,-1.3371452E0,1.14312306E-1,2.5264E0,4.1380227E-2],"categories":[],"categories_nodes":[],"categories_segments":[],"categories_sizes":[],"default_left":[0,0,0,0,0,0,0],"id":55,"left_children":[1,3,5,-1,-1,-1,-1],"loss_changes":[5.403164E3,4.480361E3,5.208724E3,0E0,0E0,0E0,0E0],"parents":[2147483647,0,0,1,1,2,2],"right_children":[2,4,6,-1,-1,-1,-1],"split_conditions":[2.265E-1,3.5200797E-2,1.998E-1,-1.3371452E0,1.14312306E-1,2.5264E0,4.1380227E-2],"split_indices":[17,22,13,0,0,0,0],"split_type":[0,0,0,0,0,0,0],"sum_hessian":[1.73E2,1.65E2,8E0,5E0,1.6E2,4E0,4E0],"tree_param":{"num_deleted":"0","num_feature":"43","num_nodes":"7","size_leaf_vector":"0"}},{"base_weights":[2.9081576E0,5.415557E-1,1.579784E1,1.4590863E0,-2.057961E-2,2.6082535E0,4.894826E-1],"categories":[],"categories_nodes":[],"categories_segments":[],"categories_sizes":[],"default_left":[1,0,0,0,0,0,0],"id":56,"left_children":[1,3,5,-1,-1,-1,-1],"loss_changes":[5.0137534E3,3.8141208E3,5.31644E3,0E0,0E0,0E0,0E0],"parents":[2147483647,0,0,1,1,2,2],"right_children":[2,4,6,-1,-1,-1,-1],"split_conditions":[2.7166666E1,2.41E1,1.65E-2,1.4590863E0,-2.057961E-2,2.6082535E0,4.894826E-1],"split_indices":[23,30,20,0,0,0,0],"split_type":[0,0,0,0,0,0,0],"sum_hessian":[1.64E2,1.39E2,2.5E1,4E0,1.35E2,3E0,2.2E1],"tree_param":{"num_deleted":"0","num_feature":"43","num_nodes":"7","size_leaf_vector":"0"}},{"base_weights":[2.1983333E0,-1.2144775E0,8.917658E0,-1.495471E-2,-8.270872E-1,3.0267712E-1,1.7983497E0],"categories":[],"categories_nodes":[],"categories_segments":[],"categories_sizes":[],"default_left":[1,0,0,0,0,0,0],"id":57,"left_children":[1,3,5,-1,-1,-1,-1],"loss_changes":[3.9840793E3,1.6180287E3,4.423273E3,0E0,0E0,0E0,0E0],"parents":[2147483647,0,0,1,1,2,2],"right_children":[2,4,6,-1,-1,-1,-1],"split_conditions":[4.8E0,8.6E1,1.648E-1,-1.495471E-2,-8.270872E-1,3.0267712E-1,1.7983497E0],"split_indices":[33,21,13,0,0,0,0],"split_type":[0,0,0,0,0,0,0],"sum_hessian":[1.73E2,1.15E2,5.8E1,1.09E2,6E0,5.3E1,5E0],"tree_param":{"num_deleted":"0","num_feature":"43","num_nodes":"7","size_leaf_vector":"0"}},{"base_weights":[5.670548E-1,-3.5413068E-2,1.9325055E0,-5.5238612E-2,8.397393E-1],"categories":[],"categories_nodes":[],"categories_segments":[],"categories_sizes":[],"default_left":[1,0,0,0,0],"id":58,"left_children":[1,3,-1,-1,-1],"loss_changes":[3.6831667E3,2.8618853E3,0E0,0E0,0E0],"parents":[2147483647,0,0,1,1],"right_children":[2,4,-1,-1,-1],"split_conditions":[3.32E1,3.88E-2,1.9325055E0,-5.5238612E-2,8.397393E-1],"split_indices":[30,20,0,0,0],"split_type":[0,0,0,0,0],"sum_hessian":[1.6E2,1.58E2,2E0,1.49E2,9E0],"tree_param":{"num_deleted":"0","num_feature":"43","num_nodes":"5","size_leaf_vector":"0"}},{"base_weights":[2.7551837E0,-5.4120195E-1,1.1084857E1,2.7908549E-2,-7.8532904E-1,1.7625083E0,3.3449903E-1],"categories":[],"categories_nodes":[],"categories_segments":[],"categories_sizes":[],"default_left":[1,1,0,0,0,0,0],"id":59,"left_children":[1,3,5,-1,-1,-1,-1],"loss_changes":[4.794388E3,2.0967705E3,5.139164E3,0E0,0E0,0E0,0E0],"parents":[2147483647,0,0,1,1,2,2],"right_children":[2,4,6,-1,-1,-1,-1],"split_conditions":[3.6333332E1,2.7E1,1.65E-2,2.7908549E-2,-7.8532904E-1,1.7625083E0,3.3449903E-1],"split_indices":[25,32,20,0,0,0,0],"split_type":[0,0,0,0,0,0,0],"sum_hessian":[1.74E2,1.25E2,4.9E1,1.17E2,8E0,7E0,4.2E1],"tree_param":{"num_deleted":"0","num_feature":"43","num_nodes":"7","size_leaf_vector":"0"}},{"base_weights":[2.0384834E0,1.5365338E0,1.8132648E0,-3.3814564E-2,4.755861E-1],"categories":[],"categories_nodes":[],"categories_segments":[],"categories_sizes":[],"default_left":[1,0,0,0,0],"id":60,"left_children":[1,3,-1,-1,-1],"loss_changes":[2.9700713E3,3.0474438E3,0E0,0E0,0E0],"parents":[2147483647,0,0,1,1],"right_children":[2,4,-1,-1,-1],"split_conditions":[3.32E1,1.88E-1,1.8132648E0,-3.3814564E-2,4.755861E-1],"split_indices":[30,11,0,0,0],"split_type":[0,0,0,0,0],"sum_hessian":[1.74E2,1.72E2,2E0,1.35E2,3.7E1],"tree_param":{"num_deleted":"0","num_feature":"43","num_nodes":"5","size_leaf_vector":"0"}},{"base_weights":[2.1998744E0,4.9861363E-1,1.2469224E1,8.567555E-2,-9.3773407E-1,2.481261E0,2.9106948E-1],"categories":[],"categories_nodes":[],"categories_segments":[],"categories_sizes":[],"default_left":[1,1,0,0,0,0,0],"id":61,"left_children":[1,3,5,-1,-1,-1,-1],"loss_changes":[2.8883154E3,3.349254E3,5.6602188E3,0E0,0E0,0E0,0E0],"parents":[2147483647,0,0,1,1,2,2],"right_children":[2,4,6,-1,-1,-1,-1],"split_conditions":[2.7166666E1,2.5033333E1,1.058E-1,8.567555E-2,-9.3773407E-1,2.481261E0,2.9106948E-1],"split_indices":[23,23,18,0,0,0,0],"split_type":[0,0,0,0,0,0,0],"sum_hessian":[1.65E2,1.42E2,2.3E1,1.34E2,8E0,3E0,2E1],"tree_param":{"num_deleted":"0","num_feature":"43","num_nodes":"7","size_leaf_vector":"0"}},{"base_weights":[1.8779569E0,2.9933884E0,-1.718322E1,5.9704255E-2,2.2904E0,8.920807E-2,-1.1180066E0],"categories":[],"categories_nodes":[],"categories_segments":[],"categories_sizes":[],"default_left":[0,0,0,0,0,0,0],"id":62,"left_children":[1,3,5,-1,-1,-1,-1],"loss_changes":[3.650793E3,1.2414041E4,9.527754E2,0E0,0E0,0E0,0E0],"parents":[2147483647,0,0,1,1,2,2],"right_children":[2,4,6,-1,-1,-1,-1],"split_conditions":[2.178E-1,6E1,-3.1102734E-2,5.9704255E-2,2.2904E0,8.920807E-2,-1.1180066E0],"split_indices":[12,1,22,0,0,0,0],"split_type":[0,0,0,0,0,0,0],"sum_hessian":[1.7E2,1.61E2,9E0,1.55E2,6E0,2E0,7E0],"tree_param":{"num_deleted":"0","num_feature":"43","num_nodes":"7","size_leaf_vector":"0"}},{"base_weights":[1.0457535E0,5.367284E-1,1.7267033E0,1.4243697E-1,-3.4371766E-1],"categories":[],"categories_nodes":[],"categories_segments":[],"categories_sizes":[],"default_left":[1,0,0,0,0],"id":63,"left_children":[1,3,-1,-1,-1],"loss_changes":[2.8460027E3,2.8455513E3,0E0,0E0,0E0],"parents":[2147483647,0,0,1,1],"right_children":[2,4,-1,-1,-1],"split_conditions":[3.32E1,1.207E-1,1.7267033E0,1.4243697E-1,-3.4371766E-1],"split_indices":[30,17,0,0,0],"split_type":[0,0,0,0,0],"sum_hessian":[1.67E2,1.65E2,2E0,1.26E2,3.9E1],"tree_param":{"num_deleted":"0","num_feature":"43","num_nodes":"5","size_leaf_vector":"0"}},{"base_weights":[9.694941E-1,2.4331431E0,5.543656E-1,1.1430862E-1,-5.559393E-1],"categories":[],"categories_nodes":[],"categories_segments":[],"categories_sizes":[],"default_left":[0,0,0,0,0],"id":64,"left_children":[1,-1,3,-1,-1],"loss_changes":[3.4414158E3,0E0,3.5201233E3,0E0,0E0],"parents":[2147483647,0,0,2,2],"right_children":[2,-1,4,-1,-1],"split_conditions":[-8.492997E-2,2.4331431E0,3.01E-2,1.1430862E-1,-5.559393E-1],"split_indices":[22,0,20,0,0],"split_type":[0,0,0,0,0],"sum_hessian":[1.74E2,1E0,1.73E2,1.51E2,2.2E1],"tree_param":{"num_deleted":"0","num_feature":"43","num_nodes":"5","size_leaf_vector":"0"}},{"base_weights":[2.3757474E0,-2.7825522E-1,1.2472352E1,-4.5077424E-2,1.6530628E0,2.080847E0,1.1354222E-2],"categories":[],"categories_nodes":[],"categories_segments":[],"categories_sizes":[],"default_left":[0,1,0,0,0,0,0],"id":65,"left_children":[1,3,5,-1,-1,-1,-1],"loss_changes":[4.570524E3,2.830633E3,1.2664629E4,0E0,0E0,0E0,0E0],"parents":[2147483647,0,0,1,1,2,2],"right_children":[2,4,6,-1,-1,-1,-1],"split_conditions":[1E1,3.32E1,2.58E-2,-4.5077424E-2,1.6530628E0,2.080847E0,1.1354222E-2],"split_indices":[1,30,20,0,0,0,0],"split_type":[0,0,0,0,0,0,0],"sum_hessian":[1.7E2,1.35E2,3.5E1,1.33E2,2E0,1E1,2.5E1],"tree_param":{"num_deleted":"0","num_feature":"43","num_nodes":"7","size_leaf_vector":"0"}},{"base_weights":[1.5729222E0,1.293965E1,-3.3980668E-2,-7.985284E-1,9.175994E-1,-2.936976E-2,1.5869405E0],"categories":[],"categories_nodes":[],"categories_segments":[],"categories_sizes":[],"default_left":[0,0,1,0,0,0,0],"id":66,"left_children":[1,3,5,-1,-1,-1,-1],"loss_changes":[3.0231147E3,3.3542197E3,2.5677244E3,0E0,0E0,0E0,0E0],"parents":[2147483647,0,0,1,1,2,2],"right_children":[2,4,6,-1,-1,-1,-1],"split_conditions":[4.83E2,1.72E-2,3.32E1,-7.985284E-1,9.175994E-1,-2.936976E-2,1.5869405E0],"split_indices":[34,20,30,0,0,0,0],"split_type":[0,0,0,0,0,0,0],"sum_hessian":[1.65E2,2E1,1.45E2,3E0,1.7E1,1.43E2,2E0],"tree_param":{"num_deleted":"0","num_feature":"43","num_nodes":"7","size_leaf_vector":"0"}},{"base_weights":[1.2061049E0,2.1519787E0,-1.513636E1,2.746999E-2,2.406988E0,-9.2039937E-1,4.224157E-1],"categories":[],"categories_nodes":[],"categories_segments":[],"categories_sizes":[],"default_left":[0,0,0,0,0,0,0],"id":67,"left_children":[1,3,5,-1,-1,-1,-1],"loss_changes":[2.682776E3,1.2036568E4,8.1078076E2,0E0,0E0,0E0,0E0],"parents":[2147483647,0,0,1,1,2,2],"right_children":[2,4,6,-1,-1,-1,-1],"split_conditions":[2.178E-1,2.014E-1,4.4560272E1,2.746999E-2,2.406988E0,-9.2039937E-1,4.224157E-1],"split_indices":[12,19,0,0,0,0,0],"split_type":[0,0,0,0,0,0,0],"sum_hessian":[1.72E2,1.63E2,9E0,1.58E2,5E0,8E0,1E0],"tree_param":{"num_deleted":"0","num_feature":"43","num_nodes":"7","size_leaf_vector":"0"}},{"base_weights":[1.8078569E0,-1.4296849E-1,1.3286104E1,5.6963872E-2,-3.9314696E-1,1.6429433E0,1.699866E-1],"categories":[],"categories_nodes":[],"categories_segments":[],"categories_sizes":[],"default_left":[1,0,0,0,0,0,0],"id":68,"left_children":[1,3,5,-1,-1,-1,-1],"loss_changes":[3.9307559E3,1.4942637E3,4.8784854E3,0E0,0E0,0E0,0E0],"parents":[2147483647,0,0,1,1,2,2],"right_children":[2,4,6,-1,-1,-1,-1],"split_conditions":[2.7166666E1,1.207E-1,1.8E-2,5.6963872E-2,-3.9314696E-1,1.6429433E0,1.699866E-1],"split_indices":[23,17,20,0,0,0,0],"split_type":[0,0,0,0,0,0,0],"sum_hessian":[1.75E2,1.5E2,2.5E1,1.29E2,2.1E1,8E0,1.7E1],"tree_param":{"num_deleted":"0","num_feature":"43","num_nodes":"7","size_leaf_vector":"0"}},{"base_weights":[1.5649812E0,-2.4300392E-1,1.1779545E1,8.9320235E-2,-7.056601E-1,2.378469E0,9.450442E-2],"categories":[],"categories_nodes":[],"categories_segments":[],"categories_sizes":[],"default_left":[0,0,0,0,0,0,0],"id":69,"left_children":[1,3,5,-1,-1,-1,-1],"loss_changes":[3.1317197E3,4.080035E3,8.980566E3,0E0,0E0,0E0,0E0],"parents":[2147483647,0,0,1,1,2,2],"right_children":[2,4,6,-1,-1,-1,-1],"split_conditions":[1.359E-1,1.207E-1,2.57E-2,8.9320235E-2,-7.056601E-1,2.378469E0,9.450442E-2],"split_indices":[17,17,20,0,0,0,0],"split_type":[0,0,0,0,0,0,0],"sum_hessian":[1.69E2,1.44E2,2.5E1,1.26E2,1.8E1,5E0,2E1],"tree_param":{"num_deleted":"0","num_feature":"43","num_nodes":"7","size_leaf_vector":"0"}},{"base_weights":[9.168528E-1,-1.0902208E0,9.332457E0,-1.0203359E-2,-1.3530693E0,2.167113E0,1.89938E-1],"categories":[],"categories_nodes":[],"categories_segments":[],"categories_sizes":[],"default_left":[0,0,0,0,0,0,0],"id":70,"left_children":[1,3,5,-1,-1,-1,-1],"loss_changes":[2.8511763E3,3.1387102E3,6.034175E3,0E0,0E0,0E0,0E0],"parents":[2147483647,0,0,1,1,2,2],"right_children":[2,4,6,-1,-1,-1,-1],"split_conditions":[2.5E-3,1.71E-1,3.2E-3,-1.0203359E-2,-1.3530693E0,2.167113E0,1.89938E-1],"split_indices":[8,19,8,0,0,0,0],"split_type":[0,0,0,0,0,0,0],"sum_hessian":[1.68E2,1.36E2,3.2E1,1.32E2,4E0,4E0,2.8E1],"tree_param":{"num_deleted":"0","num_feature":"43","num_nodes":"7","size_leaf_vector":"0"}},{"base_weights":[1.8247615E0,-1.4577003E-1,1.3731356E1,-4.3303464E-2,2.104646E0,1.4135302E0,-5.3566384E-1],"categories":[],"categories_nodes":[],"categories_segments":[],"categories_sizes":[],"default_left":[0,0,0,0,0,0,0],"id":71,"left_children":[1,3,5,-1,-1,-1,-1],"loss_changes":[4.0482505E3,4.5362656E3,8.858896E3,0E0,0E0,0E0,0E0],"parents":[2147483647,0,0,1,1,2,2],"right_children":[2,4,6,-1,-1,-1,-1],"split_conditions":[1.36E-1,2.102E-1,2.178E-1,-4.3303464E-2,2.104646E0,1.4135302E0,-5.3566384E-1],"split_indices":[17,11,12,0,0,0,0],"split_type":[0,0,0,0,0,0,0],"sum_hessian":[1.72E2,1.48E2,2.4E1,1.46E2,2E0,1.5E1,9E0],"tree_param":{"num_deleted":"0","num_feature":"43","num_nodes":"7","size_leaf_vector":"0"}},{"base_weights":[9.965847E-1,-2.0513315E0,1.3549602E0,2.1442358E0,4.9600434E-2],"categories":[],"categories_nodes":[],"categories_segments":[],"categories_sizes":[],"default_left":[0,0,0,0,0],"id":72,"left_children":[1,-1,3,-1,-1],"loss_changes":[2.6708413E3,0E0,2.6090186E3,0E0,0E0],"parents":[2147483647,0,0,2,2],"right_children":[2,-1,4,-1,-1],"split_conditions":[-9.486272E-2,-2.0513315E0,-8.492997E-2,2.1442358E0,4.9600434E-2],"split_indices":[22,0,22,0,0],"split_type":[0,0,0,0,0],"sum_hessian":[1.75E2,1E0,1.74E2,1E0,1.73E2],"tree_param":{"num_deleted":"0","num_feature":"43","num_nodes":"5","size_leaf_vector":"0"}},{"base_weights":[4.7347143E-1,-4.5358536E-1,1.7950634E1,8.360658E-2,-4.592722E-1,-1.4950126E0,1.3162051E0],"categories":[],"categories_nodes":[],"categories_segments":[],"categories_sizes":[],"default_left":[0,0,0,0,0,0,0],"id":73,"left_children":[1,3,5,-1,-1,-1,-1],"loss_changes":[2.7341624E3,2.986794E3,3.7993105E3,0E0,0E0,0E0,0E0],"parents":[2147483647,0,0,1,1,2,2],"right_children":[2,4,6,-1,-1,-1,-1],"split_conditions":[2.279E-1,1.207E-1,1.848E-1,8.360658E-2,-4.592722E-1,-1.4950126E0,1.3162051E0],"split_indices":[18,17,11,0,0,0,0],"split_type":[0,0,0,0,0,0,0],"sum_hessian":[1.68E2,1.6E2,8E0,1.29E2,3.1E1,1E0,7E0],"tree_param":{"num_deleted":"0","num_feature":"43","num_nodes":"7","size_leaf_vector":"0"}},{"base_weights":[1.7618608E0,2.434665E0,1.0344176E0,-5.4391004E-2,4.1877005E-1],"categories":[],"categories_nodes":[],"categories_segments":[],"categories_sizes":[],"default_left":[0,0,1,0,0],"id":74,"left_children":[1,-1,3,-1,-1],"loss_changes":[5.5908384E3,0E0,2.5361934E3,0E0,0E0],"parents":[2147483647,0,0,2,2],"right_children":[2,-1,4,-1,-1],"split_conditions":[-8.492997E-2,2.434665E0,6.7E1,-5.4391004E-2,4.1877005E-1],"split_indices":[22,0,31,0,0],"split_type":[0,0,0,0,0],"sum_hessian":[1.64E2,2E0,1.62E2,1.26E2,3.6E1],"tree_param":{"num_deleted":"0","num_feature":"43","num_nodes":"5","size_leaf_vector":"0"}},{"base_weights":[1.0716763E0,1.9489293E0,-1.263944E1,2.4129713E-2,1.8664721E0,-3.9170283E-1,-1.3224927E0],"categories":[],"categories_nodes":[],"categories_segments":[],"categories_sizes":[],"default_left":[0,0,0,0,0,0,0],"id":75,"left_children":[1,3,5,-1,-1,-1,-1],"loss_changes":[2.0991953E3,8.473321E3,5.932206E2,0E0,0E0,0E0,0E0],"parents":[2147483647,0,0,1,1,2,2],"right_children":[2,4,6,-1,-1,-1,-1],"split_conditions":[2.178E-1,6E1,4.963E-1,2.4129713E-2,1.8664721E0,-3.9170283E-1,-1.3224927E0],"split_indices":[12,1,9,0,0,0,0],"split_type":[0,0,0,0,0,0,0],"sum_hessian":[1.73E2,1.63E2,1E1,1.57E2,6E0,8E0,2E0],"tree_param":{"num_deleted":"0","num_feature":"43","num_nodes":"7","size_leaf_vector":"0"}},{"base_weights":[8.473242E-1,-2.0496042E0,1.2107962E0,2.2626197E0,2.7882174E-2],"categories":[],"categories_nodes":[],"categories_segments":[],"categories_sizes":[],"default_left":[0,0,0,0,0],"id":76,"left_children":[1,-1,3,-1,-1],"loss_changes":[2.6481023E3,0E0,4.920733E3,0E0,0E0],"parents":[2147483647,0,0,2,2],"right_children":[2,-1,4,-1,-1],"split_conditions":[-9.486272E-2,-2.0496042E0,-8.492997E-2,2.2626197E0,2.7882174E-2],"split_indices":[22,0,22,0,0],"split_type":[0,0,0,0,0],"sum_hessian":[1.72E2,1E0,1.71E2,2E0,1.69E2],"tree_param":{"num_deleted":"0","num_feature":"43","num_nodes":"5","size_leaf_vector":"0"}},{"base_weights":[1.2663652E0,2.172115E0,6.584969E-1,9.849755E-2,-4.6207243E-1],"categories":[],"categories_nodes":[],"categories_segments":[],"categories_sizes":[],"default_left":[0,0,0,0,0],"id":77,"left_children":[1,-1,3,-1,-1],"loss_changes":[4.5106997E3,0E0,2.2746924E3,0E0,0E0],"parents":[2147483647,0,0,2,2],"right_children":[2,-1,4,-1,-1],"split_conditions":[-8.492997E-2,2.172115E0,3.01E-2,9.849755E-2,-4.6207243E-1],"split_indices":[22,0,20,0,0],"split_type":[0,0,0,0,0],"sum_hessian":[1.76E2,2E0,1.74E2,1.54E2,2E1],"tree_param":{"num_deleted":"0","num_feature":"43","num_nodes":"5","size_leaf_vector":"0"}},{"base_weights":[3.0361572E-1,2.08523E0,-3.226941E-1,1.8003177E-2,-1.5988028E0],"categories":[],"categories_nodes":[],"categories_segments":[],"categories_sizes":[],"default_left":[0,0,1,0,0],"id":78,"left_children":[1,-1,3,-1,-1],"loss_changes":[4.349978E3,0E0,3.582472E3,0E0,0E0],"parents":[2147483647,0,0,2,2],"right_children":[2,-1,4,-1,-1],"split_conditions":[-8.492997E-2,2.08523E0,7.9333336E1,1.8003177E-2,-1.5988028E0],"split_indices":[22,0,24,0,0],"split_type":[0,0,0,0,0],"sum_hessian":[1.67E2,2E0,1.65E2,1.62E2,3E0],"tree_param":{"num_deleted":"0","num_feature":"43","num_nodes":"5","size_leaf_vector":"0"}},{"base_weights":[9.7989213E-1,-2.123196E0,1.3463271E0,2.0018208E0,3.940851E-2],"categories":[],"categories_nodes":[],"categories_segments":[],"categories_sizes":[],"default_left":[0,0,0,0,0],"id":79,"left_children":[1,-1,3,-1,-1],"loss_changes":[2.8542666E3,0E0,3.7957642E3,0E0,0E0],"parents":[2147483647,0,0,2,2],"right_children":[2,-1,4,-1,-1],"split_conditions":[-9.486272E-2,-2.123196E0,-8.492997E-2,2.0018208E0,3.940851E-2],"split_indices":[22,0,22,0,0],"split_type":[0,0,0,0,0],"sum_hessian":[1.77E2,1E0,1.76E2,2E0,1.74E2],"tree_param":{"num_deleted":"0","num_feature":"43","num_nodes":"5","size_leaf_vector":"0"}},{"base_weights":[6.612115E-1,-2.0524225E0,1.0199082E0,1.921748E0,2.3576291E-2],"categories":[],"categories_nodes":[],"categories_segments":[],"categories_sizes":[],"default_left":[0,0,0,0,0],"id":80,"left_children":[1,-1,3,-1,-1],"loss_changes":[2.6316484E3,0E0,3.550769E3,0E0,0E0],"parents":[2147483647,0,0,2,2],"right_children":[2,-1,4,-1,-1],"split_conditions":[-9.486272E-2,-2.0524225E0,7.047644E1,1.921748E0,2.3576291E-2],"split_indices":[22,0,2,0,0],"split_type":[0,0,0,0,0],"sum_hessian":[1.74E2,1E0,1.73E2,2E0,1.71E2],"tree_param":{"num_deleted":"0","num_feature":"43","num_nodes":"5","size_leaf_vector":"0"}},{"base_weights":[1.4392527E0,3.6594517E1,9.28545E-1,3.0880754E0,-3.8532257E-2,-1.9840082E0,6.394864E-2],"categories":[],"categories_nodes":[],"categories_segments":[],"categories_sizes":[],"default_left":[0,0,0,0,0,0,0],"id":81,"left_children":[1,3,5,-1,-1,-1,-1],"loss_changes":[3.1339482E3,2.3747192E3,2.4943528E3,0E0,0E0,0E0,0E0],"parents":[2147483647,0,0,1,1,2,2],"right_children":[2,4,6,-1,-1,-1,-1],"split_conditions":[4E0,1.5E1,-9.486272E-2,3.0880754E0,-3.8532257E-2,-1.9840082E0,6.394864E-2],"split_indices":[33,1,22,0,0,0,0],"split_type":[0,0,0,0,0,0,0],"sum_hessian":[1.75E2,2E0,1.73E2,1E0,1E0,1E0,1.72E2],"tree_param":{"num_deleted":"0","num_feature":"43","num_nodes":"7","size_leaf_vector":"0"}},{"base_weights":[4.2386986E-2,1.4512113E0,-3.9819533E-1,-1.06386475E-1,2.8480837E-1],"categories":[],"categories_nodes":[],"categories_segments":[],"categories_sizes":[],"default_left":[0,0,0,0,0],"id":82,"left_children":[1,-1,3,-1,-1],"loss_changes":[2.131798E3,0E0,1.739957E3,0E0,0E0],"parents":[2147483647,0,0,2,2],"right_children":[2,-1,4,-1,-1],"split_conditions":[2.31E1,1.4512113E0,1.88E-1,-1.06386475E-1,2.8480837E-1],"split_indices":[30,0,11,0,0],"split_type":[0,0,0,0,0],"sum_hessian":[1.66E2,2E0,1.64E2,1.28E2,3.6E1],"tree_param":{"num_deleted":"0","num_feature":"43","num_nodes":"5","size_leaf_vector":"0"}},{"base_weights":[2.8053376E-1,-1.9143286E0,6.056627E-1,1.8309277E0,4.546651E-3],"categories":[],"categories_nodes":[],"categories_segments":[],"categories_sizes":[],"default_left":[0,0,0,0,0],"id":83,"left_children":[1,-1,3,-1,-1],"loss_changes":[2.2498562E3,0E0,3.2886357E3,0E0,0E0],"parents":[2147483647,0,0,2,2],"right_children":[2,-1,4,-1,-1],"split_conditions":[-9.486272E-2,-1.9143286E0,-8.492997E-2,1.8309277E0,4.546651E-3],"split_indices":[22,0,22,0,0],"split_type":[0,0,0,0,0],"sum_hessian":[1.78E2,1E0,1.77E2,2E0,1.75E2],"tree_param":{"num_deleted":"0","num_feature":"43","num_nodes":"5","size_leaf_vector":"0"}},{"base_weights":[1.1329215E0,1.7576904E0,6.450658E-1,-6.034568E-2,3.62545E-1],"categories":[],"categories_nodes":[],"categories_segments":[],"categories_sizes":[],"default_left":[0,0,1,0,0],"id":84,"left_children":[1,-1,3,-1,-1],"loss_changes":[2.9346797E3,0E0,2.1514197E3,0E0,0E0],"parents":[2147483647,0,0,2,2],"right_children":[2,-1,4,-1,-1],"split_conditions":[-8.492997E-2,1.7576904E0,6.7E1,-6.034568E-2,3.62545E-1],"split_indices":[22,0,31,0,0],"split_type":[0,0,0,0,0],"sum_hessian":[1.77E2,2E0,1.75E2,1.37E2,3.8E1],"tree_param":{"num_deleted":"0","num_feature":"43","num_nodes":"5","size_leaf_vector":"0"}},{"base_weights":[4.1391388E-1,-2.6685137E-2,1.4308795E0,4.573466E-1,-7.202222E-2],"categories":[],"categories_nodes":[],"categories_segments":[],"categories_sizes":[],"default_left":[1,0,0,0,0],"id":85,"left_children":[1,3,-1,-1,-1],"loss_changes":[2.0196898E3,2.088158E3,0E0,0E0,0E0],"parents":[2147483647,0,0,1,1],"right_children":[2,4,-1,-1,-1],"split_conditions":[3.32E1,4.83E2,1.4308795E0,4.573466E-1,-7.202222E-2],"split_indices":[30,34,0,0,0],"split_type":[0,0,0,0,0],"sum_hessian":[1.62E2,1.6E2,2E0,2.1E1,1.39E2],"tree_param":{"num_deleted":"0","num_feature":"43","num_nodes":"5","size_leaf_vector":"0"}},{"base_weights":[4.8653838E-1,1.3686434E0,9.772518E-2,2.3928557E-2,-1.3023926E0],"categories":[],"categories_nodes":[],"categories_segments":[],"categories_sizes":[],"default_left":[0,0,0,0,0],"id":86,"left_children":[1,-1,3,-1,-1],"loss_changes":[1.8332972E3,0E0,1.7338481E3,0E0,0E0],"parents":[2147483647,0,0,2,2],"right_children":[2,-1,4,-1,-1],"split_conditions":[2.31E1,1.3686434E0,4.963E-1,2.3928557E-2,-1.3023926E0],"split_indices":[30,0,9,0,0],"split_type":[0,0,0,0,0],"sum_hessian":[1.75E2,2E0,1.73E2,1.71E2,2E0],"tree_param":{"num_deleted":"0","num_feature":"43","num_nodes":"5","size_leaf_vector":"0"}},{"base_weights":[-2.9435057E-2,7.844682E0,-2.0895824E0,8.516235E-1,-2.5763604E-1,-1.3095677E-1,1.3726872E0],"categories":[],"categories_nodes":[],"categories_segments":[],"categories_sizes":[],"default_left":[0,0,1,0,0,0,0],"id":87,"left_children":[1,3,5,-1,-1,-1,-1],"loss_changes":[2.8551294E3,4.402615E3,2.218396E3,0E0,0E0,0E0,0E0],"parents":[2147483647,0,0,1,1,2,2],"right_children":[2,4,6,-1,-1,-1,-1],"split_conditions":[5.46E2,2.58E-2,3.32E1,8.516235E-1,-2.5763604E-1,-1.3095677E-1,1.3726872E0],"split_indices":[34,20,30,0,0,0,0],"split_type":[0,0,0,0,0,0,0],"sum_hessian":[1.75E2,3.6E1,1.39E2,2.1E1,1.5E1,1.37E2,2E0],"tree_param":{"num_deleted":"0","num_feature":"43","num_nodes":"7","size_leaf_vector":"0"}},{"base_weights":[8.5251087E-1,-1.4867524E0,6.443954E0,-1.380864E-1,1.2479633E0,1.1239294E0,-1.9566672E-1],"categories":[],"categories_nodes":[],"categories_segments":[],"categories_sizes":[],"default_left":[1,0,0,0,0,0,0],"id":88,"left_children":[1,3,5,-1,-1,-1,-1],"loss_changes":[2.1956663E3,4.0300515E3,8.264711E3,0E0,0E0,0E0,0E0],"parents":[2147483647,0,0,1,1,2,2],"right_children":[2,4,6,-1,-1,-1,-1],"split_conditions":[6.3E1,1.355E-1,1.207E-1,-1.380864E-1,1.2479633E0,1.1239294E0,-1.9566672E-1],"split_indices":[31,17,17,0,0,0,0],"split_type":[0,0,0,0,0,0,0],"sum_hessian":[1.67E2,1.18E2,4.9E1,1.13E2,5E0,1.9E1,3E1],"tree_param":{"num_deleted":"0","num_feature":"43","num_nodes":"7","size_leaf_vector":"0"}},{"base_weights":[1.0895712E0,1.7023718E0,6.223067E-1,5.33982E-1,-3.4435924E-2],"categories":[],"categories_nodes":[],"categories_segments":[],"categories_sizes":[],"default_left":[0,0,0,0,0],"id":89,"left_children":[1,-1,3,-1,-1],"loss_changes":[2.7537134E3,0E0,2.3440886E3,0E0,0E0],"parents":[2147483647,0,0,2,2],"right_children":[2,-1,4,-1,-1],"split_conditions":[-8.492997E-2,1.7023718E0,4.83E2,5.33982E-1,-3.4435924E-2],"split_indices":[22,0,34,0,0],"split_type":[0,0,0,0,0],"sum_hessian":[1.79E2,2E0,1.77E2,2E1,1.57E2],"tree_param":{"num_deleted":"0","num_feature":"43","num_nodes":"5","size_leaf_vector":"0"}},{"base_weights":[8.452037E-1,-1.9533631E0,1.2022372E0,1.6342773E0,3.600567E-2],"categories":[],"categories_nodes":[],"categories_segments":[],"categories_sizes":[],"default_left":[0,0,0,0,0],"id":90,"left_children":[1,-1,3,-1,-1],"loss_changes":[2.4103743E3,0E0,2.5155115E3,0E0,0E0],"parents":[2147483647,0,0,2,2],"right_children":[2,-1,4,-1,-1],"split_conditions":[-9.486272E-2,-1.9533631E0,-8.492997E-2,1.6342773E0,3.600567E-2],"split_indices":[22,0,22,0,0],"split_type":[0,0,0,0,0],"sum_hessian":[1.67E2,1E0,1.66E2,2E0,1.64E2],"tree_param":{"num_deleted":"0","num_feature":"43","num_nodes":"5","size_leaf_vector":"0"}},{"base_weights":[-2.5381553E-1,5.333426E-1,-2.3917046E1,-2.356434E-2,6.424429E-1,-1.8974046E0,1.3074219E0],"categories":[],"categories_nodes":[],"categories_segments":[],"categories_sizes":[],"default_left":[1,1,0,0,0,0,0],"id":91,"left_children":[1,3,5,-1,-1,-1,-1],"loss_changes":[3.182231E3,2.0506812E3,4.3597324E3,0E0,0E0,0E0,0E0],"parents":[2147483647,0,0,1,1,2,2],"right_children":[2,4,6,-1,-1,-1,-1],"split_conditions":[7.9333336E1,7.3666664E1,6E1,-2.356434E-2,6.424429E-1,-1.8974046E0,1.3074219E0],"split_indices":[24,25,1,0,0,0,0],"split_type":[0,0,0,0,0,0,0],"sum_hessian":[1.7E2,1.65E2,5E0,1.53E2,1.2E1,4E0,1E0],"tree_param":{"num_deleted":"0","num_feature":"43","num_nodes":"7","size_leaf_vector":"0"}},{"base_weights":[-2.889021E-1,5.691735E-1,-1.4951306E1,-2.5263762E-2,1.5642868E0,3.1336974E-2,-9.573617E-1],"categories":[],"categories_nodes":[],"categories_segments":[],"categories_sizes":[],"default_left":[0,0,0,0,0,0,0],"id":92,"left_children":[1,3,5,-1,-1,-1,-1],"loss_changes":[2.1619739E3,5.3709526E3,6.269614E2,0E0,0E0,0E0,0E0],"parents":[2147483647,0,0,1,1,2,2],"right_children":[2,4,6,-1,-1,-1,-1],"split_conditions":[2.178E-1,2.014E-1,-3.1102734E-2,-2.5263762E-2,1.5642868E0,3.1336974E-2,-9.573617E-1],"split_indices":[12,19,22,0,0,0,0],"split_type":[0,0,0,0,0,0,0],"sum_hessian":[1.71E2,1.62E2,9E0,1.57E2,5E0,2E0,7E0],"tree_param":{"num_deleted":"0","num_feature":"43","num_nodes":"7","size_leaf_vector":"0"}},{"base_weights":[1.0973383E0,-1.8241618E0,1.4429865E0,-5.3507607E-2,3.8348913E-1],"categories":[],"categories_nodes":[],"categories_segments":[],"categories_sizes":[],"default_left":[0,0,1,0,0],"id":93,"left_children":[1,-1,3,-1,-1],"loss_changes":[2.137142E3,0E0,2.5313857E3,0E0,0E0],"parents":[2147483647,0,0,2,2],"right_children":[2,-1,4,-1,-1],"split_conditions":[-9.486272E-2,-1.8241618E0,6.3E1,-5.3507607E-2,3.8348913E-1],"split_indices":[22,0,31,0,0],"split_type":[0,0,0,0,0],"sum_hessian":[1.62E2,1E0,1.61E2,1.15E2,4.6E1],"tree_param":{"num_deleted":"0","num_feature":"43","num_nodes":"5","size_leaf_vector":"0"}},{"base_weights":[-2.1152116E-1,-1.7633566E0,9.932943E-2,1.4386976E0,-1.6447326E-2],"categories":[],"categories_nodes":[],"categories_segments":[],"categories_sizes":[],"default_left":[0,0,0,0,0],"id":94,"left_children":[1,-1,3,-1,-1],"loss_changes":[1.8596997E3,0E0,2.0863027E3,0E0,0E0],"parents":[2147483647,0,0,2,2],"right_children":[2,-1,4,-1,-1],"split_conditions":[-9.486272E-2,-1.7633566E0,-8.492997E-2,1.4386976E0,-1.6447326E-2],"split_indices":[22,0,22,0,0],"split_type":[0,0,0,0,0],"sum_hessian":[1.7E2,1E0,1.69E2,2E0,1.67E2],"tree_param":{"num_deleted":"0","num_feature":"43","num_nodes":"5","size_leaf_vector":"0"}},{"base_weights":[-4.985151E-2,1.534978E0,-6.6486216E0,-1.6880896E-2,1.5207423E0,-7.0113444E-1,6.8691656E-2],"categories":[],"categories_nodes":[],"categories_segments":[],"categories_sizes":[],"default_left":[0,0,0,0,0,0,0],"id":95,"left_children":[1,3,5,-1,-1,-1,-1],"loss_changes":[1.8090948E3,7.549339E3,1.9914294E3,0E0,0E0,0E0,0E0],"parents":[2147483647,0,0,1,1,2,2],"right_children":[2,4,6,-1,-1,-1,-1],"split_conditions":[2.78E-2,1.3E1,1.648E-1,-1.6880896E-2,1.5207423E0,-7.0113444E-1,6.8691656E-2],"split_indices":[20,1,13,0,0,0,0],"split_type":[0,0,0,0,0,0,0],"sum_hessian":[1.72E2,1.39E2,3.3E1,1.31E2,8E0,1.7E1,1.6E1],"tree_param":{"num_deleted":"0","num_feature":"43","num_nodes":"7","size_leaf_vector":"0"}},{"base_weights":[3.7229535E-1,1.1591741E0,-1.3769701E1,5.408991E-3,1.3834122E0,2.0311478E-1,-9.397861E-1],"categories":[],"categories_nodes":[],"categories_segments":[],"categories_sizes":[],"default_left":[0,0,0,0,0,0,0],"id":96,"left_children":[1,3,5,-1,-1,-1,-1],"loss_changes":[2.0054631E3,4.748784E3,8.896045E2,0E0,0E0,0E0,0E0],"parents":[2147483647,0,0,1,1,2,2],"right_children":[2,4,6,-1,-1,-1,-1],"split_conditions":[2.178E-1,6E1,-3.1102734E-2,5.408991E-3,1.3834122E0,2.0311478E-1,-9.397861E-1],"split_indices":[12,1,22,0,0,0,0],"split_type":[0,0,0,0,0,0,0],"sum_hessian":[1.79E2,1.7E2,9E0,1.64E2,6E0,2E0,7E0],"tree_param":{"num_deleted":"0","num_feature":"43","num_nodes":"7","size_leaf_vector":"0"}},{"base_weights":[1.8319146E-1,-1.8570837E-1,1.2874101E0,1.2337866E0,-2.7378932E-2],"categories":[],"categories_nodes":[],"categories_segments":[],"categories_sizes":[],"default_left":[1,0,0,0,0],"id":97,"left_children":[1,3,-1,-1,-1],"loss_changes":[1.6575188E3,1.5676687E3,0E0,0E0,0E0],"parents":[2147483647,0,0,1,1],"right_children":[2,4,-1,-1,-1],"split_conditions":[3.32E1,2.31E1,1.2874101E0,1.2337866E0,-2.7378932E-2],"split_indices":[30,30,0,0,0],"split_type":[0,0,0,0,0],"sum_hessian":[1.75E2,1.73E2,2E0,2E0,1.71E2],"tree_param":{"num_deleted":"0","num_feature":"43","num_nodes":"5","size_leaf_vector":"0"}},{"base_weights":[1.2387437E0,-1.6804743E0,1.5471197E0,-4.4698897E-3,4.9400535E-1],"categories":[],"categories_nodes":[],"categories_segments":[],"categories_sizes":[],"default_left":[0,0,0,0,0],"id":98,"left_children":[1,-1,3,-1,-1],"loss_changes":[1.8367599E3,0E0,2.2846523E3,0E0,0E0],"parents":[2147483647,0,0,2,2],"right_children":[2,-1,4,-1,-1],"split_conditions":[-9.486272E-2,-1.6804743E0,1.3E1,-4.4698897E-3,4.9400535E-1],"split_indices":[22,0,1,0,0],"split_type":[0,0,0,0,0],"sum_hessian":[1.68E2,1E0,1.67E2,1.4E2,2.7E1],"tree_param":{"num_deleted":"0","num_feature":"43","num_nodes":"5","size_leaf_vector":"0"}},{"base_weights":[3.5654765E-1,-1.6244586E0,6.394889E-1,-6.1299082E-2,2.8738064E-1],"categories":[],"categories_nodes":[],"categories_segments":[],"categories_sizes":[],"default_left":[0,0,1,0,0],"id":99,"left_children":[1,-1,3,-1,-1],"loss_changes":[1.632088E3,0E0,1.6568141E3,0E0,0E0],"parents":[2147483647,0,0,2,2],"right_children":[2,-1,4,-1,-1],"split_conditions":[-9.486272E-2,-1.6244586E0,6.3E1,-6.1299082E-2,2.8738064E-1],"split_indices":[22,0,31,0,0],"split_type":[0,0,0,0,0],"sum_hessian":[1.74E2,1E0,1.73E2,1.27E2,4.6E1],"tree_param":{"num_deleted":"0","num_feature":"43","num_nodes":"5","size_leaf_vector":"0"}},{"base_weights":[7.141842E-1,2.5233917E0,-8.607996E0,2.3568645E-2,1.4051162E0,2.1110323E-1,-6.545985E-1],"categories":[],"categories_nodes":[],"categories_segments":[],"categories_sizes":[],"default_left":[0,0,1,0,0,0,0],"id":100,"left_children":[1,3,5,-1,-1,-1,-1],"loss_changes":[2.852741E3,7.420493E3,1.6097029E3,0E0,0E0,0E0,0E0],"parents":[2147483647,0,0,1,1,2,2],"right_children":[2,4,6,-1,-1,-1,-1],"split_conditions":[2.83E-2,1.2E1,6.9333336E1,2.3568645E-2,1.4051162E0,2.1110323E-1,-6.545985E-1],"split_indices":[20,1,24,0,0,0,0],"split_type":[0,0,0,0,0,0,0],"sum_hessian":[1.68E2,1.41E2,2.7E1,1.31E2,1E1,7E0,2E1],"tree_param":{"num_deleted":"0","num_feature":"43","num_nodes":"7","size_leaf_vector":"0"}},{"base_weights":[2.986543E-1,1.3214564E0,-9.696816E-2,1.3190882E0,-2.507726E-2],"categories":[],"categories_nodes":[],"categories_segments":[],"categories_sizes":[],"default_left":[0,0,0,0,0],"id":101,"left_children":[1,-1,3,-1,-1],"loss_changes":[1.7328633E3,0E0,1.7795654E3,0E0,0E0],"parents":[2147483647,0,0,2,2],"right_children":[2,-1,4,-1,-1],"split_conditions":[4.43E2,1.3214564E0,-8.492997E-2,1.3190882E0,-2.507726E-2],"split_indices":[34,0,22,0,0],"split_type":[0,0,0,0,0],"sum_hessian":[1.67E2,2E0,1.65E2,2E0,1.63E2],"tree_param":{"num_deleted":"0","num_feature":"43","num_nodes":"5","size_leaf_vector":"0"}},{"base_weights":[5.0440323E-1,3.1779453E1,3.8884975E-2,2.8133445E0,-1.6505662E-1,-1.6630065E-2,1.2386045E0],"categories":[],"categories_nodes":[],"categories_segments":[],"categories_sizes":[],"default_left":[0,0,1,0,0,0,0],"id":102,"left_children":[1,3,5,-1,-1,-1,-1],"loss_changes":[2.4817097E3,2.240456E3,1.5523054E3,0E0,0E0,0E0,0E0],"parents":[2147483647,0,0,1,1,2,2],"right_children":[2,4,6,-1,-1,-1,-1],"split_conditions":[4E0,1.5E1,3.32E1,2.8133445E0,-1.6505662E-1,-1.6630065E-2,1.2386045E0],"split_indices":[33,1,30,0,0,0,0],"split_type":[0,0,0,0,0,0,0],"sum_hessian":[1.7E2,2E0,1.68E2,1E0,1E0,1.66E2,2E0],"tree_param":{"num_deleted":"0","num_feature":"43","num_nodes":"7","size_leaf_vector":"0"}},{"base_weights":[3.022708E-1,-8.830384E-2,2.1907842E0,7.847832E-2,-2.9282576E-1],"categories":[],"categories_nodes":[],"categories_segments":[],"categories_sizes":[],"default_left":[0,0,0,0,0],"id":103,"left_children":[1,3,-1,-1,-1],"loss_changes":[2.8656318E3,1.6063894E3,0E0,0E0,0E0],"parents":[2147483647,0,0,1,1],"right_children":[2,4,-1,-1,-1],"split_conditions":[9.240231E1,2.58E-2,2.1907842E0,7.847832E-2,-2.9282576E-1],"split_indices":[0,20,0,0,0],"split_type":[0,0,0,0,0],"sum_hessian":[1.68E2,1.67E2,1E0,1.3E2,3.7E1],"tree_param":{"num_deleted":"0","num_feature":"43","num_nodes":"5","size_leaf_vector":"0"}},{"base_weights":[-8.146309E-1,-3.6238012E-1,-3.0590708E1,5.2413233E-2,-3.4417292E-1,-2.9406026E-1,-2.2551653E0],"categories":[],"categories_nodes":[],"categories_segments":[],"categories_sizes":[],"default_left":[1,0,0,0,0,0,0],"id":104,"left_children":[1,3,5,-1,-1,-1,-1],"loss_changes":[2.250055E3,1.52603E3,7.638667E2,0E0,0E0,0E0,0E0],"parents":[2147483647,0,0,1,1,2,2],"right_children":[2,4,6,-1,-1,-1,-1],"split_conditions":[3E-1,2.78E-2,9E0,5.2413233E-2,-3.4417292E-1,-2.9406026E-1,-2.2551653E0],"split_indices":[35,20,1,0,0,0,0],"split_type":[0,0,0,0,0,0,0],"sum_hessian":[1.67E2,1.65E2,2E0,1.36E2,2.9E1,1E0,1E0],"tree_param":{"num_deleted":"0","num_feature":"43","num_nodes":"7","size_leaf_vector":"0"}},{"base_weights":[-4.8610723E-1,1.0515132E0,-6.103348E0,-4.7286376E-2,2.0073638E0,-5.383627E-1,1.1206762E-1],"categories":[],"categories_nodes":[],"categories_segments":[],"categories_sizes":[],"default_left":[0,0,0,0,0,0,0],"id":105,"left_children":[1,3,5,-1,-1,-1,-1],"loss_changes":[1.4672115E3,1.044315E4,1.4326061E3,0E0,0E0,0E0,0E0],"parents":[2147483647,0,0,1,1,2,2],"right_children":[2,4,6,-1,-1,-1,-1],"split_conditions":[2.57E-2,1.3E1,5.9666667E0,-4.7286376E-2,2.0073638E0,-5.383627E-1,1.1206762E-1],"split_indices":[20,1,26,0,0,0,0],"split_type":[0,0,0,0,0,0,0],"sum_hessian":[1.69E2,1.33E2,3.6E1,1.27E2,6E0,2.3E1,1.3E1],"tree_param":{"num_deleted":"0","num_feature":"43","num_nodes":"7","size_leaf_vector":"0"}},{"base_weights":[3.5103434E-1,1.314004E0,-2.7963474E-2,1.7744837E-2,-1.2990147E0],"categories":[],"categories_nodes":[],"categories_segments":[],"categories_sizes":[],"default_left":[0,0,1,0,0],"id":106,"left_children":[1,-1,3,-1,-1],"loss_changes":[1.705361E3,0E0,1.7086537E3,0E0,0E0],"parents":[2147483647,0,0,2,2],"right_children":[2,-1,4,-1,-1],"split_conditions":[-8.492997E-2,1.314004E0,6.65E2,1.7744837E-2,-1.2990147E0],"split_indices":[22,0,34,0,0],"split_type":[0,0,0,0,0],"sum_hessian":[1.73E2,2E0,1.71E2,1.69E2,2E0],"tree_param":{"num_deleted":"0","num_feature":"43","num_nodes":"5","size_leaf_vector":"0"}},{"base_weights":[6.889789E-1,-1.5965269E0,9.658153E-1,-1.99458E-2,4.0059772E-1],"categories":[],"categories_nodes":[],"categories_segments":[],"categories_sizes":[],"default_left":[0,0,0,0,0],"id":107,"left_children":[1,-1,3,-1,-1],"loss_changes":[1.609262E3,0E0,1.6892212E3,0E0,0E0],"parents":[2147483647,0,0,2,2],"right_children":[2,-1,4,-1,-1],"split_conditions":[-9.486272E-2,-1.5965269E0,1.3E1,-1.99458E-2,4.0059772E-1],"split_indices":[22,0,1,0,0],"split_type":[0,0,0,0,0],"sum_hessian":[1.76E2,1E0,1.75E2,1.47E2,2.8E1],"tree_param":{"num_deleted":"0","num_feature":"43","num_nodes":"5","size_leaf_vector":"0"}},{"base_weights":[4.1606963E-2,1.3686543E0,-6.5043654E0,-2.3328586E-2,1.2493318E0,1.5405008E-1,-6.1435217E-1],"categories":[],"categories_nodes":[],"categories_segments":[],"categories_sizes":[],"default_left":[0,0,1,0,0,0,0],"id":108,"left_children":[1,3,5,-1,-1,-1,-1],"loss_changes":[1.5203004E3,6.3124297E3,1.6540864E3,0E0,0E0,0E0,0E0],"parents":[2147483647,0,0,1,1,2,2],"right_children":[2,4,6,-1,-1,-1,-1],"split_conditions":[2.83E-2,1.3E1,6.9666664E1,-2.3328586E-2,1.2493318E0,1.5405008E-1,-6.1435217E-1],"split_indices":[20,1,24,0,0,0,0],"split_type":[0,0,0,0,0,0,0],"sum_hessian":[1.74E2,1.45E2,2.9E1,1.35E2,1E1,1.1E1,1.8E1],"tree_param":{"num_deleted":"0","num_feature":"43","num_nodes":"7","size_leaf_vector":"0"}},{"base_weights":[1.07563525E-1,9.120131E-1,-1.5656512E1,-2.9676787E-3,1.2413572E0,4.7563426E-2,-8.967151E-1],"categories":[],"categories_nodes":[],"categories_segments":[],"categories_sizes":[],"default_left":[0,0,0,0,0,0,0],"id":109,"left_children":[1,3,5,-1,-1,-1,-1],"loss_changes":[2.2200442E3,3.868592E3,3.300769E2,0E0,0E0,0E0,0E0],"parents":[2147483647,0,0,1,1,2,2],"right_children":[2,4,6,-1,-1,-1,-1],"split_conditions":[2.178E-1,6E1,-3.1102734E-2,-2.9676787E-3,1.2413572E0,4.7563426E-2,-8.967151E-1],"split_indices":[12,1,22,0,0,0,0],"split_type":[0,0,0,0,0,0,0],"sum_hessian":[1.74E2,1.66E2,8E0,1.6E2,6E0,1E0,7E0],"tree_param":{"num_deleted":"0","num_feature":"43","num_nodes":"7","size_leaf_vector":"0"}},{"base_weights":[9.391721E-2,1.2251896E0,-4.0744066E-1,-3.822298E-2,1.1868562E0],"categories":[],"categories_nodes":[],"categories_segments":[],"categories_sizes":[],"default_left":[0,0,1,0,0],"id":110,"left_children":[1,-1,3,-1,-1],"loss_changes":[2.1282993E3,0E0,1.4787941E3,0E0,0E0],"parents":[2147483647,0,0,2,2],"right_children":[2,-1,4,-1,-1],"split_conditions":[2.41E1,1.2251896E0,3.32E1,-3.822298E-2,1.1868562E0],"split_indices":[30,0,30,0,0],"split_type":[0,0,0,0,0],"sum_hessian":[1.73E2,3E0,1.7E2,1.68E2,2E0],"tree_param":{"num_deleted":"0","num_feature":"43","num_nodes":"5","size_leaf_vector":"0"}},{"base_weights":[1.56841E-1,6.076298E-1,-3.0978952E1,1.3854175E0,1.042383E-2,-2.8045806E-1,-2.3011215E0],"categories":[],"categories_nodes":[],"categories_segments":[],"categories_sizes":[],"default_left":[0,0,0,0,0,0,0],"id":111,"left_children":[1,3,5,-1,-1,-1,-1],"loss_changes":[2.4586357E3,1.8631025E3,8.250508E2,0E0,0E0,0E0,0E0],"parents":[2147483647,0,0,1,1,2,2],"right_children":[2,4,6,-1,-1,-1,-1],"split_conditions":[7.5216995E1,4E0,9E0,1.3854175E0,1.042383E-2,-2.8045806E-1,-2.3011215E0],"split_indices":[0,33,1,0,0,0,0],"split_type":[0,0,0,0,0,0,0],"sum_hessian":[1.74E2,1.72E2,2E0,2E0,1.7E2,1E0,1E0],"tree_param":{"num_deleted":"0","num_feature":"43","num_nodes":"7","size_leaf_vector":"0"}},{"base_weights":[-4.2755005E-1,-2.8375889E1,-2.1262392E-2,-2.033431E0,-3.3122635E-1,-1.5218053E0,1.2240932E-2],"categories":[],"categories_nodes":[],"categories_segments":[],"categories_sizes":[],"default_left":[0,0,0,0,0,0,0],"id":112,"left_children":[1,3,5,-1,-1,-1,-1],"loss_changes":[1.9811571E3,5.337539E2,1.399736E3,0E0,0E0,0E0,0E0],"parents":[2147483647,0,0,1,1,2,2],"right_children":[2,4,6,-1,-1,-1,-1],"split_conditions":[4E0,1.3E1,-9.486272E-2,-2.033431E0,-3.3122635E-1,-1.5218053E0,1.2240932E-2],"split_indices":[33,1,22,0,0,0,0],"split_type":[0,0,0,0,0,0,0],"sum_hessian":[1.74E2,2E0,1.72E2,1E0,1E0,1E0,1.71E2],"tree_param":{"num_deleted":"0","num_feature":"43","num_nodes":"7","size_leaf_vector":"0"}},{"base_weights":[-2.2517349E-1,1.2177391E0,-5.9579164E-1,3.48118E-2,-3.851464E-1],"categories":[],"categories_nodes":[],"categories_segments":[],"categories_sizes":[],"default_left":[0,0,0,0,0],"id":113,"left_children":[1,-1,3,-1,-1],"loss_changes":[1.533143E3,0E0,1.5224044E3,0E0,0E0],"parents":[2147483647,0,0,2,2],"right_children":[2,-1,4,-1,-1],"split_conditions":[4.43E2,1.2177391E0,2.83E-2,3.48118E-2,-3.851464E-1],"split_indices":[34,0,20,0,0],"split_type":[0,0,0,0,0],"sum_hessian":[1.67E2,2E0,1.65E2,1.4E2,2.5E1],"tree_param":{"num_deleted":"0","num_feature":"43","num_nodes":"5","size_leaf_vector":"0"}},{"base_weights":[-1.0905293E-2,6.795356E-1,-1.0827293E1,-2.9916078E-2,8.853303E-1,1.7969513E-1,-8.4176826E-1],"categories":[],"categories_nodes":[],"categories_segments":[],"categories_sizes":[],"default_left":[0,0,0,0,0,0,0],"id":114,"left_children":[1,3,5,-1,-1,-1,-1],"loss_changes":[1.3068582E3,3.584515E3,9.4001E2,0E0,0E0,0E0,0E0],"parents":[2147483647,0,0,1,1,2,2],"right_children":[2,4,6,-1,-1,-1,-1],"split_conditions":[2.178E-1,2.086E-1,-3.1102734E-2,-2.9916078E-2,8.853303E-1,1.7969513E-1,-8.4176826E-1],"split_indices":[12,11,22,0,0,0,0],"split_type":[0,0,0,0,0,0,0],"sum_hessian":[1.74E2,1.64E2,1E1,1.53E2,1.1E1,3E0,7E0],"tree_param":{"num_deleted":"0","num_feature":"43","num_nodes":"7","size_leaf_vector":"0"}},{"base_weights":[1.273617E0,-4.272142E-1,1.1704822E1,3.0631205E-2,-3.365955E-1,1.5477777E0,1.2998985E-1],"categories":[],"categories_nodes":[],"categories_segments":[],"categories_sizes":[],"default_left":[1,0,0,0,0,0,0],"id":115,"left_children":[1,3,5,-1,-1,-1,-1],"loss_changes":[2.9742378E3,9.493844E2,4.078803E3,0E0,0E0,0E0,0E0],"parents":[2147483647,0,0,1,1,2,2],"right_children":[2,4,6,-1,-1,-1,-1],"split_conditions":[2.7166666E1,1.207E-1,1.8E-2,3.0631205E-2,-3.365955E-1,1.5477777E0,1.2998985E-1],"split_indices":[23,17,20,0,0,0,0],"split_type":[0,0,0,0,0,0,0],"sum_hessian":[1.67E2,1.44E2,2.3E1,1.24E2,2E1,7E0,1.6E1],"tree_param":{"num_deleted":"0","num_feature":"43","num_nodes":"7","size_leaf_vector":"0"}},{"base_weights":[-1.9110677E-1,1.5681202E0,-5.4666405E0,-2.404754E-4,2.3329654E0,1.6454405E0,-4.3186307E-1],"categories":[],"categories_nodes":[],"categories_segments":[],"categories_sizes":[],"default_left":[0,0,0,0,0,0,0],"id":116,"left_children":[1,3,5,-1,-1,-1,-1],"loss_changes":[1.6516389E3,9.468636E3,5.5566133E3,0E0,0E0,0E0,0E0],"parents":[2147483647,0,0,1,1,2,2],"right_children":[2,4,6,-1,-1,-1,-1],"split_conditions":[1.207E-1,1.171E-1,1.65E-2,-2.404754E-4,2.3329654E0,1.6454405E0,-4.3186307E-1],"split_indices":[17,17,20,0,0,0,0],"split_type":[0,0,0,0,0,0,0],"sum_hessian":[1.77E2,1.33E2,4.4E1,1.29E2,4E0,3E0,4.1E1],"tree_param":{"num_deleted":"0","num_feature":"43","num_nodes":"7","size_leaf_vector":"0"}},{"base_weights":[-3.7678537E-1,7.7660657E-3,-2.2621856E0,3.7885097E-1,-5.2279282E-2],"categories":[],"categories_nodes":[],"categories_segments":[],"categories_sizes":[],"default_left":[0,0,0,0,0],"id":117,"left_children":[1,3,-1,-1,-1],"loss_changes":[3.045443E3,1.4032377E3,0E0,0E0,0E0],"parents":[2147483647,0,0,1,1],"right_children":[2,4,-1,-1,-1],"split_conditions":[9.240231E1,4.89E2,-2.2621856E0,3.7885097E-1,-5.2279282E-2],"split_indices":[0,34,0,0,0],"split_type":[0,0,0,0,0],"sum_hessian":[1.76E2,1.75E2,1E0,2.1E1,1.54E2],"tree_param":{"num_deleted":"0","num_feature":"43","num_nodes":"5","size_leaf_vector":"0"}},{"base_weights":[8.101547E-1,-4.113282E-1,9.8174515E0,7.459168E-2,-7.066919E-1,9.9912214E-1,-2.8542817E-1],"categories":[],"categories_nodes":[],"categories_segments":[],"categories_sizes":[],"default_left":[0,0,0,0,0,0,0],"id":118,"left_children":[1,3,5,-1,-1,-1,-1],"loss_changes":[1.8889065E3,3.9671404E3,3.2923826E3,0E0,0E0,0E0,0E0],"parents":[2147483647,0,0,1,1,2,2],"right_children":[2,4,6,-1,-1,-1,-1],"split_conditions":[1.244E-1,1.207E-1,8.1E1,7.459168E-2,-7.066919E-1,9.9912214E-1,-2.8542817E-1],"split_indices":[18,17,21,0,0,0,0],"split_type":[0,0,0,0,0,0,0],"sum_hessian":[1.71E2,1.51E2,2E1,1.33E2,1.8E1,1.2E1,8E0],"tree_param":{"num_deleted":"0","num_feature":"43","num_nodes":"7","size_leaf_vector":"0"}},{"base_weights":[1.5920301E-1,-1.4787422E0,4.172985E-1,1.2117628E0,3.3418925E-3],"categories":[],"categories_nodes":[],"categories_segments":[],"categories_sizes":[],"default_left":[0,0,0,0,0],"id":119,"left_children":[1,-1,3,-1,-1],"loss_changes":[1.3376484E3,0E0,1.4390917E3,0E0,0E0],"parents":[2147483647,0,0,2,2],"right_children":[2,-1,4,-1,-1],"split_conditions":[-9.486272E-2,-1.4787422E0,-8.492997E-2,1.2117628E0,3.3418925E-3],"split_indices":[22,0,22,0,0],"split_type":[0,0,0,0,0],"sum_hessian":[1.73E2,1E0,1.72E2,2E0,1.7E2],"tree_param":{"num_deleted":"0","num_feature":"43","num_nodes":"5","size_leaf_vector":"0"}},{"base_weights":[6.493351E-1,1.9412004E1,1.5799204E-1,2.6644796E-1,1.1337227E0,1.1632923E0,-9.064806E-3],"categories":[],"categories_nodes":[],"categories_segments":[],"categories_sizes":[],"default_left":[0,0,0,0,0,0,0],"id":120,"left_children":[1,3,5,-1,-1,-1,-1],"loss_changes":[1.6256038E3,1.4633777E2,1.3545469E3,0E0,0E0,0E0,0E0],"parents":[2147483647,0,0,1,1,2,2],"right_children":[2,4,6,-1,-1,-1,-1],"split_conditions":[2.41E1,2.26E-2,-8.492997E-2,2.6644796E-1,1.1337227E0,1.1632923E0,-9.064806E-3],"split_indices":[30,9,22,0,0,0,0],"split_type":[0,0,0,0,0,0,0],"sum_hessian":[1.76E2,4E0,1.72E2,1E0,3E0,2E0,1.7E2],"tree_param":{"num_deleted":"0","num_feature":"43","num_nodes":"7","size_leaf_vector":"0"}},{"base_weights":[1.04406916E-1,-1.4682271E0,3.679963E-1,5.3046416E-2,-5.606198E-1],"categories":[],"categories_nodes":[],"categories_segments":[],"categories_sizes":[],"default_left":[0,0,0,0,0],"id":121,"left_children":[1,-1,3,-1,-1],"loss_changes":[1.3142609E3,0E0,1.3500388E3,0E0,0E0],"parents":[2147483647,0,0,2,2],"right_children":[2,-1,4,-1,-1],"split_conditions":[-9.486272E-2,-1.4682271E0,2.178E-1,5.3046416E-2,-5.606198E-1],"split_indices":[22,0,12,0,0],"split_type":[0,0,0,0,0],"sum_hessian":[1.68E2,1E0,1.67E2,1.58E2,9E0],"tree_param":{"num_deleted":"0","num_feature":"43","num_nodes":"5","size_leaf_vector":"0"}},{"base_weights":[-1.17310844E-1,-7.140324E-1,1.7740753E1,-5.2676447E-2,1.0748024E0,3.875173E-1,2.0899196E0],"categories":[],"categories_nodes":[],"categories_segments":[],"categories_sizes":[],"default_left":[1,1,0,0,0,0,0],"id":122,"left_children":[1,3,5,-1,-1,-1,-1],"loss_changes":[1.8125752E3,1.2516937E3,1.1599248E3,0E0,0E0,0E0,0E0],"parents":[2147483647,0,0,1,1,2,2],"right_children":[2,4,6,-1,-1,-1,-1],"split_conditions":[7.8E1,3.32E1,1.2E1,-5.2676447E-2,1.0748024E0,3.875173E-1,2.0899196E0],"split_indices":[31,30,1,0,0,0,0],"split_type":[0,0,0,0,0,0,0],"sum_hessian":[1.69E2,1.64E2,5E0,1.62E2,2E0,4E0,1E0],"tree_param":{"num_deleted":"0","num_feature":"43","num_nodes":"7","size_leaf_vector":"0"}},{"base_weights":[-4.213476E-1,1.0460688E0,-5.03579E0,-2.7231053E-2,2.229272E0,-2.489511E0,-1.03212915E-1],"categories":[],"categories_nodes":[],"categories_segments":[],"categories_sizes":[],"default_left":[0,0,0,0,0,0,0],"id":123,"left_children":[1,3,5,-1,-1,-1,-1],"loss_changes":[1.1368281E3,8.842489E3,5.334673E3,0E0,0E0,0E0,0E0],"parents":[2147483647,0,0,1,1,2,2],"right_children":[2,4,6,-1,-1,-1,-1],"split_conditions":[1.207E-1,1.171E-1,1.033E-1,-2.7231053E-2,2.229272E0,-2.489511E0,-1.03212915E-1],"split_indices":[17,17,19,0,0,0,0],"split_type":[0,0,0,0,0,0,0],"sum_hessian":[1.67E2,1.27E2,4E1,1.23E2,4E0,2E0,3.8E1],"tree_param":{"num_deleted":"0","num_feature":"43","num_nodes":"7","size_leaf_vector":"0"}},{"base_weights":[3.3863384E-1,6.472216E-1,-1.0202237E0,-1.1685574E-2,8.5698E-1],"categories":[],"categories_nodes":[],"categories_segments":[],"categories_sizes":[],"default_left":[0,0,0,0,0],"id":124,"left_children":[1,3,-1,-1,-1],"loss_changes":[1.0915845E3,2.4355571E3,0E0,0E0,0E0],"parents":[2147483647,0,0,1,1],"right_children":[2,4,-1,-1,-1],"split_conditions":[4.963E-1,1.505E-1,-1.0202237E0,-1.1685574E-2,8.5698E-1],"split_indices":[9,9,0,0,0],"split_type":[0,0,0,0,0],"sum_hessian":[1.69E2,1.67E2,2E0,1.59E2,8E0],"tree_param":{"num_deleted":"0","num_feature":"43","num_nodes":"5","size_leaf_vector":"0"}},{"base_weights":[-2.3859459E-1,-5.489655E-1,1.0364063E0,4.1520134E-2,-2.324078E-1],"categories":[],"categories_nodes":[],"categories_segments":[],"categories_sizes":[],"default_left":[1,0,0,0,0],"id":125,"left_children":[1,3,-1,-1,-1],"loss_changes":[1.1152114E3,9.546783E2,0E0,0E0,0E0],"parents":[2147483647,0,0,1,1],"right_children":[2,4,-1,-1,-1],"split_conditions":[3.32E1,1.207E-1,1.0364063E0,4.1520134E-2,-2.324078E-1],"split_indices":[30,17,0,0,0],"split_type":[0,0,0,0,0],"sum_hessian":[1.7E2,1.68E2,2E0,1.26E2,4.2E1],"tree_param":{"num_deleted":"0","num_feature":"43","num_nodes":"5","size_leaf_vector":"0"}},{"base_weights":[-2.7550306E-2,-9.5800894E-1,7.9449615E0,-2.409513E-2,-1.0986937E0,9.3443555E-1,-2.8970397E-1],"categories":[],"categories_nodes":[],"categories_segments":[],"categories_sizes":[],"default_left":[0,0,0,0,0,0,0],"id":126,"left_children":[1,3,5,-1,-1,-1,-1],"loss_changes":[1.313099E3,1.5806228E3,2.7849048E3,0E0,0E0,0E0,0E0],"parents":[2147483647,0,0,1,1,2,2],"right_children":[2,4,6,-1,-1,-1,-1],"split_conditions":[2.102E-1,1.975E-1,8.1E1,-2.409513E-2,-1.0986937E0,9.3443555E-1,-2.8970397E-1],"split_indices":[11,11,21,0,0,0,0],"split_type":[0,0,0,0,0,0,0],"sum_hessian":[1.76E2,1.58E2,1.8E1,1.55E2,3E0,1E1,8E0],"tree_param":{"num_deleted":"0","num_feature":"43","num_nodes":"7","size_leaf_vector":"0"}},{"base_weights":[-1.1317494E0,-2.4462503E1,-7.883514E-1,-1.7869774E0,-2.5156453E-1,-5.457167E-2,9.959137E-1],"categories":[],"categories_nodes":[],"categories_segments":[],"categories_sizes":[],"default_left":[0,0,1,0,0,0,0],"id":127,"left_children":[1,3,5,-1,-1,-1,-1],"loss_changes":[1.3803934E3,4.5790857E2,1.0871702E3,0E0,0E0,0E0,0E0],"parents":[2147483647,0,0,1,1,2,2],"right_children":[2,4,6,-1,-1,-1,-1],"split_conditions":[4E0,1.3E1,3.32E1,-1.7869774E0,-2.5156453E-1,-5.457167E-2,9.959137E-1],"split_indices":[33,1,30,0,0,0,0],"split_type":[0,0,0,0,0,0,0],"sum_hessian":[1.73E2,2E0,1.71E2,1E0,1E0,1.69E2,2E0],"tree_param":{"num_deleted":"0","num_feature":"43","num_nodes":"7","size_leaf_vector":"0"}},{"base_weights":[-3.6464427E-2,2.4879797E0,-4.3378253E0,7.011961E-2,1.7117461E0,8.915859E-3,-5.673047E-1],"categories":[],"categories_nodes":[],"categories_segments":[],"categories_sizes":[],"default_left":[0,0,1,0,0,0,0],"id":128,"left_children":[1,3,5,-1,-1,-1,-1],"loss_changes":[1.835061E3,3.6464182E3,1.9791576E3,0E0,0E0,0E0,0E0],"parents":[2147483647,0,0,1,1,2,2],"right_children":[2,4,6,-1,-1,-1,-1],"split_conditions":[1.291E-1,1.227E-1,2.54E1,7.011961E-2,1.7117461E0,8.915859E-3,-5.673047E-1],"split_indices":[13,18,30,0,0,0,0],"split_type":[0,0,0,0,0,0,0],"sum_hessian":[1.68E2,1.06E2,6.2E1,1.03E2,3E0,3.8E1,2.4E1],"tree_param":{"num_deleted":"0","num_feature":"43","num_nodes":"7","size_leaf_vector":"0"}},{"base_weights":[-1.5952207E-1,1.1043126E1,-1.328285E0,8.119318E-1,-2.1430595E0,3.4548767E-2,-3.1863436E-1],"categories":[],"categories_nodes":[],"categories_segments":[],"categories_sizes":[],"default_left":[0,0,0,0,0,0,0],"id":129,"left_children":[1,3,5,-1,-1,-1,-1],"loss_changes":[2.1480786E3,4.68894E3,1.5148168E3,0E0,0E0,0E0,0E0],"parents":[2147483647,0,0,1,1,2,2],"right_children":[2,4,6,-1,-1,-1,-1],"split_conditions":[4.66E2,9E-3,2.26E-2,8.119318E-1,-2.1430595E0,3.4548767E-2,-3.1863436E-1],"split_indices":[34,8,20,0,0,0,0],"split_type":[0,0,0,0,0,0,0],"sum_hessian":[1.63E2,1.5E1,1.48E2,1.4E1,1E0,1.06E2,4.2E1],"tree_param":{"num_deleted":"0","num_feature":"43","num_nodes":"7","size_leaf_vector":"0"}},{"base_weights":[-3.342986E-1,1.0954542E0,-5.786816E0,-1.4734139E-2,1.2420052E0,1.7199017E0,-4.3496576E-1],"categories":[],"categories_nodes":[],"categories_segments":[],"categories_sizes":[],"default_left":[0,0,0,0,0,0,0],"id":130,"left_children":[1,3,5,-1,-1,-1,-1],"loss_changes":[1.3323453E3,4.476287E3,4.304481E3,0E0,0E0,0E0,0E0],"parents":[2147483647,0,0,1,1,2,2],"right_children":[2,4,6,-1,-1,-1,-1],"split_conditions":[1.136E-1,9E0,1.65E-2,-1.4734139E-2,1.2420052E0,1.7199017E0,-4.3496576E-1],"split_indices":[16,1,20,0,0,0,0],"split_type":[0,0,0,0,0,0,0],"sum_hessian":[1.7E2,1.35E2,3.5E1,1.28E2,7E0,2E0,3.3E1],"tree_param":{"num_deleted":"0","num_feature":"43","num_nodes":"7","size_leaf_vector":"0"}},{"base_weights":[-4.1496003E-1,-1.687863E0,4.037324E0,-2.4939915E-2,-1.4765744E0,1.9144318E0,8.1801884E-2],"categories":[],"categories_nodes":[],"categories_segments":[],"categories_sizes":[],"default_left":[0,0,0,0,0,0,0],"id":131,"left_children":[1,3,5,-1,-1,-1,-1],"loss_changes":[9.810208E2,4.4456436E3,3.1351963E3,0E0,0E0,0E0,0E0],"parents":[2147483647,0,0,1,1,2,2],"right_children":[2,4,6,-1,-1,-1,-1],"split_conditions":[1.88E-1,1.211E-1,1.572E-1,-2.4939915E-2,-1.4765744E0,1.9144318E0,8.1801884E-2],"split_indices":[11,15,12,0,0,0,0],"split_type":[0,0,0,0,0,0,0],"sum_hessian":[1.72E2,1.34E2,3.8E1,1.29E2,5E0,2E0,3.6E1],"tree_param":{"num_deleted":"0","num_feature":"43","num_nodes":"7","size_leaf_vector":"0"}},{"base_weights":[3.7236598E-1,-9.186767E-1,6.514919E0,1.5541022E-1,-2.0140167E-1,2.0918517E0,-2.7019474E-1],"categories":[],"categories_nodes":[],"categories_segments":[],"categories_sizes":[],"default_left":[0,0,0,0,0,0,0],"id":132,"left_children":[1,3,5,-1,-1,-1,-1],"loss_changes":[1.3471781E3,1.7654614E3,1.2532473E4,0E0,0E0,0E0,0E0],"parents":[2147483647,0,0,1,1,2,2],"right_children":[2,4,6,-1,-1,-1,-1],"split_conditions":[1.3E1,1.37E-2,2.58E-2,1.5541022E-1,-2.0140167E-1,2.0918517E0,-2.7019474E-1],"split_indices":[1,10,20,0,0,0,0],"split_type":[0,0,0,0,0,0,0],"sum_hessian":[1.69E2,1.4E2,2.9E1,6.1E1,7.9E1,7E0,2.2E1],"tree_param":{"num_deleted":"0","num_feature":"43","num_nodes":"7","size_leaf_vector":"0"}},{"base_weights":[5.2537408E-2,-5.695906E-1,8.516604E0,3.174634E-3,-1.4126724E0,1.7511338E0,-1.4493182E-1],"categories":[],"categories_nodes":[],"categories_segments":[],"categories_sizes":[],"default_left":[0,1,0,0,0,0,0],"id":133,"left_children":[1,3,5,-1,-1,-1,-1],"loss_changes":[8.844359E2,2.7437454E3,3.5303506E3,0E0,0E0,0E0,0E0],"parents":[2147483647,0,0,1,1,2,2],"right_children":[2,4,6,-1,-1,-1,-1],"split_conditions":[2.014E-1,6.65E2,1.803E-1,3.174634E-3,-1.4126724E0,1.7511338E0,-1.4493182E-1],"split_indices":[19,34,14,0,0,0,0],"split_type":[0,0,0,0,0,0,0],"sum_hessian":[1.67E2,1.56E2,1.1E1,1.53E2,3E0,3E0,8E0],"tree_param":{"num_deleted":"0","num_feature":"43","num_nodes":"7","size_leaf_vector":"0"}},{"base_weights":[8.2448727E-1,-1.4325353E0,4.7360826E0,-2.9102927E-2,-1.0511662E0,9.974145E-2,1.101688E0],"categories":[],"categories_nodes":[],"categories_segments":[],"categories_sizes":[],"default_left":[0,0,1,0,0,0,0],"id":134,"left_children":[1,3,5,-1,-1,-1,-1],"loss_changes":[1.5086615E3,1.8016554E3,2.9416055E3,0E0,0E0,0E0,0E0],"parents":[2147483647,0,0,1,1,2,2],"right_children":[2,4,6,-1,-1,-1,-1],"split_conditions":[1.714E-1,1.193E-1,6.3E2,-2.9102927E-2,-1.0511662E0,9.974145E-2,1.101688E0],"split_indices":[11,15,34,0,0,0,0],"split_type":[0,0,0,0,0,0,0],"sum_hessian":[1.7E2,1.08E2,6.2E1,1.04E2,4E0,5.4E1,8E0],"tree_param":{"num_deleted":"0","num_feature":"43","num_nodes":"7","size_leaf_vector":"0"}},{"base_weights":[9.0929693E-1,1.14247465E1,-4.3828288E-1,1.3722538E0,-1.8069361E-1,-7.992258E-2,2.432137E-1],"categories":[],"categories_nodes":[],"categories_segments":[],"categories_sizes":[],"default_left":[0,0,0,0,0,0,0],"id":135,"left_children":[1,3,5,-1,-1,-1,-1],"loss_changes":[2.4327285E3,4.747602E3,9.420463E2,0E0,0E0,0E0,0E0],"parents":[2147483647,0,0,1,1,2,2],"right_children":[2,4,6,-1,-1,-1,-1],"split_conditions":[4.83E2,2.57E-2,1.88E-1,1.3722538E0,-1.8069361E-1,-7.992258E-2,2.432137E-1],"split_indices":[34,20,11,0,0,0,0],"split_type":[0,0,0,0,0,0,0],"sum_hessian":[1.71E2,1.9E1,1.52E2,9E0,1E1,1.25E2,2.7E1],"tree_param":{"num_deleted":"0","num_feature":"43","num_nodes":"7","size_leaf_vector":"0"}},{"base_weights":[2.6309603E-1,-1.2162834E0,4.7614878E-1,-4.309615E-2,2.7368242E-1],"categories":[],"categories_nodes":[],"categories_segments":[],"categories_sizes":[],"default_left":[0,0,0,0,0],"id":136,"left_children":[1,-1,3,-1,-1],"loss_changes":[9.147065E2,0E0,1.1558687E3,0E0,0E0],"parents":[2147483647,0,0,2,2],"right_children":[2,-1,4,-1,-1],"split_conditions":[-9.486272E-2,-1.2162834E0,1E1,-4.309615E-2,2.7368242E-1],"split_indices":[22,0,1,0,0],"split_type":[0,0,0,0,0],"sum_hessian":[1.73E2,1E0,1.72E2,1.36E2,3.6E1],"tree_param":{"num_deleted":"0","num_feature":"43","num_nodes":"5","size_leaf_vector":"0"}},{"base_weights":[-9.186962E-2,5.1730914E0,-1.2159396E0,9.679546E-1,7.2780944E-2,-7.724043E-2,9.0837115E-1],"categories":[],"categories_nodes":[],"categories_segments":[],"categories_sizes":[],"default_left":[0,0,1,0,0,0,0],"id":137,"left_children":[1,3,5,-1,-1,-1,-1],"loss_changes":[1.059541E3,1.6470962E3,9.542841E2,0E0,0E0,0E0,0E0],"parents":[2147483647,0,0,1,1,2,2],"right_children":[2,4,6,-1,-1,-1,-1],"split_conditions":[4.8E0,7.82E-2,3.32E1,9.679546E-1,7.2780944E-2,-7.724043E-2,9.0837115E-1],"split_indices":[26,18,30,0,0,0,0],"split_type":[0,0,0,0,0,0,0],"sum_hessian":[1.78E2,3.1E1,1.47E2,6E0,2.5E1,1.45E2,2E0],"tree_param":{"num_deleted":"0","num_feature":"43","num_nodes":"7","size_leaf_vector":"0"}},{"base_weights":[4.6659395E-2,3.1937861E0,-1.9296604E0,-3.1325415E-2,1.1981181E0,-3.199011E-1,6.693721E-2],"categories":[],"categories_nodes":[],"categories_segments":[],"categories_sizes":[],"default_left":[0,0,0,0,0,0,0],"id":138,"left_children":[1,3,5,-1,-1,-1,-1],"loss_changes":[1.0884243E3,5.363096E3,1.5742572E3,0E0,0E0,0E0,0E0],"parents":[2147483647,0,0,1,1,2,2],"right_children":[2,4,6,-1,-1,-1,-1],"split_conditions":[1.48E-2,8.04E-2,3.54E-2,-3.1325415E-2,1.1981181E0,-3.199011E-1,6.693721E-2],"split_indices":[10,14,10,0,0,0,0],"split_type":[0,0,0,0,0,0,0],"sum_hessian":[1.74E2,6.7E1,1.07E2,5.7E1,1E1,4.5E1,6.2E1],"tree_param":{"num_deleted":"0","num_feature":"43","num_nodes":"7","size_leaf_vector":"0"}},{"base_weights":[-2.7824888E-1,1.9958456E-1,-1.2643759E1,-1.6764132E-2,9.864888E-1,-8.468427E-1,3.6560872E-1],"categories":[],"categories_nodes":[],"categories_segments":[],"categories_sizes":[],"default_left":[0,0,0,0,0,0,0],"id":139,"left_children":[1,3,5,-1,-1,-1,-1],"loss_changes":[1.0323219E3,1.7634686E3,6.1879517E2,0E0,0E0,0E0,0E0],"parents":[2147483647,0,0,1,1,2,2],"right_children":[2,4,6,-1,-1,-1,-1],"split_conditions":[2.105E-1,5.03E-2,4.4560272E1,-1.6764132E-2,9.864888E-1,-8.468427E-1,3.6560872E-1],"split_indices":[16,20,0,0,0,0,0],"split_type":[0,0,0,0,0,0,0],"sum_hessian":[1.74E2,1.68E2,6E0,1.64E2,4E0,5E0,1E0],"tree_param":{"num_deleted":"0","num_feature":"43","num_nodes":"7","size_leaf_vector":"0"}},{"base_weights":[-2.5726375E-1,1.33985E0,-5.391867E0,5.6264596E-4,1.9712523E0,-1.6069266E0,-1.445164E-1],"categories":[],"categories_nodes":[],"categories_segments":[],"categories_sizes":[],"default_left":[0,0,0,0,0,0,0],"id":140,"left_children":[1,3,5,-1,-1,-1,-1],"loss_changes":[1.4346073E3,6.7548623E3,2.7302297E3,0E0,0E0,0E0,0E0],"parents":[2147483647,0,0,1,1,2,2],"right_children":[2,4,6,-1,-1,-1,-1],"split_conditions":[1.207E-1,1.137E-1,1.11E-1,5.6264596E-4,1.9712523E0,-1.6069266E0,-1.445164E-1],"split_indices":[17,17,18,0,0,0,0],"split_type":[0,0,0,0,0,0,0],"sum_hessian":[1.74E2,1.33E2,4.1E1,1.29E2,4E0,3E0,3.8E1],"tree_param":{"num_deleted":"0","num_feature":"43","num_nodes":"7","size_leaf_vector":"0"}},{"base_weights":[2.696408E-2,4.4095877E-1,-1.5201837E1,3.6217403E-2,-9.0904444E-1,-1.3313167E0,8.261302E-1],"categories":[],"categories_nodes":[],"categories_segments":[],"categories_sizes":[],"default_left":[1,0,0,0,0,0,0],"id":141,"left_children":[1,3,5,-1,-1,-1,-1],"loss_changes":[1.0719885E3,8.799665E2,1.8509291E3,0E0,0E0,0E0,0E0],"parents":[2147483647,0,0,1,1,2,2],"right_children":[2,4,6,-1,-1,-1,-1],"split_conditions":[6.65E2,4.963E-1,6E1,3.6217403E-2,-9.0904444E-1,-1.3313167E0,8.261302E-1],"split_indices":[34,9,1,0,0,0,0],"split_type":[0,0,0,0,0,0,0],"sum_hessian":[1.69E2,1.65E2,4E0,1.63E2,2E0,3E0,1E0],"tree_param":{"num_deleted":"0","num_feature":"43","num_nodes":"7","size_leaf_vector":"0"}},{"base_weights":[8.5260814E-1,1.4129595E0,