{"learner":{"attributes":{"best_iteration":"89","best_ntree_limit":"90","best_score":"1.903915918223554"},"feature_names":["s2_cloud_pct","cp_probability","s2_prop_MEAN_SOLAR_AZIMUTH_ANGLE","s2_prop_MEAN_SOLAR_ZENITH_ANGLE","s2_prop_SOLAR_IRRADIANCE_B1","s2_prop_MEAN_INCIDENCE_AZIMUTH_ANGLE_B1","s2_prop_MEAN_INCIDENCE_ZENITH_ANGLE_B1","RCC","s2_med3_B10_median","s2_med3_B11_median","s2_med3_B12_median","s2_med3_B1_median","s2_med3_B2_median","s2_med3_B3_median","s2_med3_B4_median","s2_med3_B5_median","s2_med3_B6_median","s2_med3_B7_median","s2_med3_B8A_median","s2_med3_B8_median","s2_med3_B9_median","s2_med3_probability_median","s2_med3_NDWI","t2m_3d","rh_3d","cloud_3d","ws10_3d","precip_3d_sum","swrad_3d_sum","sunshine_3d_sum_s","t2m_inst","rh_inst","cloud_inst","ws10_inst","swrad_inst","precip_inst","sunshine_inst_s","weather_code_3d_mode","t2m_3d_mean","rh_3d_mean","cloud_3d_mean","ws10_3d_mean","cp_source_index"],"feature_types":["float","float","float","float","float","float","float","float","float","float","float","float","float","float","float","float","float","float","float","float","float","float","float","float","float","float","float","float","float","float","float","float","float","float","float","float","float","float","float","float","float","float","i"],"gradient_booster":{"model":{"gbtree_model_param":{"num_parallel_tree":"1","num_trees":"290","size_leaf_vector":"0"},"tree_info":[0,0,0,0,0,0,0,0,0,0,0,0,0,0,0,0,0,0,0,0,0,0,0,0,0,0,0,0,0,0,0,0,0,0,0,0,0,0,0,0,0,0,0,0,0,0,0,0,0,0,0,0,0,0,0,0,0,0,0,0,0,0,0,0,0,0,0,0,0,0,0,0,0,0,0,0,0,0,0,0,0,0,0,0,0,0,0,0,0,0,0,0,0,0,0,0,0,0,0,0,0,0,0,0,0,0,0,0,0,0,0,0,0,0,0,0,0,0,0,0,0,0,0,0,0,0,0,0,0,0,0,0,0,0,0,0,0,0,0,0,0,0,0,0,0,0,0,0,0,0,0,0,0,0,0,0,0,0,0,0,0,0,0,0,0,0,0,0,0,0,0,0,0,0,0,0,0,0,0,0,0,0,0,0,0,0,0,0,0,0,0,0,0,0,0,0,0,0,0,0,0,0,0,0,0,0,0,0,0,0,0,0,0,0,0,0,0,0,0,0,0,0,0,0,0,0,0,0,0,0,0,0,0,0,0,0,0,0,0,0,0,0,0,0,0,0,0,0,0,0,0,0,0,0,0,0,0,0,0,0,0,0,0,0,0,0,0,0,0,0,0,0,0,0,0,0,0,0,0,0,0,0,0,0,0,0,0,0,0,0],"trees":[{"base_weights":[5.654229E0,3.5841305E0,5.9568316E-1,3.6776745E0,1.6825E-1,3.7915385E-1,2.0539999E-1],"categories":[],"categories_nodes":[],"categories_segments":[],"categories_sizes":[],"default_left":[0,0,0,0,0,0,0],"id":0,"left_children":[1,3,-1,5,-1,-1,-1],"loss_changes":[1.9225879E2,1.9951172E0,0E0,1.6192627E-1,0E0,0E0,0E0],"parents":[2147483647,0,0,1,1,3,3],"right_children":[2,4,-1,6,-1,-1,-1],"split_conditions":[6.2E2,6.11E2,5.9568316E-1,9E-3,1.6825E-1,3.7915385E-1,2.0539999E-1],"split_indices":[34,34,0,8,0,0,0],"split_type":[0,0,0,0,0,0,0],"sum_hessian":[3.4E2,4.5E1,2.95E2,4.2E1,3E0,3.8E1,4E0],"tree_param":{"num_deleted":"0","num_feature":"43","num_nodes":"7","size_leaf_vector":"0"}},{"base_weights":[5.1180916E0,5.5116215E0,3.725174E0,2.9537258E-1,5.571668E-1,4.349498E-1,3.1722677E0,2.2533534E-1,3.667386E-1],"categories":[],"categories_nodes":[],"categories_segments":[],"categories_sizes":[],"default_left":[1,0,0,0,0,0,0,0,0],"id":1,"left_children":[1,3,5,-1,-1,-1,7,-1,-1],"loss_changes":[1.609082E2,2.2862305E1,1.2436768E1,0E0,0E0,0E0,1.1754822E1,0E0,0E0],"parents":[2147483647,0,0,1,1,2,2,6,6],"right_children":[2,4,6,-1,-1,-1,8,-1,-1],"split_conditions":[2.3633333E1,2.54E1,1.7036464E2,2.9537258E-1,5.571668E-1,4.349498E-1,1.132E-1,2.2533534E-1,3.667386E-1],"split_indices":[23,30,5,0,0,0,15,0,0],"split_type":[0,0,0,0,0,0,0,0,0],"sum_hessian":[3.3E2,2.55E2,7.5E1,7E0,2.48E2,3.2E1,4.3E1,1.7E1,2.6E1],"tree_param":{"num_deleted":"0","num_feature":"43","num_nodes":"9","size_leaf_vector":"0"}},{"base_weights":[4.6895533E0,3.730493E0,4.980367E-1,3.8802266E0,2.2793622E-1,2.338734E-1,4.010253E-1],"categories":[],"categories_nodes":[],"categories_segments":[],"categories_sizes":[],"default_left":[0,0,0,0,0,0,0],"id":2,"left_children":[1,3,-1,5,-1,-1,-1],"loss_changes":[7.3739746E1,8.755493E0,0E0,5.052368E0,0E0,0E0,0E0],"parents":[2147483647,0,0,1,1,3,3],"right_children":[2,4,-1,6,-1,-1,-1],"split_conditions":[6.55E2,1.5544202E2,4.980367E-1,2.48E1,2.2793622E-1,2.338734E-1,4.010253E-1],"split_indices":[34,2,0,30,0,0,0],"split_type":[0,0,0,0,0,0,0],"sum_hessian":[3.3E2,8E1,2.5E2,7.1E1,9E0,7E0,6.4E1],"tree_param":{"num_deleted":"0","num_feature":"43","num_nodes":"7","size_leaf_vector":"0"}},{"base_weights":[4.1676207E0,3.019399E0,4.5070004E0,2.4760327E0,3.416728E0,6.0929346E-1,4.4173995E-1,2.585048E-1,9.303961E-2,1.5709579E-1,3.515887E-1],"categories":[],"categories_nodes":[],"categories_segments":[],"categories_sizes":[],"default_left":[0,0,0,0,0,0,0,0,0,0,0],"id":3,"left_children":[1,3,5,7,9,-1,-1,-1,-1,-1,-1],"loss_changes":[1.1615625E2,8.595764E0,9.320801E0,3.8293152E0,2.3467407E0,0E0,0E0,0E0,0E0,0E0,0E0],"parents":[2147483647,0,0,1,1,2,2,3,3,4,4],"right_children":[2,4,6,8,10,-1,-1,-1,-1,-1,-1],"split_conditions":[6.65E2,6.21E2,1.0468689E2,6.18E2,1.561E-1,6.0929346E-1,4.4173995E-1,2.585048E-1,9.303961E-2,1.5709579E-1,3.515887E-1],"split_indices":[34,34,5,34,11,0,0,0,0,0,0],"split_type":[0,0,0,0,0,0,0,0,0,0,0],"sum_hessian":[3.32E2,7.8E1,2.54E2,3.6E1,4.2E1,1E1,2.44E2,3.3E1,3E0,3E0,3.9E1],"tree_param":{"num_deleted":"0","num_feature":"43","num_nodes":"11","size_leaf_vector":"0"}},{"base_weights":[3.8061793E0,2.4031298E0,3.9349504E0,3.1633918E0,2.1170201E0,5.173084E0,3.834064E0,1.5631072E-1,3.9728287E-1,2.335879E-1,1.41976E-1,5.4997236E-1,2.3282743E-1,3.868422E-1,1.7991428E-1],"categories":[],"categories_nodes":[],"categories_segments":[],"categories_sizes":[],"default_left":[0,0,0,0,0,0,1,0,0,0,0,0,0,0,0],"id":4,"left_children":[1,3,5,7,9,11,13,-1,-1,-1,-1,-1,-1,-1,-1],"loss_changes":[5.5947266E1,4.8114014E-1,2.1386719E1,2.8573532E0,8.038559E-1,7.6381836E0,1.4643555E1,0E0,0E0,0E0,0E0,0E0,0E0,0E0,0E0],"parents":[2147483647,0,0,1,1,2,2,3,3,4,4,5,5,6,6],"right_children":[2,4,6,8,10,12,14,-1,-1,-1,-1,-1,-1,-1,-1],"split_conditions":[5.67E2,5E0,1.6958386E2,3E0,1.4680944E-1,1.727E-1,3.16E1,1.5631072E-1,3.9728287E-1,2.335879E-1,1.41976E-1,5.4997236E-1,2.3282743E-1,3.868422E-1,1.7991428E-1],"split_indices":[34,21,5,1,22,11,30,0,0,0,0,0,0,0,0],"split_type":[0,0,0,0,0,0,0,0,0,0,0,0,0,0,0],"sum_hessian":[3.61E2,3.2E1,3.29E2,6E0,2.6E1,2.1E1,3.08E2,3E0,3E0,1.8E1,8E0,1.8E1,3E0,3.02E2,6E0],"tree_param":{"num_deleted":"0","num_feature":"43","num_nodes":"15","size_leaf_vector":"0"}},{"base_weights":[3.3833508E0,2.66836E0,3.6522985E0,2.926345E0,2.09319E0,5.0013065E-1,3.5625228E-1,3.1425753E-1,2.1818331E-1,2.2370903E-1,5.2661505E-2],"categories":[],"categories_nodes":[],"categories_segments":[],"categories_sizes":[],"default_left":[0,0,0,0,0,0,0,0,0,0,0],"id":5,"left_children":[1,3,5,7,9,-1,-1,-1,-1,-1,-1],"loss_changes":[5.2365723E1,7.526062E0,1.0279541E1,2.963562E0,6.0357056E0,0E0,0E0,0E0,0E0,0E0,0E0],"parents":[2147483647,0,0,1,1,2,2,3,3,4,4],"right_children":[2,4,6,8,10,-1,-1,-1,-1,-1,-1],"split_conditions":[6.65E2,6.8E1,1.6911412E2,1.8129772E-1,1.326E-1,5.0013065E-1,3.5625228E-1,3.1425753E-1,2.1818331E-1,2.2370903E-1,5.2661505E-2],"split_indices":[34,31,5,22,15,0,0,0,0,0,0],"split_type":[0,0,0,0,0,0,0,0,0,0,0],"sum_hessian":[3.22E2,9.1E1,2.31E2,6E1,3.1E1,1.1E1,2.2E2,4.4E1,1.6E1,2.8E1,3E0],"tree_param":{"num_deleted":"0","num_feature":"43","num_nodes":"11","size_leaf_vector":"0"}},{"base_weights":[3.1003535E0,1.771345E0,3.265568E0,1.3766825E0,2.3373368E0,4.72011E-1,3.194609E0,1.8920666E-1,7.1575485E-2,1.3591968E-1,2.6904875E-1,1.8621661E-1,3.2160512E-1],"categories":[],"categories_nodes":[],"categories_segments":[],"categories_sizes":[],"default_left":[0,0,0,0,0,0,0,0,0,0,0,0,0],"id":6,"left_children":[1,3,5,7,9,-1,11,-1,-1,-1,-1,-1,-1],"loss_changes":[6.930908E1,5.7172623E0,1.6194824E1,7.5021706E0,1.5245514E0,0E0,2.3537598E0,0E0,0E0,0E0,0E0,0E0,0E0],"parents":[2147483647,0,0,1,1,2,2,3,3,4,4,6,6],"right_children":[2,4,6,8,10,-1,12,-1,-1,-1,-1,-1,-1],"split_conditions":[6.2E2,3.02E-2,1.6816399E2,2.28E-2,1.91357E3,4.72011E-1,1.6844661E2,1.8920666E-1,7.1575485E-2,1.3591968E-1,2.6904875E-1,1.8621661E-1,3.2160512E-1],"split_indices":[34,20,5,20,4,0,5,0,0,0,0,0,0],"split_type":[0,0,0,0,0,0,0,0,0,0,0,0,0],"sum_hessian":[3.41E2,3.9E1,3.02E2,2.5E1,1.4E1,1.1E1,2.91E2,1.3E1,1.2E1,5E0,9E0,6E0,2.85E2],"tree_param":{"num_deleted":"0","num_feature":"43","num_nodes":"13","size_leaf_vector":"0"}},{"base_weights":[2.7967362E0,1.9267788E0,2.917012E0,1.2670096E0,2.2585394E0,2.9881213E0,2.1617303E0,1.4121135E-1,4.4239398E-2,1.12538174E-1,2.5164288E-1,3.1283745E-1,2.5403163E-1,9.493917E-2,2.6598132E-1],"categories":[],"categories_nodes":[],"categories_segments":[],"categories_sizes":[],"default_left":[0,0,0,0,0,1,0,0,0,0,0,0,0,0,0],"id":7,"left_children":[1,3,5,7,9,11,13,-1,-1,-1,-1,-1,-1,-1,-1],"loss_changes":[2.9746094E1,6.7693634E0,9.384033E0,1.4094219E0,5.350479E0,8.822266E0,1.4986298E1,0E0,0E0,0E0,0E0,0E0,0E0,0E0,0E0],"parents":[2147483647,0,0,1,1,2,2,3,3,4,4,5,5,6,6],"right_children":[2,4,6,8,10,12,14,-1,-1,-1,-1,-1,-1,-1,-1],"split_conditions":[6.21E2,1.13E-1,9E0,2.75E1,1.93E-2,2.5233334E1,1.1E1,1.4121135E-1,4.4239398E-2,1.12538174E-1,2.5164288E-1,3.1283745E-1,2.5403163E-1,9.493917E-2,2.6598132E-1],"split_indices":[34,17,1,30,20,38,1,0,0,0,0,0,0,0,0],"split_type":[0,0,0,0,0,0,0,0,0,0,0,0,0,0,0],"sum_hessian":[3.37E2,4.3E1,2.94E2,1.6E1,2.7E1,2.66E2,2.8E1,1.3E1,3E0,6E0,2.1E1,1.98E2,6.8E1,9E0,1.9E1],"tree_param":{"num_deleted":"0","num_feature":"43","num_nodes":"15","size_leaf_vector":"0"}},{"base_weights":[2.5262065E0,1.8006403E0,2.6375892E0,1.2939725E0,2.1795912E0,2.6568997E0,5.9265554E-2,1.3791879E-1,5.444028E-2,3.3323175E-1,1.8843524E-1,2.6722175E-1,9.051176E-2],"categories":[],"categories_nodes":[],"categories_segments":[],"categories_sizes":[],"default_left":[0,0,0,0,0,1,0,0,0,0,0,0,0],"id":8,"left_children":[1,3,5,7,9,11,-1,-1,-1,-1,-1,-1,-1],"loss_changes":[2.2485352E1,6.3957825E0,9.877075E0,7.182884E-1,2.5693054E0,5.282593E0,0E0,0E0,0E0,0E0,0E0,0E0,0E0],"parents":[2147483647,0,0,1,1,2,2,3,3,4,4,5,5],"right_children":[2,4,6,8,10,12,-1,-1,-1,-1,-1,-1,-1],"split_conditions":[6.2E2,1.91357E3,9.1E1,5.56E2,5E0,3.32E1,5.9265554E-2,1.3791879E-1,5.444028E-2,3.3323175E-1,1.8843524E-1,2.6722175E-1,9.051176E-2],"split_indices":[34,4,1,34,1,30,0,0,0,0,0,0,0],"split_type":[0,0,0,0,0,0,0,0,0,0,0,0,0],"sum_hessian":[3.36E2,4.7E1,2.89E2,2.2E1,2.5E1,2.86E2,3E0,1.9E1,3E0,3E0,2.2E1,2.83E2,3E0],"tree_param":{"num_deleted":"0","num_feature":"43","num_nodes":"13","size_leaf_vector":"0"}},{"base_weights":[2.2966866E0,2.4268193E0,1.8535316E0,2.3625503E0,3.9924103E-1,9.746925E-1,2.0028205E0,1.0675801E-1,2.3998682E-1,-1.4364386E-2,1.2927519E-1,2.3207228E-1,1.5280166E-1],"categories":[],"categories_nodes":[],"categories_segments":[],"categories_sizes":[],"default_left":[0,1,0,0,0,0,0,0,0,0,0,0,0],"id":9,"left_children":[1,3,5,7,-1,9,11,-1,-1,-1,-1,-1,-1],"loss_changes":[1.5512939E1,1.7231812E1,8.9375305E0,9.857666E0,0E0,5.1654587E0,7.0197754E0,0E0,0E0,0E0,0E0,0E0,0E0],"parents":[2147483647,0,0,1,1,2,2,3,3,5,5,6,6],"right_children":[2,4,6,8,-1,10,12,-1,-1,-1,-1,-1,-1],"split_conditions":[5E0,9.2E0,5.272E1,2.4233334E1,3.9924103E-1,1.527E-1,1.4642856E-1,1.0675801E-1,2.3998682E-1,-1.4364386E-2,1.2927519E-1,2.3207228E-1,1.5280166E-1],"split_indices":[1,33,28,23,0,12,22,0,0,0,0,0,0],"split_type":[0,0,0,0,0,0,0,0,0,0,0,0,0],"sum_hessian":[3.46E2,2.64E2,8.2E1,2.56E2,8E0,1.3E1,6.9E1,8E0,2.48E2,3E0,1E1,3.9E1,3E1],"tree_param":{"num_deleted":"0","num_feature":"43","num_nodes":"13","size_leaf_vector":"0"}},{"base_weights":[1.9760607E0,2.1466978E0,1.4685417E0,3.1475658E0,2.0916116E0,4.8873812E-1,1.5665357E0,3.636591E-1,1.2603678E-1,6.525204E-2,2.1060398E-1,9.701862E-2,6.074985E-4,1.3849816E-1,2.4655302E-1],"categories":[],"categories_nodes":[],"categories_segments":[],"categories_sizes":[],"default_left":[0,0,0,0,0,0,0,0,0,0,0,0,0,0,0],"id":10,"left_children":[1,3,5,7,9,11,13,-1,-1,-1,-1,-1,-1,-1,-1],"loss_changes":[2.8110718E1,8.192261E0,8.259781E0,6.491211E0,3.9620361E0,2.3178782E0,1.0458679E1,0E0,0E0,0E0,0E0,0E0,0E0,0E0,0E0],"parents":[2147483647,0,0,1,1,2,2,3,3,4,4,5,5,6,6],"right_children":[2,4,6,8,10,12,14,-1,-1,-1,-1,-1,-1,-1,-1],"split_conditions":[5E0,1.6968353E2,6E0,1.5E-3,2.36E1,3.6333332E1,3.0925965E0,3.636591E-1,1.2603678E-1,6.525204E-2,2.1060398E-1,9.701862E-2,6.074985E-4,1.3849816E-1,2.4655302E-1],"split_indices":[1,5,1,8,23,25,6,0,0,0,0,0,0,0,0],"split_type":[0,0,0,0,0,0,0,0,0,0,0,0,0,0,0],"sum_hessian":[3.6E2,2.67E2,9.3E1,1.1E1,2.56E2,9E0,8.4E1,8E0,3E0,3E0,2.53E2,4E0,5E0,7.2E1,1.2E1],"tree_param":{"num_deleted":"0","num_feature":"43","num_nodes":"15","size_leaf_vector":"0"}},{"base_weights":[1.8304491E0,1.96695E0,1.4428319E0,1.8953892E0,2.8152132E0,9.335493E-1,1.7302363E0,1.8469605E-1,3.3875003E-1,1.6944641E-1,3.140987E-1,2.0189331E-1,6.8535425E-2,1.814336E-1,1.6233135E-2],"categories":[],"categories_nodes":[],"categories_segments":[],"categories_sizes":[],"default_left":[0,0,0,1,0,0,0,0,0,0,0,0,0,0,0],"id":11,"left_children":[1,3,5,7,9,11,13,-1,-1,-1,-1,-1,-1,-1,-1],"loss_changes":[1.4886841E1,9.536194E0,1.1704437E1,1.0291199E1,8.845825E-1,8.044855E0,7.221512E0,0E0,0E0,0E0,0E0,0E0,0E0,0E0,0E0],"parents":[2147483647,0,0,1,1,2,2,3,3,4,4,5,5,6,6],"right_children":[2,4,6,8,10,12,14,-1,-1,-1,-1,-1,-1,-1,-1],"split_conditions":[5E0,3.3639257E0,1.112028E5,7.4E1,8.9E0,3.5812665E-2,1.66E-2,1.8469605E-1,3.3875003E-1,1.6944641E-1,3.140987E-1,2.0189331E-1,6.8535425E-2,1.814336E-1,1.6233135E-2],"split_indices":[1,6,29,24,41,22,8,0,0,0,0,0,0,0,0],"split_type":[0,0,0,0,0,0,0,0,0,0,0,0,0,0,0],"sum_hessian":[3.34E2,2.44E2,9E1,2.28E2,1.6E1,3.4E1,5.6E1,2.23E2,5E0,5E0,1.1E1,5E0,2.9E1,5.3E1,3E0],"tree_param":{"num_deleted":"0","num_feature":"43","num_nodes":"15","size_leaf_vector":"0"}},{"base_weights":[1.6279448E0,1.7283742E0,6.2621135E-1,2.726706E-1,1.6834625E0,-3.9730906E-2,8.383233E-1,8.353259E-2,1.705098E-1,2.60176E-2,1.2449529E-1],"categories":[],"categories_nodes":[],"categories_segments":[],"categories_sizes":[],"default_left":[1,0,0,0,0,0,0,0,0,0,0],"id":12,"left_children":[1,3,5,-1,7,-1,9,-1,-1,-1,-1],"loss_changes":[3.1412598E1,8.546875E0,7.063202E0,0E0,3.7686768E0,0E0,5.788479E0,0E0,0E0,0E0,0E0],"parents":[2147483647,0,0,1,1,2,2,4,4,6,6],"right_children":[2,4,6,-1,8,-1,10,-1,-1,-1,-1],"split_conditions":[7.4333336E1,1.6816399E2,6.3E1,2.726706E-1,2.54E1,-3.9730906E-2,1.1E1,8.353259E-2,1.705098E-1,2.60176E-2,1.2449529E-1],"split_indices":[24,5,31,0,30,0,21,0,0,0,0],"split_type":[0,0,0,0,0,0,0,0,0,0,0],"sum_hessian":[3.22E2,2.92E2,3E1,1E1,2.82E2,5E0,2.5E1,8E0,2.74E2,1.1E1,1.4E1],"tree_param":{"num_deleted":"0","num_feature":"43","num_nodes":"11","size_leaf_vector":"0"}},{"base_weights":[1.5036176E0,1.0304539E0,1.5893415E0,1.2786578E0,2.4769635E-1,1.616833E0,5.971697E-1,2.0241539E-1,1.0290289E-1,-1.5062175E-2,1.281147E-1,1.7281912E-1,1.2787507E-1,8.850126E-2,1.6113044E-3],"categories":[],"categories_nodes":[],"categories_segments":[],"categories_sizes":[],"default_left":[0,0,1,0,0,1,0,0,0,0,0,0,0,0,0],"id":13,"left_children":[1,3,5,7,9,11,13,-1,-1,-1,-1,-1,-1,-1,-1],"loss_changes":[1.16258545E1,9.980305E0,6.5354614E0,5.360977E0,5.955958E0,7.842163E0,1.4910169E0,0E0,0E0,0E0,0E0,0E0,0E0,0E0,0E0],"parents":[2147483647,0,0,1,1,2,2,3,3,4,4,5,5,6,6],"right_children":[2,4,6,8,10,12,14,-1,-1,-1,-1,-1,-1,-1,-1],"split_conditions":[6.4E1,6.2E1,7.3E1,1.48E-2,1.279E-1,2.48E1,2.46E-2,2.0241539E-1,1.0290289E-1,-1.5062175E-2,1.281147E-1,1.7281912E-1,1.2787507E-1,8.850126E-2,1.6113044E-3],"split_indices":[31,31,31,20,16,38,20,0,0,0,0,0,0,0,0],"split_type":[0,0,0,0,0,0,0,0,0,0,0,0,0,0,0],"sum_hessian":[3.26E2,5.2E1,2.74E2,3.9E1,1.3E1,2.66E2,8E0,8E0,3.1E1,1E1,3E0,1.97E2,6.9E1,5E0,3E0],"tree_param":{"num_deleted":"0","num_feature":"43","num_nodes":"15","size_leaf_vector":"0"}},{"base_weights":[1.3722641E0,9.598547E-1,1.4830134E0,8.659057E-1,2.3170245E-1,2.070841E0,1.3689559E0,3.4022746E-3,1.16470315E-1,1.7396414E-1,2.8573558E-1,1.3984051E-1,1.1498153E-2],"categories":[],"categories_nodes":[],"categories_segments":[],"categories_sizes":[],"default_left":[0,0,0,0,0,0,1,0,0,0,0,0,0],"id":14,"left_children":[1,3,5,7,-1,9,11,-1,-1,-1,-1,-1,-1],"loss_changes":[1.3283569E1,7.0465164E0,1.406073E1,1.6862762E1,0E0,5.1884766E0,7.741913E0,0E0,0E0,0E0,0E0,0E0,0E0],"parents":[2147483647,0,0,1,1,2,2,3,3,5,5,6,6],"right_children":[2,4,6,8,-1,10,12,-1,-1,-1,-1,-1,-1],"split_conditions":[9.8E0,2.2784811E-1,1.54E-2,1.865E-1,2.3170245E-1,1E-3,6.43E2,3.4022746E-3,1.16470315E-1,1.7396414E-1,2.8573558E-1,1.3984051E-1,1.1498153E-2],"split_indices":[33,22,10,11,0,8,34,0,0,0,0,0,0],"split_type":[0,0,0,0,0,0,0,0,0,0,0,0,0],"sum_hessian":[3.21E2,7E1,2.51E2,6.7E1,3E0,3.8E1,2.13E2,1.8E1,4.9E1,2.9E1,9E0,2.08E2,5E0],"tree_param":{"num_deleted":"0","num_feature":"43","num_nodes":"13","size_leaf_vector":"0"}},{"base_weights":[1.1690788E0,5.475797E-1,1.2633052E0,1.4037912E-1,4.0892488E-1,1.8106447E0,1.2118104E0,1.7214194E-2,9.056772E-2,1.4238015E-1,2.9185206E-1,1.3465588E-1,9.7799115E-2],"categories":[],"categories_nodes":[],"categories_segments":[],"categories_sizes":[],"default_left":[0,0,0,0,0,0,0,0,0,0,0,0,0],"id":15,"left_children":[1,3,5,-1,7,9,11,-1,-1,-1,-1,-1,-1],"loss_changes":[1.8984955E1,4.8869762E0,6.0077515E0,0E0,4.6666155E0,5.7018204E0,7.158386E0,0E0,0E0,0E0,0E0,0E0,0E0],"parents":[2147483647,0,0,1,1,2,2,4,4,5,5,6,6],"right_children":[2,4,6,-1,8,10,12,-1,-1,-1,-1,-1,-1],"split_conditions":[6.3E2,5E0,2.15E-2,1.4037912E-1,1.835E-1,8.43E-2,1.8341708E-1,1.7214194E-2,9.056772E-2,1.4238015E-1,2.9185206E-1,1.3465588E-1,9.7799115E-2],"split_indices":[34,1,9,0,12,15,22,0,0,0,0,0,0],"split_type":[0,0,0,0,0,0,0,0,0,0,0,0,0],"sum_hessian":[3.35E2,4.5E1,2.9E2,5E0,4E1,2.2E1,2.68E2,2.8E1,1.2E1,1.8E1,4E0,1.67E2,1.01E2],"tree_param":{"num_deleted":"0","num_feature":"43","num_nodes":"13","size_leaf_vector":"0"}},{"base_weights":[1.0792629E0,3.523317E-1,1.1343708E0,6.878612E-1,-2.833132E-1,1.151738E0,-4.257092E-2,8.177355E-2,2.3859072E-2,-8.7409414E-2,6.736865E-2,1.987327E-1,1.118378E-1],"categories":[],"categories_nodes":[],"categories_segments":[],"categories_sizes":[],"default_left":[0,0,1,0,0,0,0,0,0,0,0,0,0],"id":16,"left_children":[1,3,5,7,9,11,-1,-1,-1,-1,-1,-1,-1],"loss_changes":[1.2419464E1,5.3135433E0,8.537262E0,7.384753E-1,5.67726E0,5.9727783E0,0E0,0E0,0E0,0E0,0E0,0E0,0E0],"parents":[2147483647,0,0,1,1,2,2,3,3,4,4,5,5],"right_children":[2,4,6,8,10,12,-1,-1,-1,-1,-1,-1,-1],"split_conditions":[2.61E1,5.56E2,3.0833334E1,4.76E-2,4.33E-2,1.0468689E2,-4.257092E-2,8.177355E-2,2.3859072E-2,-8.7409414E-2,6.736865E-2,1.987327E-1,1.118378E-1],"split_indices":[30,34,23,9,9,5,0,0,0,0,0,0,0],"split_type":[0,0,0,0,0,0,0,0,0,0,0,0,0],"sum_hessian":[3.19E2,2.3E1,2.96E2,1.5E1,8E0,2.93E2,3E0,1.1E1,4E0,5E0,3E0,9E0,2.84E2],"tree_param":{"num_deleted":"0","num_feature":"43","num_nodes":"13","size_leaf_vector":"0"}},{"base_weights":[9.7921664E-1,2.0642936E0,9.4645774E-1,1.1996182E-1,2.5161102E-1,9.9295896E-1,5.0067574E-1,9.560638E-2,1.7225944E-1,1.3859789E-1,2.0901797E-2],"categories":[],"categories_nodes":[],"categories_segments":[],"categories_sizes":[],"default_left":[0,0,1,0,0,0,0,0,0,0,0],"id":17,"left_children":[1,3,5,-1,-1,7,9,-1,-1,-1,-1],"loss_changes":[9.989655E0,4.9769974E-1,6.3020935E0,0E0,0E0,6.321411E0,8.231089E0,0E0,0E0,0E0,0E0],"parents":[2147483647,0,0,1,1,2,2,5,5,6,6],"right_children":[2,4,6,-1,-1,8,10,-1,-1,-1,-1],"split_conditions":[1.6816399E2,1E-2,9.7E0,1.1996182E-1,2.5161102E-1,2.7E1,8.23E-2,9.560638E-2,1.7225944E-1,1.3859789E-1,2.0901797E-2],"split_indices":[5,1,33,0,0,21,14,0,0,0,0],"split_type":[0,0,0,0,0,0,0,0,0,0,0],"sum_hessian":[3.35E2,8E0,3.27E2,4E0,4E0,2.95E2,3.2E1,2.83E2,1.2E1,7E0,2.5E1],"tree_param":{"num_deleted":"0","num_feature":"43","num_nodes":"11","size_leaf_vector":"0"}},{"base_weights":[9.0945905E-1,4.429224E-1,9.71126E-1,7.970594E-1,1.9433582E-1,9.015954E-1,1.2750431E0,1.4865689E-1,1.657459E-2,-3.1585008E-2,8.158735E-2,8.6689055E-2,1.5768293E-1,1.3374448E-1,3.960174E-2],"categories":[],"categories_nodes":[],"categories_segments":[],"categories_sizes":[],"default_left":[0,0,0,0,0,0,1,0,0,0,0,0,0,0,0],"id":18,"left_children":[1,3,5,7,9,11,13,-1,-1,-1,-1,-1,-1,-1,-1],"loss_changes":[9.466705E0,3.5425186E0,5.2532654E0,7.153651E0,8.502288E0,4.4915466E0,2.432396E0,0E0,0E0,0E0,0E0,0E0,0E0,0E0,0E0],"parents":[2147483647,0,0,1,1,2,2,3,3,4,4,5,5,6,6],"right_children":[2,4,6,8,10,12,14,-1,-1,-1,-1,-1,-1,-1,-1],"split_conditions":[6.21E2,1.149E-1,1.91357E3,1.4738123E-1,2.13E-1,2.6E1,2.57E1,1.4865689E-1,1.657459E-2,-3.1585008E-2,8.158735E-2,8.6689055E-2,1.5768293E-1,1.3374448E-1,3.960174E-2],"split_indices":[34,16,4,22,11,1,38,0,0,0,0,0,0,0,0],"split_type":[0,0,0,0,0,0,0,0,0,0,0,0,0,0,0],"sum_hessian":[3.43E2,4.1E1,3.02E2,1.6E1,2.5E1,2.49E2,5.3E1,7E0,9E0,1.4E1,1.1E1,2.39E2,1E1,4.9E1,4E0],"tree_param":{"num_deleted":"0","num_feature":"43","num_nodes":"15","size_leaf_vector":"0"}},{"base_weights":[7.9733205E-1,7.507992E-1,1.609919E0,3.5796425E-1,8.4409946E-1,6.791555E-2,1.844065E0,1.1815253E-2,7.081595E-2,9.270082E-2,6.388121E-2,8.5641935E-2,2.0547168E-1],"categories":[],"categories_nodes":[],"categories_segments":[],"categories_sizes":[],"default_left":[0,0,0,0,1,0,0,0,0,0,0,0,0],"id":19,"left_children":[1,3,5,7,9,-1,11,-1,-1,-1,-1,-1,-1],"loss_changes":[1.1269226E1,1.1206451E1,2.4524765E0,5.1231465E0,3.7138977E0,0E0,9.449425E-1,0E0,0E0,0E0,0E0,0E0,0E0],"parents":[2147483647,0,0,1,1,2,2,3,3,4,4,6,6],"right_children":[2,4,6,8,10,-1,12,-1,-1,-1,-1,-1,-1],"split_conditions":[3.362446E0,1.7131416E2,6.6666665E0,4.5E-2,2.46E1,6.791555E-2,7.2E-3,1.1815253E-2,7.081595E-2,9.270082E-2,6.388121E-2,8.5641935E-2,2.0547168E-1],"split_indices":[6,5,41,9,38,0,10,0,0,0,0,0,0],"split_type":[0,0,0,0,0,0,0,0,0,0,0,0,0],"sum_hessian":[3.29E2,3.13E2,1.6E1,6.1E1,2.52E2,4E0,1.2E1,3.7E1,2.4E1,1.77E2,7.5E1,3E0,9E0],"tree_param":{"num_deleted":"0","num_feature":"43","num_nodes":"13","size_leaf_vector":"0"}},{"base_weights":[7.124089E-1,7.9314643E-1,3.6436528E-1,1.5654501E0,7.435238E-1,8.624126E-2,1.322779E0,9.759562E-2,1.9155058E-1,8.337667E-2,5.587874E-2,2.4124315E-2,-8.157998E-2,1.8478632E-1,6.3234754E-2],"categories":[],"categories_nodes":[],"categories_segments":[],"categories_sizes":[],"default_left":[1,0,0,0,1,0,0,0,0,0,0,0,0,0,0],"id":20,"left_children":[1,3,5,7,9,11,13,-1,-1,-1,-1,-1,-1,-1,-1],"loss_changes":[9.43367E0,9.566711E0,1.77453E1,1.4322395E0,3.95195E0,7.607165E0,4.2695293E0,0E0,0E0,0E0,0E0,0E0,0E0,0E0,0E0],"parents":[2147483647,0,0,1,1,2,2,3,3,4,4,5,5,6,6],"right_children":[2,4,6,8,10,12,14,-1,-1,-1,-1,-1,-1,-1,-1],"split_conditions":[6.1E1,1.6958386E2,1.379E-1,1.31E-2,2.48E1,1.276E-1,2.683E-1,9.759562E-2,1.9155058E-1,8.337667E-2,5.587874E-2,2.4124315E-2,-8.157998E-2,1.8478632E-1,6.3234754E-2],"split_indices":[31,5,16,20,38,16,11,0,0,0,0,0,0,0,0],"split_type":[0,0,0,0,0,0,0,0,0,0,0,0,0,0,0],"sum_hessian":[3.45E2,2.79E2,6.6E1,1.5E1,2.64E2,5.2E1,1.4E1,7E0,8E0,1.75E2,8.9E1,4.5E1,7E0,7E0,7E0],"tree_param":{"num_deleted":"0","num_feature":"43","num_nodes":"15","size_leaf_vector":"0"}},{"base_weights":[6.391096E-1,1.314223E-1,7.141326E-1,-2.9603738E-2,1.1830255E-1,1.6772622E-1,7.447568E-1,9.301522E-2,-1.932875E-2,-4.1281752E-2,1.0560483E-1,1.3249044E-1,6.876817E-2],"categories":[],"categories_nodes":[],"categories_segments":[],"categories_sizes":[],"default_left":[0,0,0,0,0,0,0,0,0,0,0,0,0],"id":21,"left_children":[1,3,5,7,-1,9,11,-1,-1,-1,-1,-1,-1],"loss_changes":[1.2856155E1,7.6551185E0,4.828125E0,6.463645E0,0E0,9.203022E0,8.360245E0,0E0,0E0,0E0,0E0,0E0,0E0],"parents":[2147483647,0,0,1,1,2,2,3,3,5,5,6,6],"right_children":[2,4,6,8,-1,10,12,-1,-1,-1,-1,-1,-1],"split_conditions":[3.9E1,1.901E-1,2.61E1,1.233E-1,1.1830255E-1,1.1E1,1.05E1,9.301522E-2,-1.932875E-2,-4.1281752E-2,1.0560483E-1,1.3249044E-1,6.876817E-2],"split_indices":[25,16,30,12,0,21,33,0,0,0,0,0,0],"split_type":[0,0,0,0,0,0,0,0,0,0,0,0,0],"sum_hessian":[3.39E2,4.4E1,2.95E2,3.9E1,5E0,1.6E1,2.79E2,5E0,3.4E1,1E1,6E0,2.3E1,2.56E2],"tree_param":{"num_deleted":"0","num_feature":"43","num_nodes":"13","size_leaf_vector":"0"}},{"base_weights":[5.879737E-1,1.4021645E-1,6.56975E-1,-1.5013735E-1,4.961479E-1,1.3963236E-1,6.2693596E-1,1.2506108E-2,-8.756563E-2,9.7513594E-2,-5.3270645E-2,5.5989485E-2,9.0121076E-2],"categories":[],"categories_nodes":[],"categories_segments":[],"categories_sizes":[],"default_left":[0,0,0,0,0,0,0,0,0,0,0,0,0],"id":22,"left_children":[1,3,5,7,9,-1,11,-1,-1,-1,-1,-1,-1],"loss_changes":[9.79454E0,4.621716E0,5.276573E0,5.1010528E0,1.0375641E1,0E0,4.423317E0,0E0,0E0,0E0,0E0,0E0,0E0],"parents":[2147483647,0,0,1,1,2,2,3,3,4,4,6,6],"right_children":[2,4,6,8,10,-1,12,-1,-1,-1,-1,-1,-1],"split_conditions":[3.9E1,2.7E1,1.6816399E2,5.23E-2,1.8129772E-1,1.3963236E-1,1.91357E3,1.2506108E-2,-8.756563E-2,9.7513594E-2,-5.3270645E-2,5.5989485E-2,9.0121076E-2],"split_indices":[25,30,5,9,22,0,4,0,0,0,0,0,0],"split_type":[0,0,0,0,0,0,0,0,0,0,0,0,0],"sum_hessian":[3.19E2,4.3E1,2.76E2,2.4E1,1.9E1,9E0,2.67E2,1.8E1,6E0,1.3E1,6E0,2.17E2,5E1],"tree_param":{"num_deleted":"0","num_feature":"43","num_nodes":"13","size_leaf_vector":"0"}},{"base_weights":[5.325376E-1,5.390256E-2,6.028369E-1,5.070986E-1,-9.430506E-2,5.355143E-1,1.0387428E0,2.5144434E-2,7.635949E-2,-3.287546E-2,3.097099E-2,5.657627E-2,-4.6912532E-2,2.2060311E-1,7.509378E-2],"categories":[],"categories_nodes":[],"categories_segments":[],"categories_sizes":[],"default_left":[0,0,0,0,0,0,0,0,0,0,0,0,0,0,0],"id":23,"left_children":[1,3,5,7,9,11,13,-1,-1,-1,-1,-1,-1,-1,-1],"loss_changes":[1.1239487E1,3.0031748E0,8.012863E0,5.293162E-1,3.3223367E0,8.014542E0,1.1109562E1,0E0,0E0,0E0,0E0,0E0,0E0,0E0,0E0],"parents":[2147483647,0,0,1,1,2,2,3,3,4,4,5,5,6,6],"right_children":[2,4,6,8,10,12,14,-1,-1,-1,-1,-1,-1,-1,-1],"split_conditions":[6.2E2,3.0777564E0,1.865E-1,1.14E-1,1.317E-1,9E0,9.98E-2,2.5144434E-2,7.635949E-2,-3.287546E-2,3.097099E-2,5.657627E-2,-4.6912532E-2,2.2060311E-1,7.509378E-2],"split_indices":[34,6,11,16,17,1,14,0,0,0,0,0,0,0,0],"split_type":[0,0,0,0,0,0,0,0,0,0,0,0,0,0,0],"sum_hessian":[3.34E2,4.3E1,2.91E2,1E1,3.3E1,2.54E2,3.7E1,6E0,4E0,2.1E1,1.2E1,2.47E2,7E0,6E0,3.1E1],"tree_param":{"num_deleted":"0","num_feature":"43","num_nodes":"15","size_leaf_vector":"0"}},{"base_weights":[4.5767102E-1,5.239275E-1,2.4540474E-1,4.9081498E-1,2.512147E-1,-5.696641E-1,3.1631485E-1,-2.2065166E-2,5.087728E-2,-1.3105285E-2,-8.658593E-2,-9.741337E-3,4.7320243E-2],"categories":[],"categories_nodes":[],"categories_segments":[],"categories_sizes":[],"default_left":[0,1,0,0,0,0,0,0,0,0,0,0,0],"id":24,"left_children":[1,3,5,7,-1,9,11,-1,-1,-1,-1,-1,-1],"loss_changes":[4.667259E0,1.5818253E1,4.977311E0,3.3830185E0,0E0,7.959287E-1,5.044075E0,0E0,0E0,0E0,0E0,0E0,0E0],"parents":[2147483647,0,0,1,1,2,2,3,3,5,5,6,6],"right_children":[2,4,6,8,-1,10,12,-1,-1,-1,-1,-1,-1],"split_conditions":[5E0,2.51E1,5.043E1,8E0,2.512147E-1,1.843E-1,9.69E-2,-2.2065166E-2,5.087728E-2,-1.3105285E-2,-8.658593E-2,-9.741337E-3,4.7320243E-2],"split_indices":[1,23,28,33,0,11,15,0,0,0,0,0,0],"split_type":[0,0,0,0,0,0,0,0,0,0,0,0,0],"sum_hessian":[3.4E2,2.58E2,8.2E1,2.55E2,3E0,6E0,7.6E1,6E0,2.49E2,3E0,3E0,2.1E1,5.5E1],"tree_param":{"num_deleted":"0","num_feature":"43","num_nodes":"13","size_leaf_vector":"0"}},{"base_weights":[4.54134E-1,1.199941E0,4.3044475E-1,5.28598E-2,1.5594034E-1,2.2177994E-1,4.9637386E-1,3.9656337E-2,-2.4381949E-2,8.771865E-2,4.207415E-2],"categories":[],"categories_nodes":[],"categories_segments":[],"categories_sizes":[],"default_left":[0,0,0,0,0,0,0,0,0,0,0],"id":25,"left_children":[1,3,5,-1,-1,7,9,-1,-1,-1,-1],"loss_changes":[5.54348E0,1.5889282E0,4.484783E0,0E0,0E0,6.7697735E0,6.917778E0,0E0,0E0,0E0,0E0],"parents":[2147483647,0,0,1,1,2,2,5,5,6,6],"right_children":[2,4,6,-1,-1,8,10,-1,-1,-1,-1],"split_conditions":[1.6816399E2,1E-2,1.79E-2,5.28598E-2,1.5594034E-1,5E0,1.74E-2,3.9656337E-2,-2.4381949E-2,8.771865E-2,4.207415E-2],"split_indices":[5,1,20,0,0,1,10,0,0,0,0],"split_type":[0,0,0,0,0,0,0,0,0,0,0],"sum_hessian":[3.42E2,9E0,3.33E2,4E0,5E0,8.1E1,2.52E2,5.9E1,2.2E1,4E1,2.12E2],"tree_param":{"num_deleted":"0","num_feature":"43","num_nodes":"11","size_leaf_vector":"0"}},{"base_weights":[3.4358868E-1,-4.821125E-2,3.8075614E-1,-5.105356E-1,5.166263E-1,7.333633E-1,3.3415538E-1,3.3038285E-2,-8.884502E-2,1.7209989E-1,-1.3722265E-2,4.0822364E-2,1.9756041E-1,2.8728161E-2,7.042569E-2],"categories":[],"categories_nodes":[],"categories_segments":[],"categories_sizes":[],"default_left":[0,0,0,0,0,0,0,0,0,0,0,0,0,0,0],"id":26,"left_children":[1,3,5,7,9,11,13,-1,-1,-1,-1,-1,-1,-1,-1],"loss_changes":[4.9112587E0,8.0979E0,4.799492E0,5.6960497E0,1.1260847E1,1.3330072E1,4.533697E0,0E0,0E0,0E0,0E0,0E0,0E0,0E0,0E0],"parents":[2147483647,0,0,1,1,2,2,3,3,4,4,5,5,6,6],"right_children":[2,4,6,8,10,12,14,-1,-1,-1,-1,-1,-1,-1,-1],"split_conditions":[4.4333334E0,7E0,1.37E-2,9.39E-2,6.2E1,8.64E-2,1.81E-1,3.3038285E-2,-8.884502E-2,1.7209989E-1,-1.3722265E-2,4.0822364E-2,1.9756041E-1,2.8728161E-2,7.042569E-2],"split_indices":[26,21,10,15,31,15,12,0,0,0,0,0,0,0,0],"split_type":[0,0,0,0,0,0,0,0,0,0,0,0,0,0,0],"sum_hessian":[3.35E2,2.9E1,3.06E2,1.6E1,1.3E1,3.4E1,2.72E2,5E0,1.1E1,4E0,9E0,2.8E1,6E0,2.43E2,2.9E1],"tree_param":{"num_deleted":"0","num_feature":"43","num_nodes":"15","size_leaf_vector":"0"}},{"base_weights":[3.3254513E-1,9.9492145E-1,3.006776E-1,1.215081E0,2.6755435E-2,3.8514102E-1,4.3791115E-2,4.721609E-2,1.5275209E-1,3.5759013E-2,1.3219523E-1,-5.5510115E-2,1.9938922E-2],"categories":[],"categories_nodes":[],"categories_segments":[],"categories_sizes":[],"default_left":[0,0,0,0,0,1,0,0,0,0,0,0,0],"id":27,"left_children":[1,3,5,7,-1,9,11,-1,-1,-1,-1,-1,-1],"loss_changes":[7.257622E0,2.2370892E0,7.4253807E0,2.0641785E0,0E0,6.1862564E0,8.124721E0,0E0,0E0,0E0,0E0,0E0,0E0],"parents":[2147483647,0,0,1,1,2,2,3,3,5,5,6,6],"right_children":[2,4,6,8,-1,10,12,-1,-1,-1,-1,-1,-1],"split_conditions":[1.6854085E2,1.132E-1,5E0,2.67E-2,2.6755435E-2,1.1E1,1.49E-2,4.721609E-2,1.5275209E-1,3.5759013E-2,1.3219523E-1,-5.5510115E-2,1.9938922E-2],"split_indices":[5,13,1,18,0,32,10,0,0,0,0,0,0],"split_type":[0,0,0,0,0,0,0,0,0,0,0,0,0],"sum_hessian":[3.57E2,1.5E1,3.42E2,1.1E1,4E0,2.57E2,8.5E1,4E0,7E0,2.51E2,6E0,1.7E1,6.8E1],"tree_param":{"num_deleted":"0","num_feature":"43","num_nodes":"13","size_leaf_vector":"0"}},{"base_weights":[3.5615286E-1,3.7037614E-1,-6.964834E-2,8.6580515E-1,3.4205875E-1,1.0307294E-1,2.3085618E-2,2.6948942E-2,5.0719913E-2],"categories":[],"categories_nodes":[],"categories_segments":[],"categories_sizes":[],"default_left":[0,0,0,0,0,0,0,0,0],"id":28,"left_children":[1,3,-1,5,7,-1,-1,-1,-1],"loss_changes":[5.4831657E0,4.543934E0,0E0,1.6469822E0,3.7941093E0,0E0,0E0,0E0,0E0],"parents":[2147483647,0,0,1,1,3,3,4,4],"right_children":[2,4,-1,6,8,-1,-1,-1,-1],"split_conditions":[1.2E-2,1.6844661E2,-6.964834E-2,2.41E-2,1.706E-1,1.0307294E-1,2.3085618E-2,2.6948942E-2,5.0719913E-2],"split_indices":[8,5,0,9,11,0,0,0,0],"split_type":[0,0,0,0,0,0,0,0,0],"sum_hessian":[3.48E2,3.44E2,4E0,1.7E1,3.27E2,1.3E1,4E0,2.29E2,9.8E1],"tree_param":{"num_deleted":"0","num_feature":"43","num_nodes":"9","size_leaf_vector":"0"}},{"base_weights":[3.0027616E-1,3.1592992E-1,-1.1131897E-1,6.999674E-1,2.6986712E-1,3.88846E-2,1.2205018E-1,-1.2625398E-2,3.1966336E-2],"categories":[],"categories_nodes":[],"categories_segments":[],"categories_sizes":[],"default_left":[0,0,0,1,0,0,0,0,0],"id":29,"left_children":[1,3,-1,5,7,-1,-1,-1,-1],"loss_changes":[7.985178E0,5.8610306E0,0E0,5.355591E0,6.096039E0,0E0,0E0,0E0,0E0],"parents":[2147483647,0,0,1,1,3,3,4,4],"right_children":[2,4,-1,6,8,-1,-1,-1,-1],"split_conditions":[2.764E-1,1.24E-2,-1.1131897E-1,2.54E1,3.14E-2,3.88846E-2,1.2205018E-1,-1.2625398E-2,3.1966336E-2],"split_indices":[12,10,0,30,9,0,0,0,0],"split_type":[0,0,0,0,0,0,0,0,0],"sum_hessian":[3.44E2,3.41E2,3E0,3.5E1,3.06E2,2.3E1,1.2E1,3.4E1,2.72E2],"tree_param":{"num_deleted":"0","num_feature":"43","num_nodes":"9","size_leaf_vector":"0"}},{"base_weights":[2.5366148E-1,2.7033964E-1,-1.2190574E-1,7.0913935E-1,2.1568425E-1,4.8220556E-2,1.27364E-1,3.1488903E-2,2.3785878E-3],"categories":[],"categories_nodes":[],"categories_segments":[],"categories_sizes":[],"default_left":[1,0,0,0,0,0,0,0,0],"id":30,"left_children":[1,3,-1,5,7,-1,-1,-1,-1],"loss_changes":[8.7052765E0,7.953226E0,0E0,4.125702E0,5.7417526E0,0E0,0E0,0E0,0E0],"parents":[2147483647,0,0,1,1,3,3,4,4],"right_children":[2,4,-1,6,8,-1,-1,-1,-1],"split_conditions":[3.1066668E1,1.24E-2,-1.2190574E-1,8.58E-2,1.8852746E-1,4.8220556E-2,1.27364E-1,3.1488903E-2,2.3785878E-3],"split_indices":[23,10,0,15,22,0,0,0,0],"split_type":[0,0,0,0,0,0,0,0,0],"sum_hessian":[3.4E2,3.37E2,3E0,3.6E1,3.01E2,2.7E1,9E0,1.98E2,1.03E2],"tree_param":{"num_deleted":"0","num_feature":"43","num_nodes":"9","size_leaf_vector":"0"}},{"base_weights":[2.4474017E-1,2.1045215E-1,7.811113E-1,6.290838E-1,1.68155E-1,2.4395366E-1,3.4494588E-1,1.2004528E-1,1.5775919E-3,2.3732442E-2,-2.4921825E-2,-1.1804518E-2,1.4797334E-1],"categories":[],"categories_nodes":[],"categories_segments":[],"categories_sizes":[],"default_left":[1,0,0,0,1,0,0,0,0,0,0,0,0],"id":31,"left_children":[1,3,5,7,9,-1,11,-1,-1,-1,-1,-1,-1],"loss_changes":[6.070196E0,5.5604334E0,1.3625448E1,1.0143389E1,8.489029E0,0E0,9.106416E0,0E0,0E0,0E0,0E0,0E0,0E0],"parents":[2147483647,0,0,1,1,2,2,3,3,4,4,6,6],"right_children":[2,4,6,8,10,-1,12,-1,-1,-1,-1,-1,-1],"split_conditions":[7.5666664E1,1.6958386E2,5E0,1.316E-1,2.64E1,2.4395366E-1,1.335E-1,1.2004528E-1,1.5775919E-3,2.3732442E-2,-2.4921825E-2,-1.1804518E-2,1.4797334E-1],"split_indices":[24,5,21,12,30,0,16,0,0,0,0,0,0],"split_type":[0,0,0,0,0,0,0,0,0,0,0,0,0],"sum_hessian":[3.38E2,3.19E2,1.9E1,2.8E1,2.91E2,3E0,1.6E1,1.4E1,1.4E1,2.5E2,4.1E1,1.2E1,4E0],"tree_param":{"num_deleted":"0","num_feature":"43","num_nodes":"13","size_leaf_vector":"0"}},{"base_weights":[2.2079718E-1,7.7031076E-1,1.9483551E-1,3.7613377E-1,1.7602642E-1,-3.382367E-1,2.3452574E-1,-7.8395605E-3,5.363542E-2,-5.111223E-2,3.863759E-2,-6.674118E-3,2.7397215E-2],"categories":[],"categories_nodes":[],"categories_segments":[],"categories_sizes":[],"default_left":[0,0,0,0,0,0,0,0,0,0,0,0,0],"id":32,"left_children":[1,3,5,7,-1,9,11,-1,-1,-1,-1,-1,-1],"loss_changes":[4.7004547E0,5.1911583E0,6.9767504E0,9.159466E-1,0E0,3.0788121E0,3.630991E0,0E0,0E0,0E0,0E0,0E0,0E0],"parents":[2147483647,0,0,1,1,2,2,3,3,5,5,6,6],"right_children":[2,4,6,8,-1,10,12,-1,-1,-1,-1,-1,-1],"split_conditions":[9.7E-3,8.9E-3,5.9E1,6.532265E-1,1.7602642E-1,1.311E-1,2.96E-2,-7.8395605E-3,5.363542E-2,-5.111223E-2,3.863759E-2,-6.674118E-3,2.7397215E-2],"split_indices":[10,10,31,0,0,17,9,0,0,0,0,0,0],"split_type":[0,0,0,0,0,0,0,0,0,0,0,0,0],"sum_hessian":[3.39E2,1.4E1,3.25E2,1.1E1,3E0,2.2E1,3.03E2,3E0,8E0,1.8E1,4E0,3.5E1,2.68E2],"tree_param":{"num_deleted":"0","num_feature":"43","num_nodes":"13","size_leaf_vector":"0"}},{"base_weights":[1.7615306E-1,2.519811E-1,-5.1619273E-2,1.9577801E-1,1.5981385E0,-5.5700886E-1,8.291943E-2,2.183025E-2,-4.959816E-2,2.6583943E-1,4.482357E-2,2.0870341E-2,-7.240649E-2,1.5382478E-2,-8.412528E-2],"categories":[],"categories_nodes":[],"categories_segments":[],"categories_sizes":[],"default_left":[0,0,0,1,0,0,0,0,0,0,0,0,0,0,0],"id":33,"left_children":[1,3,5,7,9,11,13,-1,-1,-1,-1,-1,-1,-1,-1],"loss_changes":[5.8335133E0,1.8828646E1,5.8257165E0,3.9101648E0,1.100032E1,2.4536176E0,4.58536E0,0E0,0E0,0E0,0E0,0E0,0E0,0E0,0E0],"parents":[2147483647,0,0,1,1,2,2,3,3,4,4,5,5,6,6],"right_children":[2,4,6,8,10,12,14,-1,-1,-1,-1,-1,-1,-1,-1],"split_conditions":[5E0,4E0,9E-4,2.54E1,1.5359215E2,2.06E-2,1.5544202E2,2.183025E-2,-4.959816E-2,2.6583943E-1,4.482357E-2,2.0870341E-2,-7.240649E-2,1.5382478E-2,-8.412528E-2],"split_indices":[1,1,8,30,2,9,2,0,0,0,0,0,0,0,0],"split_type":[0,0,0,0,0,0,0,0,0,0,0,0,0,0,0],"sum_hessian":[3.36E2,2.52E2,8.4E1,2.43E2,9E0,1.7E1,6.7E1,2.36E2,7E0,4E0,5E0,3E0,1.4E1,6.3E1,4E0],"tree_param":{"num_deleted":"0","num_feature":"43","num_nodes":"15","size_leaf_vector":"0"}},{"base_weights":[1.21061444E-1,1.3918623E-1,-1.0631373E-1,1.0363749E-1,4.256935E-1,5.4506775E-2,7.371414E-3,2.6825229E-2,7.924713E-2],"categories":[],"categories_nodes":[],"categories_segments":[],"categories_sizes":[],"default_left":[0,0,0,0,0,0,0,0,0],"id":34,"left_children":[1,3,-1,5,7,-1,-1,-1,-1],"loss_changes":[7.1021004E0,3.215074E0,0E0,3.7376149E0,1.808526E0,0E0,0E0,0E0,0E0],"parents":[2147483647,0,0,1,1,3,3,4,4],"right_children":[2,4,-1,6,8,-1,-1,-1,-1],"split_conditions":[2.77E-1,3.3358572E0,-1.0631373E-1,3.9E-3,1.91357E3,5.4506775E-2,7.371414E-3,2.6825229E-2,7.924713E-2],"split_indices":[13,6,0,0,4,0,0,0,0],"split_type":[0,0,0,0,0,0,0,0,0],"sum_hessian":[3.23E2,3.19E2,4E0,2.85E2,3.4E1,1.7E1,2.68E2,2.5E1,9E0],"tree_param":{"num_deleted":"0","num_feature":"43","num_nodes":"9","size_leaf_vector":"0"}},{"base_weights":[1.3496864E-1,2.0678136E-1,-5.5166535E-2,1.6226803E-1,1.5163333E0,-6.644218E-1,6.892524E-2,6.703978E-2,1.3493255E-2,4.1518155E-2,2.5136897E-1,-2.5900423E-3,-1.1581717E-1,9.92229E-2,-3.4621358E-3],"categories":[],"categories_nodes":[],"categories_segments":[],"categories_sizes":[],"default_left":[0,1,0,0,0,0,0,0,0,0,0,0,0,0,0],"id":35,"left_children":[1,3,5,7,9,11,13,-1,-1,-1,-1,-1,-1,-1,-1],"loss_changes":[4.653809E0,1.4152196E1,7.15253E0,3.243134E0,7.7422886E0,5.01432E0,7.5871444E0,0E0,0E0,0E0,0E0,0E0,0E0,0E0,0E0],"parents":[2147483647,0,0,1,1,2,2,3,3,4,4,5,5,6,6],"right_children":[2,4,6,8,10,12,14,-1,-1,-1,-1,-1,-1,-1,-1],"split_conditions":[5E0,5.133333E0,7E0,2.1233334E1,1.503E-1,3.1E1,3.9E-3,6.703978E-2,1.3493255E-2,4.1518155E-2,2.5136897E-1,-2.5900423E-3,-1.1581717E-1,9.92229E-2,-3.4621358E-3],"split_indices":[1,26,1,38,12,25,0,0,0,0,0,0,0,0,0],"split_type":[0,0,0,0,0,0,0,0,0,0,0,0,0,0,0],"sum_hessian":[3.39E2,2.46E2,9.3E1,2.39E2,7E0,1.5E1,7.8E1,1.1E1,2.28E2,4E0,3E0,7E0,8E0,7E0,7.1E1],"tree_param":{"num_deleted":"0","num_feature":"43","num_nodes":"15","size_leaf_vector":"0"}},{"base_weights":[1.3049217E-1,7.483259E-2,3.82496E-1,3.4452096E-2,4.1479012E-1,2.9527634E-1,1.2828572E-1,7.2313184E-3,-6.496977E-2,1.7793773E-2,1.2930681E-1,1.914237E-2,7.538561E-2],"categories":[],"categories_nodes":[],"categories_segments":[],"categories_sizes":[],"default_left":[0,0,0,0,1,1,0,0,0,0,0,0,0],"id":36,"left_children":[1,3,5,7,9,11,-1,-1,-1,-1,-1,-1,-1],"loss_changes":[4.6421766E0,3.7470865E0,4.3329554E0,6.419034E0,5.8025594E0,2.522678E0,0E0,0E0,0E0,0E0,0E0,0E0,0E0],"parents":[2147483647,0,0,1,1,2,2,3,3,4,4,5,5],"right_children":[2,4,6,8,10,12,-1,-1,-1,-1,-1,-1,-1],"split_conditions":[1.7603899E2,1.824E-1,6E0,2.003E-1,2.5033333E1,9.333333E0,1.2828572E-1,7.2313184E-3,-6.496977E-2,1.7793773E-2,1.2930681E-1,1.914237E-2,7.538561E-2],"split_indices":[5,12,1,11,23,41,0,0,0,0,0,0,0],"split_type":[0,0,0,0,0,0,0,0,0,0,0,0,0],"sum_hessian":[3.32E2,2.73E2,5.9E1,2.45E2,2.8E1,5.5E1,4E0,2.33E2,1.2E1,2.3E1,5E0,4.6E1,9E0],"tree_param":{"num_deleted":"0","num_feature":"43","num_nodes":"13","size_leaf_vector":"0"}},{"base_weights":[1.3139154E-1,1.8142055E-1,-1.2735337E-1,1.2965745E-1,5.6278545E-1,-4.523186E-1,2.6500338E-1,3.136331E-2,5.0820545E-3,1.13193534E-1,2.4136877E-2,3.44037E-2,-6.989239E-2,-6.0339244E-3,2.0694728E-1],"categories":[],"categories_nodes":[],"categories_segments":[],"categories_sizes":[],"default_left":[1,0,0,0,0,0,0,0,0,0,0,0,0,0,0],"id":37,"left_children":[1,3,5,7,9,11,13,-1,-1,-1,-1,-1,-1,-1,-1],"loss_changes":[4.4502096E0,5.5925903E0,7.2599955E0,3.668095E0,5.9465513E0,6.3284054E0,1.538871E1,0E0,0E0,0E0,0E0,0E0,0E0,0E0,0E0],"parents":[2147483647,0,0,1,1,2,2,3,3,4,4,5,5,6,6],"right_children":[2,4,6,8,10,12,14,-1,-1,-1,-1,-1,-1,-1,-1],"split_conditions":[3.3E1,1.843E-1,2.67E-2,2.34E1,1.336E-1,1.312E-1,1.7309094E2,3.136331E-2,5.0820545E-3,1.13193534E-1,2.4136877E-2,3.44037E-2,-6.989239E-2,-6.0339244E-3,2.0694728E-1],"split_indices":[32,11,20,38,13,12,5,0,0,0,0,0,0,0,0],"split_type":[0,0,0,0,0,0,0,0,0,0,0,0,0,0,0],"sum_hessian":[3.41E2,2.86E2,5.5E1,2.53E2,3.3E1,3E1,2.5E1,7.5E1,1.78E2,1.1E1,2.2E1,7E0,2.3E1,2.2E1,3E0],"tree_param":{"num_deleted":"0","num_feature":"43","num_nodes":"15","size_leaf_vector":"0"}},{"base_weights":[1.755535E-1,5.8632493E-1,1.19205214E-1,1.8271801E-1,1.2737291E0,1.9010493E-1,-2.1747659E-1,-3.615616E-2,4.309179E-2,2.6319832E-1,7.1483366E-2,1.360482E-2,1.250893E-1,-5.8498364E-2,8.377829E-3],"categories":[],"categories_nodes":[],"categories_segments":[],"categories_sizes":[],"default_left":[0,0,0,0,0,1,0,0,0,0,0,0,0,0,0],"id":38,"left_children":[1,3,5,7,9,11,13,-1,-1,-1,-1,-1,-1,-1,-1],"loss_changes":[7.8461294E0,1.1142352E1,7.2502775E0,3.8032372E0,9.5054E0,1.4165504E1,5.9168134E0,0E0,0E0,0E0,0E0,0E0,0E0,0E0,0E0],"parents":[2147483647,0,0,1,1,2,2,3,3,4,4,5,5,6,6],"right_children":[2,4,6,8,10,12,14,-1,-1,-1,-1,-1,-1,-1,-1],"split_conditions":[4.6666665E0,2.77E-2,7E0,2.62E1,3.04E-2,2.54E1,2.5033333E1,-3.615616E-2,4.309179E-2,2.6319832E-1,7.1483366E-2,1.360482E-2,1.250893E-1,-5.8498364E-2,8.377829E-3],"split_indices":[26,20,21,30,20,30,23,0,0,0,0,0,0,0,0],"split_type":[0,0,0,0,0,0,0,0,0,0,0,0,0,0,0],"sum_hessian":[3.41E2,4E1,3.01E2,2.6E1,1.4E1,2.49E2,5.2E1,8E0,1.8E1,3E0,1.1E1,2.38E2,1.1E1,2.3E1,2.9E1],"tree_param":{"num_deleted":"0","num_feature":"43","num_nodes":"15","size_leaf_vector":"0"}},{"base_weights":[9.79672E-2,1.12594575E-1,-1.089401E-1,7.6378286E-2,8.3907175E-1,1.4424741E-2,-2.6313422E-2,2.0556167E-1,3.6363415E-2],"categories":[],"categories_nodes":[],"categories_segments":[],"categories_sizes":[],"default_left":[0,0,0,1,0,0,0,0,0],"id":39,"left_children":[1,3,-1,5,7,-1,-1,-1,-1],"loss_changes":[5.6978154E0,8.302591E0,0E0,7.0428514E0,7.9283752E0,0E0,0E0,0E0,0E0],"parents":[2147483647,0,0,1,1,3,3,4,4],"right_children":[2,4,-1,6,8,-1,-1,-1,-1],"split_conditions":[1.961E-1,2.1E1,-1.089401E-1,2.6E1,4.1E1,1.4424741E-2,-2.6313422E-2,2.0556167E-1,3.6363415E-2],"split_indices":[10,21,0,30,21,0,0,0,0],"split_type":[0,0,0,0,0,0,0,0,0],"sum_hessian":[3.2E2,3.17E2,3E0,3.03E2,1.4E1,2.53E2,5E1,3E0,1.1E1],"tree_param":{"num_deleted":"0","num_feature":"43","num_nodes":"9","size_leaf_vector":"0"}},{"base_weights":[1.0437871E-1,1.1910847E-1,-1.14060335E-1,5.178455E-1,9.4523445E-2,2.154412E-2,1.1371481E-1,-2.5047097E-2,1.3198035E-2],"categories":[],"categories_nodes":[],"categories_segments":[],"categories_sizes":[],"default_left":[1,0,0,1,0,0,0,0,0],"id":40,"left_children":[1,3,-1,5,7,-1,-1,-1,-1],"loss_changes":[6.2608423E0,3.1958303E0,0E0,3.3133264E0,4.077776E0,0E0,0E0,0E0,0E0],"parents":[2147483647,0,0,1,1,3,3,4,4],"right_children":[2,4,-1,6,8,-1,-1,-1,-1],"split_conditions":[3.1066668E1,9.7E-3,-1.14060335E-1,2.7E1,2.69E-2,2.154412E-2,1.1371481E-1,-2.5047097E-2,1.3198035E-2],"split_indices":[23,10,0,30,9,0,0,0,0],"split_type":[0,0,0,0,0,0,0,0,0],"sum_hessian":[3.33E2,3.3E2,3E0,1.8E1,3.12E2,1.3E1,5E0,3E1,2.82E2],"tree_param":{"num_deleted":"0","num_feature":"43","num_nodes":"9","size_leaf_vector":"0"}},{"base_weights":[7.884929E-2,3.0355703E-2,3.1731135E-1,5.1953718E-2,-1.4566973E-1,8.765229E-2,2.5743887E-1,1.7618923E-2,-2.8701304E-3,4.9594548E-2,1.8135305E-2],"categories":[],"categories_nodes":[],"categories_segments":[],"categories_sizes":[],"default_left":[0,0,0,0,0,0,0,0,0,0,0],"id":41,"left_children":[1,3,5,7,-1,-1,9,-1,-1,-1,-1],"loss_changes":[3.8295763E0,8.9721985E0,1.6493058E0,2.7505965E0,0E0,0E0,8.537011E-1,0E0,0E0,0E0,0E0],"parents":[2147483647,0,0,1,1,2,2,3,3,6,6],"right_children":[2,4,6,8,-1,-1,10,-1,-1,-1,-1],"split_conditions":[1.985E-1,4.3E1,4.1E1,1.133E-1,-1.4566973E-1,8.765229E-2,2.3633333E1,1.7618923E-2,-2.8701304E-3,4.9594548E-2,1.8135305E-2],"split_indices":[17,1,32,13,0,0,38,0,0,0,0],"split_type":[0,0,0,0,0,0,0,0,0,0,0],"sum_hessian":[3.31E2,2.76E2,5.5E1,2.73E2,3E0,4E0,5.1E1,1.07E2,1.66E2,1.1E1,4E1],"tree_param":{"num_deleted":"0","num_feature":"43","num_nodes":"11","size_leaf_vector":"0"}},{"base_weights":[8.074119E-2,-4.5558122E-1,9.9213585E-2,1.0021029E-2,-7.874921E-1,8.675352E-2,8.543871E-2,-1.3030559E-1,-7.50553E-3,1.7852098E-2,-1.5520926E-3],"categories":[],"categories_nodes":[],"categories_segments":[],"categories_sizes":[],"default_left":[0,0,0,0,0,0,0,0,0,0,0],"id":42,"left_children":[1,3,5,-1,7,9,-1,-1,-1,-1,-1],"loss_changes":[3.2650268E0,2.1081207E0,2.8898754E0,0E0,2.4733453E0,2.9216506E0,0E0,0E0,0E0,0E0,0E0],"parents":[2147483647,0,0,1,1,2,2,4,4,5,5],"right_children":[2,4,6,-1,8,10,-1,-1,-1,-1,-1],"split_conditions":[6.9E1,1.594E-1,1.3E-2,1.0021029E-2,3.0057268E1,1.02366E1,8.543871E-2,-1.3030559E-1,-7.50553E-3,1.7852098E-2,-1.5520926E-3],"split_indices":[24,11,8,0,0,0,0,0,0,0,0],"split_type":[0,0,0,0,0,0,0,0,0,0,0],"sum_hessian":[3.24E2,1E1,3.14E2,4E0,6E0,3.1E2,4E0,3E0,3E0,1.63E2,1.47E2],"tree_param":{"num_deleted":"0","num_feature":"43","num_nodes":"11","size_leaf_vector":"0"}},{"base_weights":[6.845549E-2,8.0975644E-2,-7.7407025E-2,-8.8380635E-2,1.2509963E-1,9.609604E-3,-4.3827843E-2,7.021115E-2,7.984117E-3],"categories":[],"categories_nodes":[],"categories_segments":[],"categories_sizes":[],"default_left":[1,0,0,0,0,0,0,0,0],"id":43,"left_children":[1,3,-1,5,7,-1,-1,-1,-1],"loss_changes":[3.596448E0,2.4845119E0,0E0,4.4959273E0,6.8121004E0,0E0,0E0,0E0,0E0],"parents":[2147483647,0,0,1,1,3,3,4,4],"right_children":[2,4,-1,6,8,-1,-1,-1,-1],"split_conditions":[3.0833334E1,2.96E-2,-7.7407025E-2,1.316E-1,1.74E-2,9.609604E-3,-4.3827843E-2,7.021115E-2,7.984117E-3],"split_indices":[23,9,0,12,10,0,0,0,0],"split_type":[0,0,0,0,0,0,0,0,0],"sum_hessian":[3.34E2,3.3E2,4E0,6.8E1,2.62E2,4.5E1,2.3E1,1.8E1,2.44E2],"tree_param":{"num_deleted":"0","num_feature":"43","num_nodes":"9","size_leaf_vector":"0"}},{"base_weights":[7.753144E-2,-4.497572E-1,1.1216891E-1,-6.5489665E-2,-7.232709E-1,7.15259E-1,7.1547456E-2,-4.258949E-2,4.9149062E-2,-1.22772716E-1,-2.5962053E-2,2.4871983E-2,1.267343E-1,4.48983E-2,3.4583893E-3],"categories":[],"categories_nodes":[],"categories_segments":[],"categories_sizes":[],"default_left":[0,0,0,0,0,0,0,0,0,0,0,0,0,0,0],"id":44,"left_children":[1,3,5,7,9,11,13,-1,-1,-1,-1,-1,-1,-1,-1],"loss_changes":[5.6209507E0,1.9495792E0,6.9798627E0,2.015971E0,2.2540612E0,4.321026E0,3.7513404E0,0E0,0E0,0E0,0E0,0E0,0E0,0E0,0E0],"parents":[2147483647,0,0,1,1,2,2,3,3,4,4,5,5,6,6],"right_children":[2,4,6,8,10,12,14,-1,-1,-1,-1,-1,-1,-1,-1],"split_conditions":[3.0333334E1,2.42E-2,1.6958386E2,7E0,1.099E-1,1.565E-1,3.2E1,-4.258949E-2,4.9149062E-2,-1.22772716E-1,-2.5962053E-2,2.4871983E-2,1.267343E-1,4.48983E-2,3.4583893E-3],"split_indices":[25,20,5,1,15,11,32,0,0,0,0,0,0,0,0],"split_type":[0,0,0,0,0,0,0,0,0,0,0,0,0,0,0],"sum_hessian":[3.04E2,1.8E1,2.86E2,8E0,1E1,1.7E1,2.69E2,5E0,3E0,4E0,6E0,1E1,7E0,2.3E1,2.46E2],"tree_param":{"num_deleted":"0","num_feature":"43","num_nodes":"15","size_leaf_vector":"0"}},{"base_weights":[4.211387E-2,6.1608605E-2,-8.7180007E-1,-1.2470034E-1,1.2473169E-1,-2.9746104E-2,-1.228189E-1,-3.1829688E-3,-9.9138394E-2,-5.181804E-2,1.5442102E-2],"categories":[],"categories_nodes":[],"categories_segments":[],"categories_sizes":[],"default_left":[0,0,0,1,0,0,0,0,0,0,0],"id":45,"left_children":[1,3,5,7,9,-1,-1,-1,-1,-1,-1],"loss_changes":[5.968791E0,3.8494427E0,1.0674787E0,6.64907E0,4.7373977E0,0E0,0E0,0E0,0E0,0E0,0E0],"parents":[2147483647,0,0,1,1,2,2,3,3,4,4],"right_children":[2,4,6,8,10,-1,-1,-1,-1,-1,-1],"split_conditions":[9.1E1,7.73E-2,4.47E2,1.1E1,5.9E1,-2.9746104E-2,-1.228189E-1,-3.1829688E-3,-9.9138394E-2,-5.181804E-2,1.5442102E-2],"split_indices":[1,18,34,32,31,0,0,0,0,0,0],"split_type":[0,0,0,0,0,0,0,0,0,0,0],"sum_hessian":[3.31E2,3.25E2,6E0,8.2E1,2.43E2,3E0,3E0,7.5E1,7E0,1E1,2.33E2],"tree_param":{"num_deleted":"0","num_feature":"43","num_nodes":"11","size_leaf_vector":"0"}},{"base_weights":[1.4955592E-2,8.59244E-2,2.3846796E-3,1.1621878E-1,-7.7139564E-2,-4.78123E-2,1.7103037E-2,-5.3321086E-3,-9.906324E-2],"categories":[],"categories_nodes":[],"categories_segments":[],"categories_sizes":[],"default_left":[0,0,0,0,0,0,0,0,0],"id":46,"left_children":[1,-1,3,5,7,-1,-1,-1,-1],"loss_changes":[3.617146E0,0E0,3.0596814E0,4.609951E0,4.277022E0,0E0,0E0,0E0,0E0],"parents":[2147483647,0,0,2,2,3,3,4,4],"right_children":[2,-1,4,6,8,-1,-1,-1,-1],"split_conditions":[4.8E1,8.59244E-2,1.0351759E-1,6.02E2,4.38E-2,-4.78123E-2,1.7103037E-2,-5.3321086E-3,-9.906324E-2],"split_indices":[31,0,22,34,20,0,0,0,0],"split_type":[0,0,0,0,0,0,0,0,0],"sum_hessian":[3.4E2,4E0,3.36E2,1.38E2,1.98E2,1.1E1,1.27E2,1.94E2,4E0],"tree_param":{"num_deleted":"0","num_feature":"43","num_nodes":"9","size_leaf_vector":"0"}},{"base_weights":[6.730496E-2,-1.6647843E-1,9.871689E-2,-3.5245752E-1,6.7416176E-2,1.4289369E-1,-1.4494593E-1,-5.226205E-2,-2.9690636E-3,9.250285E-2,-3.995609E-2,-5.8956094E-2,1.5680429E-2,-4.6496462E-2,-4.588779E-3],"categories":[],"categories_nodes":[],"categories_segments":[],"categories_sizes":[],"default_left":[0,0,1,0,0,0,0,0,0,0,0,0,0,0,0],"id":47,"left_children":[1,3,5,7,9,11,13,-1,-1,-1,-1,-1,-1,-1,-1],"loss_changes":[2.535284E0,1.807241E0,3.2822773E0,1.2477112E0,7.978826E0,2.710987E0,1.4685853E0,0E0,0E0,0E0,0E0,0E0,0E0,0E0,0E0],"parents":[2147483647,0,0,1,1,2,2,3,3,4,4,5,5,6,6],"right_children":[2,4,6,8,10,12,14,-1,-1,-1,-1,-1,-1,-1,-1],"split_conditions":[6.11E2,1.062E-1,2.5533333E1,1.7092511E-1,1E-3,2.54E1,1.57E-2,-5.226205E-2,-2.9690636E-3,9.250285E-2,-3.995609E-2,-5.8956094E-2,1.5680429E-2,-4.6496462E-2,-4.588779E-3],"split_indices":[34,19,38,22,8,30,20,0,0,0,0,0,0,0,0],"split_type":[0,0,0,0,0,0,0,0,0,0,0,0,0,0,0],"sum_hessian":[3.42E2,4E1,3.02E2,2.2E1,1.8E1,2.56E2,4.6E1,1.4E1,8E0,6E0,1.2E1,4E0,2.52E2,1E1,3.6E1],"tree_param":{"num_deleted":"0","num_feature":"43","num_nodes":"15","size_leaf_vector":"0"}},{"base_weights":[5.1067036E-2,-1.0923264E-2,3.286781E-1,-7.917749E-1,4.7073238E-2,-4.238986E-1,5.027229E-1,1.894102E-2,-9.875853E-2,1.6154699E-2,-4.167251E-3,-1.2164563E-2,-8.2272366E-2,2.6481098E-2,1.3221553E-1],"categories":[],"categories_nodes":[],"categories_segments":[],"categories_sizes":[],"default_left":[0,0,0,0,1,0,0,0,0,0,0,0,0,0,0],"id":48,"left_children":[1,3,5,7,9,11,13,-1,-1,-1,-1,-1,-1,-1,-1],"loss_changes":[5.75146E0,1.2445818E1,8.2030115E0,3.8374567E0,2.607451E0,1.3464718E0,9.397517E0,0E0,0E0,0E0,0E0,0E0,0E0,0E0,0E0],"parents":[2147483647,0,0,1,1,2,2,3,3,4,4,5,5,6,6],"right_children":[2,4,6,8,10,12,14,-1,-1,-1,-1,-1,-1,-1,-1],"split_conditions":[8E0,2.824E-1,1.79E-2,1.666E-1,2.37E1,1.108E-1,1.7262903E2,1.894102E-2,-9.875853E-2,1.6154699E-2,-4.167251E-3,-1.2164563E-2,-8.2272366E-2,2.6481098E-2,1.3221553E-1],"split_indices":[1,0,20,11,38,18,5,0,0,0,0,0,0,0,0],"split_type":[0,0,0,0,0,0,0,0,0,0,0,0,0,0,0],"sum_hessian":[3.33E2,2.73E2,6E1,1.8E1,2.55E2,1.1E1,4.9E1,3E0,1.5E1,1.11E2,1.44E2,7E0,4E0,3.9E1,1E1],"tree_param":{"num_deleted":"0","num_feature":"43","num_nodes":"15","size_leaf_vector":"0"}},{"base_weights":[-1.1273334E-2,-3.184086E-1,3.349159E-2,4.5551428E-1,-4.4915354E-1,7.941081E-3,6.1464614E-1,7.842188E-2,1.2931228E-3,-6.2392052E-2,3.0605856E-2,5.105197E-2,-7.737632E-4,1.1260654E-1,2.6223034E-2],"categories":[],"categories_nodes":[],"categories_segments":[],"categories_sizes":[],"default_left":[0,0,0,0,0,0,0,0,0,0,0,0,0,0,0],"id":49,"left_children":[1,3,5,7,9,11,13,-1,-1,-1,-1,-1,-1,-1,-1],"loss_changes":[4.864021E0,4.7579875E0,4.5833964E0,1.0082123E0,5.338415E0,2.3442466E0,2.0477304E0,0E0,0E0,0E0,0E0,0E0,0E0,0E0,0E0],"parents":[2147483647,0,0,1,1,2,2,3,3,4,4,5,5,6,6],"right_children":[2,4,6,8,10,12,14,-1,-1,-1,-1,-1,-1,-1,-1],"split_conditions":[3.6333332E1,7.79E-2,2.114E-1,2E-2,1.858E-1,1.6816399E2,2.164E-1,7.842188E-2,1.2931228E-3,-6.2392052E-2,3.0605856E-2,5.105197E-2,-7.737632E-4,1.1260654E-1,2.6223034E-2],"split_indices":[25,16,11,9,16,5,11,0,0,0,0,0,0,0,0],"split_type":[0,0,0,0,0,0,0,0,0,0,0,0,0,0,0],"sum_hessian":[3.52E2,4.4E1,3.08E2,6E0,3.8E1,2.96E2,1.2E1,3E0,3E0,3.1E1,7E0,8E0,2.88E2,4E0,8E0],"tree_param":{"num_deleted":"0","num_feature":"43","num_nodes":"15","size_leaf_vector":"0"}},{"base_weights":[1.2913003E-2,-2.0257693E-2,4.2238626E-1,3.247667E-2,-4.2106208E-1,-2.7819782E-2,5.305658E-1,1.3723687E-3,4.795959E-2,-7.402722E-3,-6.1399367E-2,1.0254852E-1,1.7450584E-2],"categories":[],"categories_nodes":[],"categories_segments":[],"categories_sizes":[],"default_left":[0,0,0,0,1,0,0,0,0,0,0,0,0],"id":50,"left_children":[1,3,5,7,9,-1,11,-1,-1,-1,-1,-1,-1],"loss_changes":[4.5315332E0,6.5447493E0,2.042324E0,2.2908587E0,2.364891E0,0E0,3.6979074E0,0E0,0E0,0E0,0E0,0E0,0E0],"parents":[2147483647,0,0,1,1,2,2,3,3,4,4,6,6],"right_children":[2,4,6,8,10,-1,12,-1,-1,-1,-1,-1,-1],"split_conditions":[1.824E-1,1.849E-1,1.335E-1,1.1E1,5.46E2,-2.7819782E-2,1.835E-1,1.3723687E-3,4.795959E-2,-7.402722E-3,-6.1399367E-2,1.0254852E-1,1.7450584E-2],"split_indices":[12,11,16,1,34,0,14,0,0,0,0,0,0],"split_type":[0,0,0,0,0,0,0,0,0,0,0,0,0],"sum_hessian":[3.32E2,3.08E2,2.4E1,2.73E2,3.5E1,3E0,2.1E1,2.63E2,1E1,1.3E1,2.2E1,8E0,1.3E1],"tree_param":{"num_deleted":"0","num_feature":"43","num_nodes":"13","size_leaf_vector":"0"}},{"base_weights":[2.6404204E-2,4.7255225E-2,-5.0973386E-1,2.8501388E-2,1.06458925E-1,-8.368931E-1,1.8109957E-2,8.162292E-4,4.0010706E-2,-1.0653919E-1,-4.4101574E-2],"categories":[],"categories_nodes":[],"categories_segments":[],"categories_sizes":[],"default_left":[0,0,0,0,0,0,0,0,0,0,0],"id":51,"left_children":[1,3,5,7,-1,9,-1,-1,-1,-1,-1],"loss_changes":[3.880852E0,6.3229375E0,3.089724E0,2.4757984E0,0E0,3.4426308E-1,0E0,0E0,0E0,0E0,0E0],"parents":[2147483647,0,0,1,1,2,2,3,3,5,5],"right_children":[2,4,6,8,-1,10,-1,-1,-1,-1,-1],"split_conditions":[2.256E-1,2.6E1,2.71E1,3.3618472E0,1.06458925E-1,7.781399E-2,1.8109957E-2,8.162292E-4,4.0010706E-2,-1.0653919E-1,-4.4101574E-2],"split_indices":[11,21,30,6,0,22,0,0,0,0,0],"split_type":[0,0,0,0,0,0,0,0,0,0,0],"sum_hessian":[3.44E2,3.32E2,1.2E1,3.27E2,5E0,8E0,4E0,3.11E2,1.6E1,4E0,4E0],"tree_param":{"num_deleted":"0","num_feature":"43","num_nodes":"11","size_leaf_vector":"0"}},{"base_weights":[2.7101528E-2,4.0112246E-2,-1.01402596E-1,2.7084684E-1,5.938754E-3,7.356519E-2,2.5904443E-4,-3.1949524E-3,2.2573074E-2],"categories":[],"categories_nodes":[],"categories_segments":[],"categories_sizes":[],"default_left":[0,0,0,0,0,0,0,0,0],"id":52,"left_children":[1,3,-1,5,7,-1,-1,-1,-1],"loss_changes":[4.388882E0,2.5058239E0,0E0,5.110259E0,2.322268E0,0E0,0E0,0E0,0E0],"parents":[2147483647,0,0,1,1,3,3,4,4],"right_children":[2,4,-1,6,8,-1,-1,-1,-1],"split_conditions":[2.043E-1,3.1E1,-1.01402596E-1,9.31E-2,2.064E-1,7.356519E-2,2.5904443E-4,-3.1949524E-3,2.2573074E-2],"split_indices":[10,32,0,15,18,0,0,0,0],"split_type":[0,0,0,0,0,0,0,0,0],"sum_hessian":[3.2E2,3.17E2,3E0,4E1,2.77E2,1.4E1,2.6E1,2.37E2,4E1],"tree_param":{"num_deleted":"0","num_feature":"43","num_nodes":"9","size_leaf_vector":"0"}},{"base_weights":[-1.9154798E-2,4.525933E-4,-1.1303158E-1,-2.1923862E-1,4.3467473E-2,-7.886346E-3,-1.0516317E-1,1.4260432E-3,4.775356E-2],"categories":[],"categories_nodes":[],"categories_segments":[],"categories_sizes":[],"default_left":[0,0,0,0,1,0,0,0,0],"id":53,"left_children":[1,3,-1,5,7,-1,-1,-1,-1],"loss_changes":[7.5388026E0,3.231977E0,0E0,6.460514E0,3.619054E0,0E0,0E0,0E0,0E0],"parents":[2147483647,0,0,1,1,3,3,4,4],"right_children":[2,4,-1,6,8,-1,-1,-1,-1],"split_conditions":[1.3E-2,8.7E0,-1.1303158E-1,4.4E1,2.75E1,-7.886346E-3,-1.0516317E-1,1.4260432E-3,4.775356E-2],"split_indices":[8,33,0,32,30,0,0,0,0],"split_type":[0,0,0,0,0,0,0,0,0],"sum_hessian":[3.45E2,3.4E2,5E0,5.5E1,2.85E2,4.8E1,7E0,2.68E2,1.7E1],"tree_param":{"num_deleted":"0","num_feature":"43","num_nodes":"9","size_leaf_vector":"0"}},{"base_weights":[4.130865E-2,3.6990997E-1,-5.928569E-3,-6.0279068E-2,5.137598E-1,-3.0483738E-1,3.3423826E-2,1.5209521E-1,3.1506546E-2,-7.638947E-2,-1.835188E-2,-4.812963E-2,4.7153123E-3],"categories":[],"categories_nodes":[],"categories_segments":[],"categories_sizes":[],"default_left":[0,0,0,0,0,0,0,0,0,0,0,0,0],"id":54,"left_children":[1,3,5,-1,7,9,11,-1,-1,-1,-1,-1,-1],"loss_changes":[5.310789E0,6.3263717E0,3.5390224E0,0E0,7.12549E0,1.8090372E0,1.9024487E0,0E0,0E0,0E0,0E0,0E0,0E0],"parents":[2147483647,0,0,1,1,2,2,4,4,5,5,6,6],"right_children":[2,4,6,-1,8,10,12,-1,-1,-1,-1,-1,-1],"split_conditions":[3.1E1,9.53895E-2,7.9E1,-6.0279068E-2,1.1912427E-1,1.458588E2,1.5666667E1,1.5209521E-1,3.1506546E-2,-7.638947E-2,-1.835188E-2,-4.812963E-2,4.7153123E-3],"split_indices":[32,22,32,0,22,2,40,0,0,0,0,0,0],"split_type":[0,0,0,0,0,0,0,0,0,0,0,0,0],"sum_hessian":[3.41E2,4.2E1,2.99E2,5E0,3.7E1,3.4E1,2.65E2,5E0,3.2E1,6E0,2.8E1,6E0,2.59E2],"tree_param":{"num_deleted":"0","num_feature":"43","num_nodes":"13","size_leaf_vector":"0"}},{"base_weights":[8.4228426E-2,2.779799E-2,4.0984038E-1,2.9677188E-1,-7.89427E-3,1.4124144E0,1.8524498E-1,5.7281167E-3,1.0679567E-1,-3.7036113E-2,3.276104E-3,4.802754E-2,2.0620707E-1,4.4072727E-3,1.0249331E-1],"categories":[],"categories_nodes":[],"categories_segments":[],"categories_sizes":[],"default_left":[0,0,0,1,0,0,1,0,0,0,0,0,0,0,0],"id":55,"left_children":[1,3,5,7,9,11,13,-1,-1,-1,-1,-1,-1,-1,-1],"loss_changes":[6.217538E0,2.7864258E0,1.0997033E1,6.21834E0,3.7993374E0,4.4597683E0,4.933536E0,0E0,0E0,0E0,0E0,0E0,0E0,0E0,0E0],"parents":[2147483647,0,0,1,1,2,2,3,3,4,4,5,5,6,6],"right_children":[2,4,6,8,10,12,14,-1,-1,-1,-1,-1,-1,-1,-1],"split_conditions":[1.902E-1,2.15E-2,1.622E-1,2.54E1,9.8E0,1.317E-1,2.5033333E1,5.7281167E-3,1.0679567E-1,-3.7036113E-2,3.276104E-3,4.802754E-2,2.0620707E-1,4.4072727E-3,1.0249331E-1],"split_indices":[11,9,12,30,33,13,23,0,0,0,0,0,0,0,0],"split_type":[0,0,0,0,0,0,0,0,0,0,0,0,0,0,0],"sum_hessian":[3.38E2,2.89E2,4.9E1,3.3E1,2.56E2,8E0,4.1E1,2.6E1,7E0,2.5E1,2.31E2,4E0,4E0,3.6E1,5E0],"tree_param":{"num_deleted":"0","num_feature":"43","num_nodes":"15","size_leaf_vector":"0"}},{"base_weights":[-4.226354E-2,4.223162E-1,-7.2004154E-2,-2.0274003E-1,8.5591537E-1,-1.85387E-2,-5.721793E-1,-4.5529183E-2,2.2677267E-2,-2.7188826E-2,1.2620597E-1,5.030157E-2,-3.757535E-3,-1.346747E-2,-9.465786E-2],"categories":[],"categories_nodes":[],"categories_segments":[],"categories_sizes":[],"default_left":[0,0,0,0,0,0,0,0,0,0,0,0,0,0,0],"id":56,"left_children":[1,3,5,7,9,11,13,-1,-1,-1,-1,-1,-1,-1,-1],"loss_changes":[4.589981E0,5.5940046E0,8.306183E0,1.0795156E0,5.8397512E0,2.8187795E0,4.786563E0,0E0,0E0,0E0,0E0,0E0,0E0,0E0,0E0],"parents":[2147483647,0,0,1,1,2,2,3,3,4,4,5,5,6,6],"right_children":[2,4,6,8,10,12,14,-1,-1,-1,-1,-1,-1,-1,-1],"split_conditions":[4.3E0,1.79E-2,9E0,3.67E-2,-4.1123368E-2,6.8E0,5.56E2,-4.5529183E-2,2.2677267E-2,-2.7188826E-2,1.2620597E-1,5.030157E-2,-3.757535E-3,-1.346747E-2,-9.465786E-2],"split_indices":[33,20,1,9,22,33,34,0,0,0,0,0,0,0,0],"split_type":[0,0,0,0,0,0,0,0,0,0,0,0,0,0,0],"sum_hessian":[3.29E2,1.9E1,3.1E2,8E0,1.1E1,2.81E2,2.9E1,5E0,3E0,3E0,8E0,9E0,2.72E2,1.4E1,1.5E1],"tree_param":{"num_deleted":"0","num_feature":"43","num_nodes":"15","size_leaf_vector":"0"}},{"base_weights":[-1.9498058E-2,-3.1796396E-1,1.4458631E-2,-6.0407645E-1,2.3470253E-1,2.0280464E-3,6.5843925E-2,-4.5646664E-2,-1.2280091E-1,1.4710537E-1,-2.8330818E-2,1.2837935E-3,-8.335429E-2],"categories":[],"categories_nodes":[],"categories_segments":[],"categories_sizes":[],"default_left":[0,0,0,0,0,0,0,0,0,0,0,0,0],"id":57,"left_children":[1,3,5,7,9,11,-1,-1,-1,-1,-1,-1,-1],"loss_changes":[3.5720868E0,5.8342705E0,2.536267E0,1.6498213E0,8.742522E0,2.8288186E0,0E0,0E0,0E0,0E0,0E0,0E0,0E0],"parents":[2147483647,0,0,1,1,2,2,3,3,4,4,5,5],"right_children":[2,4,6,8,10,12,-1,-1,-1,-1,-1,-1,-1],"split_conditions":[4.4333334E0,2.98E-2,1.007E-1,1.323E-1,3.58E-2,3.034E-1,6.5843925E-2,-4.5646664E-2,-1.2280091E-1,1.4710537E-1,-2.8330818E-2,1.2837935E-3,-8.335429E-2],"split_indices":[26,20,20,13,9,11,0,0,0,0,0,0,0],"split_type":[0,0,0,0,0,0,0,0,0,0,0,0,0],"sum_hessian":[3.51E2,3.5E1,3.16E2,2.3E1,1.2E1,3.11E2,5E0,2E1,3E0,3E0,9E0,3.08E2,3E0],"tree_param":{"num_deleted":"0","num_feature":"43","num_nodes":"13","size_leaf_vector":"0"}},{"base_weights":[2.6525151E-2,4.9913934E-1,-1.3346499E-2,7.66449E-2,1.3873594E0,-1.7346861E-3,-8.634781E-2,9.879624E-2,-1.7148277E-2,5.204341E-2,2.1241763E-1,6.703425E-2,-1.5681845E-3],"categories":[],"categories_nodes":[],"categories_segments":[],"categories_sizes":[],"default_left":[0,0,1,0,0,0,0,0,0,0,0,0,0],"id":58,"left_children":[1,3,5,7,9,11,-1,-1,-1,-1,-1,-1,-1],"loss_changes":[6.0555563E0,9.275367E0,2.9303582E0,4.2396336E0,4.004628E0,2.7663407E0,0E0,0E0,0E0,0E0,0E0,0E0,0E0],"parents":[2147483647,0,0,1,1,2,2,3,3,4,4,5,5],"right_children":[2,4,6,8,10,12,-1,-1,-1,-1,-1,-1,-1],"split_conditions":[2.3633333E1,2.77E-2,3.0833334E1,5E0,8E0,1.02E-2,-8.634781E-2,9.879624E-2,-1.7148277E-2,5.204341E-2,2.1241763E-1,6.703425E-2,-1.5681845E-3],"split_indices":[23,20,23,1,21,9,0,0,0,0,0,0,0],"split_type":[0,0,0,0,0,0,0,0,0,0,0,0,0],"sum_hessian":[3.2E2,2.4E1,2.96E2,1.7E1,7E0,2.93E2,3E0,3E0,1.4E1,4E0,3E0,5E0,2.88E2],"tree_param":{"num_deleted":"0","num_feature":"43","num_nodes":"13","size_leaf_vector":"0"}},{"base_weights":[8.843308E-3,-2.2703197E-2,3.894879E-1,1.6930535E-2,-3.110148E-1,1.1180309E-1,2.4585052E-1,-4.6275435E-3,2.5638541E-2,-6.455364E-2,2.2331427E-3,4.1133106E-2,-4.3214567E-2],"categories":[],"categories_nodes":[],"categories_segments":[],"categories_sizes":[],"default_left":[0,0,0,0,0,0,0,0,0,0,0,0,0],"id":59,"left_children":[1,3,5,7,9,-1,11,-1,-1,-1,-1,-1,-1],"loss_changes":[4.079557E0,3.593301E0,2.4459276E0,4.204253E0,4.251853E0,0E0,2.758244E0,0E0,0E0,0E0,0E0,0E0,0E0],"parents":[2147483647,0,0,1,1,2,2,3,3,4,4,6,6],"right_children":[2,4,6,8,10,-1,12,-1,-1,-1,-1,-1,-1],"split_conditions":[2E1,1.891E-1,5.27E-2,1.705E-1,1.064E-1,1.1180309E-1,1.4718246E2,-4.6275435E-3,2.5638541E-2,-6.455364E-2,2.2331427E-3,4.1133106E-2,-4.3214567E-2],"split_indices":[21,11,9,11,14,0,2,0,0,0,0,0,0],"split_type":[0,0,0,0,0,0,0,0,0,0,0,0,0],"sum_hessian":[3.38E2,3.13E2,2.5E1,2.76E2,3.7E1,3E0,2.2E1,2.19E2,5.7E1,1.8E1,1.9E1,1.8E1,4E0],"tree_param":{"num_deleted":"0","num_feature":"43","num_nodes":"13","size_leaf_vector":"0"}},{"base_weights":[3.2903978E-3,6.249811E-2,-1.6638665E-1,2.5999714E-2,1.8822181E-1,2.8612262E-1,-3.0169547E-1,-8.825059E-4,2.7342794E-2,7.116961E-2,-1.6546197E-2,-3.8760614E-2,6.649675E-2],"categories":[],"categories_nodes":[],"categories_segments":[],"categories_sizes":[],"default_left":[0,1,0,0,0,0,0,0,0,0,0,0,0],"id":60,"left_children":[1,3,5,7,-1,9,11,-1,-1,-1,-1,-1,-1],"loss_changes":[3.4562423E0,1.6887363E1,5.535658E0,2.1651878E0,0E0,4.1535892E0,5.9879656E0,0E0,0E0,0E0,0E0,0E0,0E0],"parents":[2147483647,0,0,1,1,2,2,3,3,5,5,6,6],"right_children":[2,4,6,8,-1,10,12,-1,-1,-1,-1,-1,-1],"split_conditions":[5E0,4.9333332E1,3.0747895E0,1.3E-3,1.8822181E-1,1.152E-1,1.007E-1,-8.825059E-4,2.7342794E-2,7.116961E-2,-1.6546197E-2,-3.8760614E-2,6.649675E-2],"split_indices":[1,25,6,8,0,15,20,0,0,0,0,0,0],"split_type":[0,0,0,0,0,0,0,0,0,0,0,0,0],"sum_hessian":[3.42E2,2.54E2,8.8E1,2.5E2,4E0,2E1,6.8E1,2.2E2,3E1,1E1,1E1,6.3E1,5E0],"tree_param":{"num_deleted":"0","num_feature":"43","num_nodes":"13","size_leaf_vector":"0"}},{"base_weights":[6.64751E-2,2.1707239E-2,3.579903E-1,-1.1924705E-2,2.1897826E-1,8.649114E-1,-1.4245549E-1,1.5931252E-2,-6.8939673E-3,1.37038E-2,7.9792865E-2,-3.6555205E-2,1.2483155E-1,-4.179508E-2,9.3291774E-2],"categories":[],"categories_nodes":[],"categories_segments":[],"categories_sizes":[],"default_left":[1,0,0,0,0,0,0,0,0,0,0,0,0,0,0],"id":61,"left_children":[1,3,5,7,9,11,13,-1,-1,-1,-1,-1,-1,-1,-1],"loss_changes":[4.311949E0,1.9133784E0,1.1285418E1,2.4224646E0,1.883106E0,1.0835146E1,7.2038994E0,0E0,0E0,0E0,0E0,0E0,0E0,0E0,0E0],"parents":[2147483647,0,0,1,1,2,2,3,3,4,4,5,5,6,6],"right_children":[2,4,6,8,10,12,14,-1,-1,-1,-1,-1,-1,-1,-1],"split_conditions":[2.7E1,1.91357E3,9E0,3.0799284E0,3.3539822E0,6.88259E-2,1.9105E-1,1.5931252E-2,-6.8939673E-3,1.37038E-2,7.9792865E-2,-3.6555205E-2,1.2483155E-1,-4.179508E-2,9.3291774E-2],"split_indices":[30,4,21,6,6,22,19,0,0,0,0,0,0,0,0],"split_type":[0,0,0,0,0,0,0,0,0,0,0,0,0,0,0],"sum_hessian":[3.3E2,2.87E2,4.3E1,2.46E2,4.1E1,2.1E1,2.2E1,6.1E1,1.85E2,3.7E1,4E0,5E0,1.6E1,1.8E1,4E0],"tree_param":{"num_deleted":"0","num_feature":"43","num_nodes":"15","size_leaf_vector":"0"}},{"base_weights":[-1.1210721E-2,-4.7091624E-1,2.8228201E-2,2.5633117E-2,-6.4785117E-1,3.9433934E-2,-8.528762E-2,-2.159117E-2,-9.898081E-2,2.9577086E-2,3.8694366E-4],"categories":[],"categories_nodes":[],"categories_segments":[],"categories_sizes":[],"default_left":[0,0,1,0,0,0,0,0,0,0,0],"id":62,"left_children":[1,3,5,-1,7,9,-1,-1,-1,-1,-1],"loss_changes":[6.1957216E0,3.6403022E0,3.1437604E0,0E0,3.0357924E0,2.8432019E0,0E0,0E0,0E0,0E0,0E0],"parents":[2147483647,0,0,1,1,2,2,4,4,5,5],"right_children":[2,4,6,-1,8,10,-1,-1,-1,-1,-1],"split_conditions":[1E1,1.316E-1,3.1066668E1,2.5633117E-2,1.602564E-1,9.4E0,-8.528762E-2,-2.159117E-2,-9.898081E-2,2.9577086E-2,3.8694366E-4],"split_indices":[32,12,23,0,22,33,0,0,0,0,0],"split_type":[0,0,0,0,0,0,0,0,0,0,0],"sum_hessian":[3.4E2,2.6E1,3.14E2,5E0,2.1E1,3.11E2,3E0,1E1,1.1E1,3.7E1,2.74E2],"tree_param":{"num_deleted":"0","num_feature":"43","num_nodes":"11","size_leaf_vector":"0"}},{"base_weights":[5.5891823E-2,2.346581E-1,1.4326893E-2,3.8965392E-1,-2.3530823E-1,-4.8474756E-1,4.7937762E-2,1.3541129E-1,1.870208E-2,-4.8391752E-2,6.314989E-2,-8.5361205E-2,3.3377256E-2,3.4877602E-3,8.489483E-2],"categories":[],"categories_nodes":[],"categories_segments":[],"categories_sizes":[],"default_left":[0,0,0,0,0,0,0,0,0,0,0,0,0,0,0],"id":63,"left_children":[1,3,5,7,9,11,13,-1,-1,-1,-1,-1,-1,-1,-1],"loss_changes":[2.4412422E0,4.6079435E0,4.518757E0,8.932026E0,3.753534E0,5.4176025E0,2.6066446E0,0E0,0E0,0E0,0E0,0E0,0E0,0E0,0E0],"parents":[2147483647,0,0,1,1,2,2,3,3,4,4,5,5,6,6],"right_children":[2,4,6,8,10,12,14,-1,-1,-1,-1,-1,-1,-1,-1],"split_conditions":[2.4133333E1,1.8129772E-1,2.5033333E1,8.28E-2,1.7E-3,1.6E-3,8.3E1,1.3541129E-1,1.870208E-2,-4.8391752E-2,6.314989E-2,-8.5361205E-2,3.3377256E-2,3.4877602E-3,8.489483E-2],"split_indices":[23,22,23,14,8,8,1,0,0,0,0,0,0,0,0],"split_type":[0,0,0,0,0,0,0,0,0,0,0,0,0,0,0],"sum_hessian":[3.28E2,6.1E1,2.67E2,4.6E1,1.5E1,1.6E1,2.51E2,7E0,3.9E1,1.2E1,3E0,1.1E1,5E0,2.48E2,3E0],"tree_param":{"num_deleted":"0","num_feature":"43","num_nodes":"15","size_leaf_vector":"0"}},{"base_weights":[1.3600072E-2,7.068109E-2,3.2130454E-3,-2.2767492E-1,3.9825574E-2,-3.7762825E-3,-7.626123E-2,1.0227325E-1,2.5987756E-3],"categories":[],"categories_nodes":[],"categories_segments":[],"categories_sizes":[],"default_left":[0,0,0,1,0,0,0,0,0],"id":64,"left_children":[1,-1,3,5,7,-1,-1,-1,-1],"loss_changes":[2.4386642E0,0E0,2.8409536E0,4.6443906E0,3.917795E0,0E0,0E0,0E0,0E0],"parents":[2147483647,0,0,2,2,3,3,4,4],"right_children":[2,-1,4,6,8,-1,-1,-1,-1],"split_conditions":[4.8E1,7.068109E-2,1.53E-2,7.0333336E1,1.56E-2,-3.7762825E-3,-7.626123E-2,1.0227325E-1,2.5987756E-3],"split_indices":[31,0,10,24,10,0,0,0,0],"split_type":[0,0,0,0,0,0,0,0,0],"sum_hessian":[3.38E2,4E0,3.34E2,4.5E1,2.89E2,3.4E1,1.1E1,3E0,2.86E2],"tree_param":{"num_deleted":"0","num_feature":"43","num_nodes":"9","size_leaf_vector":"0"}},{"base_weights":[1.2661711E-2,1.3760965E-1,-3.99191E-2,1.2510324E-2,8.7069166E-1,-6.2171763E-1,-1.7657053E-2,8.780016E-3,-5.293448E-2,-4.25646E-3,1.4842586E-1,-9.695392E-2,5.544424E-3,2.707674E-3,-1.7732682E-2],"categories":[],"categories_nodes":[],"categories_segments":[],"categories_sizes":[],"default_left":[0,0,0,1,0,0,1,0,0,0,0,0,0,0,0],"id":65,"left_children":[1,3,5,7,9,11,13,-1,-1,-1,-1,-1,-1,-1,-1],"loss_changes":[2.285236E0,9.435038E0,3.1622689E0,3.6773367E0,8.468334E0,2.1735392E0,1.6976056E0,0E0,0E0,0E0,0E0,0E0,0E0,0E0,0E0],"parents":[2147483647,0,0,1,1,2,2,3,3,4,4,5,5,6,6],"right_children":[2,4,6,8,10,12,14,-1,-1,-1,-1,-1,-1,-1,-1],"split_conditions":[3.61E-2,2.58E-2,5.9E1,6.7E1,4E0,5.74E-2,1.2373963E5,8.780016E-3,-5.293448E-2,-4.25646E-3,1.4842586E-1,-9.695392E-2,5.544424E-3,2.707674E-3,-1.7732682E-2],"split_indices":[9,20,31,31,1,9,29,0,0,0,0,0,0,0,0],"split_type":[0,0,0,0,0,0,0,0,0,0,0,0,0,0,0],"sum_hessian":[3.46E2,1.02E2,2.44E2,8.8E1,1.4E1,8E0,2.36E2,7.8E1,1E1,6E0,8E0,5E0,3E0,1.85E2,5.1E1],"tree_param":{"num_deleted":"0","num_feature":"43","num_nodes":"15","size_leaf_vector":"0"}},{"base_weights":[2.4392823E-2,8.25967E-2,-1.3044183E-1,3.401313E-2,3.556092E-1,-7.5845337E-1,-5.992298E-2,1.9199711E-3,6.197473E-2,1.2149592E-1,6.668926E-3,-1.2011365E-1,-1.6407963E-2,1.0285257E-2,-2.6067305E-2],"categories":[],"categories_nodes":[],"categories_segments":[],"categories_sizes":[],"default_left":[0,1,0,0,0,0,0,0,0,0,0,0,0,0,0],"id":66,"left_children":[1,3,5,7,9,11,13,-1,-1,-1,-1,-1,-1,-1,-1],"loss_changes":[2.9667022E0,3.157982E0,3.94035E0,1.7581533E0,8.857176E0,2.170991E0,2.7063415E0,0E0,0E0,0E0,0E0,0E0,0E0,0E0,0E0],"parents":[2147483647,0,0,1,1,2,2,3,3,4,4,5,5,6,6],"right_children":[2,4,6,8,10,12,14,-1,-1,-1,-1,-1,-1,-1,-1],"split_conditions":[3.04E-2,8.4E0,1.7030183E2,3.01E-2,5E0,8.7E1,9.930718E-2,1.9199711E-3,6.197473E-2,1.2149592E-1,6.668926E-3,-1.2011365E-1,-1.6407963E-2,1.0285257E-2,-2.6067305E-2],"split_indices":[20,33,5,20,1,1,22,0,0,0,0,0,0,0,0],"split_type":[0,0,0,0,0,0,0,0,0,0,0,0,0,0,0],"sum_hessian":[3.27E2,2.38E2,8.9E1,2.03E2,3.5E1,8E0,8.1E1,1.99E2,4E0,8E0,2.7E1,4E0,4E0,4.5E1,3.6E1],"tree_param":{"num_deleted":"0","num_feature":"43","num_nodes":"15","size_leaf_vector":"0"}},{"base_weights":[3.0053841E-2,1.6871822E-1,-4.206151E-2,1.4093313E-1,6.824077E-2,-5.200361E-1,-1.73672E-5,2.320701E-2,-1.0840163E-2,3.517622E-3,-6.263369E-2,-4.708246E-3,2.4606634E-2],"categories":[],"categories_nodes":[],"categories_segments":[],"categories_sizes":[],"default_left":[0,0,0,0,0,0,0,0,0,0,0,0,0],"id":67,"left_children":[1,3,5,7,-1,9,11,-1,-1,-1,-1,-1,-1],"loss_changes":[3.5670362E0,1.6451201E0,4.7225585E0,2.6838195E0,0E0,1.1434035E0,2.524869E0,0E0,0E0,0E0,0E0,0E0,0E0],"parents":[2147483647,0,0,1,1,2,2,3,3,5,5,6,6],"right_children":[2,4,6,8,-1,10,12,-1,-1,-1,-1,-1,-1],"split_conditions":[4.1673E0,1.817E-1,2.7E1,1.165E-1,6.824077E-2,8.43E-2,1.799E-1,2.320701E-2,-1.0840163E-2,3.517622E-3,-6.263369E-2,-4.708246E-3,2.4606634E-2],"split_indices":[0,12,30,15,0,15,11,0,0,0,0,0,0],"split_type":[0,0,0,0,0,0,0,0,0,0,0,0,0],"sum_hessian":[3.55E2,1.21E2,2.34E2,1.16E2,5E0,1.8E1,2.16E2,8.5E1,3.1E1,3E0,1.5E1,1.82E2,3.4E1],"tree_param":{"num_deleted":"0","num_feature":"43","num_nodes":"13","size_leaf_vector":"0"}},{"base_weights":[6.183084E-3,-5.617448E-3,7.932221E-2,-3.5048938E-1,1.6297016E-2,8.624107E-3,-4.326325E-2,-1.0680865E-2,7.405225E-3],"categories":[],"categories_nodes":[],"categories_segments":[],"categories_sizes":[],"default_left":[0,0,0,0,0,0,0,0,0],"id":68,"left_children":[1,3,-1,5,7,-1,-1,-1,-1],"loss_changes":[3.1436238E0,2.5299785E0,0E0,7.547984E-1,2.247558E0,0E0,0E0,0E0,0E0],"parents":[2147483647,0,0,1,1,3,3,4,4],"right_children":[2,4,-1,6,8,-1,-1,-1,-1],"split_conditions":[1.37E-2,4.133333E0,7.932221E-2,8.18E-2,9.13E-2,8.624107E-3,-4.326325E-2,-1.0680865E-2,7.405225E-3],"split_indices":[8,26,0,16,17,0,0,0,0],"split_type":[0,0,0,0,0,0,0,0,0],"sum_hessian":[3.37E2,3.33E2,4E0,1.9E1,3.14E2,3E0,1.6E1,1E2,2.14E2],"tree_param":{"num_deleted":"0","num_feature":"43","num_nodes":"9","size_leaf_vector":"0"}},{"base_weights":[8.892821E-3,2.1322666E-2,-1.0156851E-1,-2.740813E-2,2.0876598E-1,6.832356E-3,-1.5623026E-2,3.4715354E-2,-1.4235638E-3],"categories":[],"categories_nodes":[],"categories_segments":[],"categories_sizes":[],"default_left":[0,0,0,0,0,0,0,0,0],"id":69,"left_children":[1,3,-1,5,7,-1,-1,-1,-1],"loss_changes":[4.249791E0,3.0108943E0,0E0,3.2417524E0,2.1034665E0,0E0,0E0,0E0,0E0],"parents":[2147483647,0,0,1,1,3,3,4,4],"right_children":[2,4,-1,6,8,-1,-1,-1,-1],"split_conditions":[1.66E-2,3.1097314E0,-1.0156851E-1,3.093886E0,1.12E-1,6.832356E-3,-1.5623026E-2,3.4715354E-2,-1.4235638E-3],"split_indices":[8,6,0,6,13,0,0,0,0],"split_type":[0,0,0,0,0,0,0,0,0],"sum_hessian":[3.31E2,3.28E2,3E0,2.61E2,6.7E1,1.5E2,1.11E2,4.1E1,2.6E1],"tree_param":{"num_deleted":"0","num_feature":"43","num_nodes":"9","size_leaf_vector":"0"}},{"base_weights":[1.9975536E-2,-9.098982E-2,3.0824566E-2,1.9192587E-1,-2.9469594E-2,8.783918E-3,1.2868671E-1,-5.538371E-4,-4.6348732E-2],"categories":[],"categories_nodes":[],"categories_segments":[],"categories_sizes":[],"default_left":[0,0,0,0,0,0,0,0,0],"id":70,"left_children":[1,-1,3,5,7,-1,-1,-1,-1],"loss_changes":[3.498398E0,0E0,3.3179486E0,1.0486061E1,2.5836902E0,0E0,0E0,0E0,0E0],"parents":[2147483647,0,0,2,2,3,3,4,4],"right_children":[2,-1,4,6,8,-1,-1,-1,-1],"split_conditions":[4.8E1,-9.098982E-2,3.61E-2,1.121E-1,6.8E1,8.783918E-3,1.2868671E-1,-5.538371E-4,-4.6348732E-2],"split_indices":[31,0,9,15,1,0,0,0,0],"split_type":[0,0,0,0,0,0,0,0,0],"sum_hessian":[3.43E2,3E0,3.4E2,9.2E1,2.48E2,8.5E1,7E0,2.36E2,1.2E1],"tree_param":{"num_deleted":"0","num_feature":"43","num_nodes":"9","size_leaf_vector":"0"}},{"base_weights":[3.4485545E-3,-1.997442E-2,3.9282808E-1,-2.99422E-1,-1.0891462E-3,1.3100779E-1,6.0889594E-2,-4.2989817E-3,-5.5155523E-2,1.1020341E-3,-4.399219E-2,-7.909914E-2,4.425728E-2],"categories":[],"categories_nodes":[],"categories_segments":[],"categories_sizes":[],"default_left":[0,0,0,0,0,0,0,0,0,0,0,0,0],"id":71,"left_children":[1,3,5,7,9,-1,11,-1,-1,-1,-1,-1,-1],"loss_changes":[3.054069E0,1.6673461E0,5.7051706E0,1.2693902E0,1.583118E0,0E0,5.2273016E0,0E0,0E0,0E0,0E0,0E0,0E0],"parents":[2147483647,0,0,1,1,2,2,3,3,4,4,6,6],"right_children":[2,4,6,8,10,-1,12,-1,-1,-1,-1,-1,-1],"split_conditions":[2.1E1,3E0,4.1E1,5.843E1,1.7E1,1.3100779E-1,1.872E-1,-4.2989817E-3,-5.5155523E-2,1.1020341E-3,-4.399219E-2,-7.909914E-2,4.425728E-2],"split_indices":[21,37,21,28,21,0,16,0,0,0,0,0,0],"split_type":[0,0,0,0,0,0,0,0,0,0,0,0,0],"sum_hessian":[3.33E2,3.15E2,1.8E1,1.9E1,2.96E2,4E0,1.4E1,1E1,9E0,2.89E2,7E0,4E0,1E1],"tree_param":{"num_deleted":"0","num_feature":"43","num_nodes":"13","size_leaf_vector":"0"}},{"base_weights":[1.3380195E-2,2.604602E-2,-1.0158968E-1,4.6582913E-1,9.102113E-3,-2.709145E-2,7.4151196E-2,-1.6121468E-2,3.980175E-3],"categories":[],"categories_nodes":[],"categories_segments":[],"categories_sizes":[],"default_left":[1,0,0,0,0,0,0,0,0],"id":72,"left_children":[1,3,-1,5,7,-1,-1,-1,-1],"loss_changes":[4.2894425E0,2.410093E0,0E0,2.638177E0,1.6429883E0,0E0,0E0,0E0,0E0],"parents":[2147483647,0,0,1,1,3,3,4,4],"right_children":[2,4,-1,6,8,-1,-1,-1,-1],"split_conditions":[6.65E2,6.9666664E1,-1.0158968E-1,2E-2,9.841584E1,-2.709145E-2,7.4151196E-2,-1.6121468E-2,3.980175E-3],"split_indices":[34,24,0,9,2,0,0,0,0],"split_type":[0,0,0,0,0,0,0,0,0],"sum_hessian":[3.26E2,3.23E2,3E0,1.1E1,3.12E2,3E0,8E0,4.7E1,2.65E2],"tree_param":{"num_deleted":"0","num_feature":"43","num_nodes":"9","size_leaf_vector":"0"}},{"base_weights":[-1.0527249E-2,3.207819E-2,-2.3862948E-1,-1.5110266E-3,3.9602435E-1,-3.9633518E-1,2.2900322E-1,-6.088658E-2,1.7624208E-3,4.378146E-3,9.782313E-2,-6.0403623E-2,1.3863683E-2,1.2409361E-1,-2.998635E-2],"categories":[],"categories_nodes":[],"categories_segments":[],"categories_sizes":[],"default_left":[1,0,0,0,0,0,0,0,0,0,0,0,0,0,0],"id":73,"left_children":[1,3,5,7,9,11,13,-1,-1,-1,-1,-1,-1,-1,-1],"loss_changes":[3.273036E0,3.4724038E0,3.9994245E0,3.0440402E0,4.8790503E0,4.528311E0,7.8645973E0,0E0,0E0,0E0,0E0,0E0,0E0,0E0,0E0],"parents":[2147483647,0,0,1,1,2,2,3,3,4,4,5,5,6,6],"right_children":[2,4,6,8,10,12,14,-1,-1,-1,-1,-1,-1,-1,-1],"split_conditions":[2.4E1,7E0,1.824E-1,1.7E1,2.77E-2,1.07E1,3.0834339E0,-6.088658E-2,1.7624208E-3,4.378146E-3,9.782313E-2,-6.0403623E-2,1.3863683E-2,1.2409361E-1,-2.998635E-2],"split_indices":[23,21,12,25,20,33,6,0,0,0,0,0,0,0,0],"split_type":[0,0,0,0,0,0,0,0,0,0,0,0,0,0,0],"sum_hessian":[3.35E2,2.83E2,5.2E1,2.6E2,2.3E1,3.9E1,1.3E1,7E0,2.53E2,1.5E1,8E0,2.8E1,1.1E1,4E0,9E0],"tree_param":{"num_deleted":"0","num_feature":"43","num_nodes":"15","size_leaf_vector":"0"}},{"base_weights":[-4.418994E-2,-7.625676E-2,3.8654497E-1,-3.6074124E-2,-3.219086E-1,1.0090124E-1,6.637803E-1,-6.572538E-3,3.9422583E-2,-1.0747399E-1,-1.5494651E-2,4.9461197E-2,-2.0699447E-2,-1.3417187E-2,1.0795279E-1],"categories":[],"categories_nodes":[],"categories_segments":[],"categories_sizes":[],"default_left":[0,1,0,0,0,0,1,0,0,0,0,0,0,0,0],"id":74,"left_children":[1,3,5,7,9,11,13,-1,-1,-1,-1,-1,-1,-1,-1],"loss_changes":[4.7809067E0,3.156958E0,1.833596E0,3.5601354E0,5.489716E0,1.6782659E0,4.125802E0,0E0,0E0,0E0,0E0,0E0,0E0,0E0,0E0],"parents":[2147483647,0,0,1,1,2,2,3,3,4,4,5,5,6,6],"right_children":[2,4,6,8,10,12,14,-1,-1,-1,-1,-1,-1,-1,-1],"split_conditions":[2.114E-1,6.2E1,1.732E-1,8E0,7E0,2.177E-1,4.58E2,-6.572538E-3,3.9422583E-2,-1.0747399E-1,-1.5494651E-2,4.9461197E-2,-2.0699447E-2,-1.3417187E-2,1.0795279E-1],"split_indices":[11,31,19,1,21,11,34,0,0,0,0,0,0,0,0],"split_type":[0,0,0,0,0,0,0,0,0,0,0,0,0,0,0],"sum_hessian":[3.43E2,3.2E2,2.3E1,2.76E2,4.4E1,1.2E1,1.1E1,2.59E2,1.7E1,7E0,3.7E1,5E0,7E0,4E0,7E0],"tree_param":{"num_deleted":"0","num_feature":"43","num_nodes":"15","size_leaf_vector":"0"}},{"base_weights":[-1.4548703E-2,-3.5895964E-3,-1.0054505E-1,-3.339829E-1,1.2607164E-2,7.5181246E-2,-6.2035423E-2,2.0624286E-2,-1.4733631E-3],"categories":[],"categories_nodes":[],"categories_segments":[],"categories_sizes":[],"default_left":[0,0,0,0,0,0,0,0,0],"id":75,"left_children":[1,3,-1,5,7,-1,-1,-1,-1],"loss_changes":[3.97093E0,1.946733E0,0E0,5.752381E0,1.8401101E0,0E0,0E0,0E0,0E0],"parents":[2147483647,0,0,1,1,3,3,4,4],"right_children":[2,4,-1,6,8,-1,-1,-1,-1],"split_conditions":[1.29E-2,2.36E1,-1.0054505E-1,1.1912427E-1,2.4233334E1,7.5181246E-2,-6.2035423E-2,2.0624286E-2,-1.4733631E-3],"split_indices":[8,23,0,22,23,0,0,0,0],"split_type":[0,0,0,0,0,0,0,0,0],"sum_hessian":[3.65E2,3.62E2,3E0,1.6E1,3.46E2,3E0,1.3E1,4.2E1,3.04E2],"tree_param":{"num_deleted":"0","num_feature":"43","num_nodes":"9","size_leaf_vector":"0"}},{"base_weights":[6.357635E-2,2.0062484E-2,5.5115557E-1,-2.8371906E-1,4.593684E-2,8.871548E-1,1.21067524E-1,2.9411435E-3,-8.088712E-2,-4.509152E-2,6.2148315E-3,2.1601887E-2,1.1115662E-1,-6.42132E-2,5.316153E-2],"categories":[],"categories_nodes":[],"categories_segments":[],"categories_sizes":[],"default_left":[1,0,0,0,0,0,0,0,0,0,0,0,0,0,0],"id":76,"left_children":[1,3,5,7,9,11,13,-1,-1,-1,-1,-1,-1,-1,-1],"loss_changes":[6.9903736E0,2.4025195E0,3.794344E0,3.9703774E0,2.2913952E0,2.0190392E0,4.414655E0,0E0,0E0,0E0,0E0,0E0,0E0,0E0,0E0],"parents":[2147483647,0,0,1,1,2,2,3,3,4,4,5,5,6,6],"right_children":[2,4,6,8,10,12,14,-1,-1,-1,-1,-1,-1,-1,-1],"split_conditions":[6.49E2,2.6E1,9.91E-2,5.56E2,1.5666667E1,6.84E-2,2.84E-2,2.9411435E-3,-8.088712E-2,-4.509152E-2,6.2148315E-3,2.1601887E-2,1.1115662E-1,-6.42132E-2,5.316153E-2],"split_indices":[34,30,14,34,40,18,20,0,0,0,0,0,0,0,0],"split_type":[0,0,0,0,0,0,0,0,0,0,0,0,0,0,0],"sum_hessian":[3.29E2,3.03E2,2.6E1,2.3E1,2.8E2,1.4E1,1.2E1,1.5E1,8E0,8E0,2.72E2,4E0,1E1,4E0,8E0],"tree_param":{"num_deleted":"0","num_feature":"43","num_nodes":"15","size_leaf_vector":"0"}},{"base_weights":[-1.5437867E-2,-2.2689693E-1,3.1016957E-2,-3.8179725E-1,8.6332165E-2,6.172197E-1,-4.7635045E-3,-1.0070091E-2,-8.623176E-2,7.2347626E-2,-5.586603E-2,1.7225765E-1,1.0521945E-2,-5.294375E-3,9.501379E-3],"categories":[],"categories_nodes":[],"categories_segments":[],"categories_sizes":[],"default_left":[0,0,0,0,0,0,0,0,0,0,0,0,0,0,0],"id":77,"left_children":[1,3,5,7,9,11,13,-1,-1,-1,-1,-1,-1,-1,-1],"loss_changes":[3.3273108E0,2.992638E0,5.83388E0,5.451136E0,9.034192E0,8.873838E0,1.2693489E0,0E0,0E0,0E0,0E0,0E0,0E0,0E0,0E0],"parents":[2147483647,0,0,1,1,2,2,3,3,4,4,5,5,6,6],"right_children":[2,4,6,8,10,12,14,-1,-1,-1,-1,-1,-1,-1,-1],"split_conditions":[8.4E0,2.98E-2,2.4233334E1,2.28E-2,1.8E-3,5E0,1.54E-1,-1.0070091E-2,-8.623176E-2,7.2347626E-2,-5.586603E-2,1.7225765E-1,1.0521945E-2,-5.294375E-3,9.501379E-3],"split_indices":[33,20,23,20,8,1,18,0,0,0,0,0,0,0,0],"split_type":[0,0,0,0,0,0,0,0,0,0,0,0,0,0,0],"sum_hessian":[3.37E2,6E1,2.77E2,4E1,2E1,1.5E1,2.62E2,2.6E1,1.4E1,1E1,1E1,4E0,1.1E1,1.77E2,8.5E1],"tree_param":{"num_deleted":"0","num_feature":"43","num_nodes":"15","size_leaf_vector":"0"}},{"base_weights":[4.014446E-2,8.035446E-3,4.2267364E-1,-3.2922322E-1,2.7443452E-2,1.2004689E-1,1.0294186E-2,-7.013553E-2,7.948923E-3,5.2363174E-3,-2.0293616E-2,-4.270273E-2,1.6574515E-2],"categories":[],"categories_nodes":[],"categories_segments":[],"categories_sizes":[],"default_left":[1,0,0,0,1,0,0,0,0,0,0,0,0],"id":78,"left_children":[1,3,5,7,9,-1,11,-1,-1,-1,-1,-1,-1],"loss_changes":[4.123569E0,2.044691E0,8.327058E0,2.6413655E0,1.7042202E0,0E0,1.2944545E0,0E0,0E0,0E0,0E0,0E0,0E0],"parents":[2147483647,0,0,1,1,2,2,3,3,4,4,6,6],"right_children":[2,4,6,8,10,-1,12,-1,-1,-1,-1,-1,-1],"split_conditions":[2.74E1,8.102278E1,9E0,1.88469E3,2.67E1,1.2004689E-1,-4.1123368E-2,-7.013553E-2,7.948923E-3,5.2363174E-3,-2.0293616E-2,-4.270273E-2,1.6574515E-2],"split_indices":[30,2,21,4,30,0,22,0,0,0,0,0,0],"split_type":[0,0,0,0,0,0,0,0,0,0,0,0,0],"sum_hessian":[3.35E2,3.1E2,2.5E1,1.6E1,2.94E2,8E0,1.7E1,8E0,8E0,2.66E2,2.8E1,4E0,1.3E1],"tree_param":{"num_deleted":"0","num_feature":"43","num_nodes":"13","size_leaf_vector":"0"}},{"base_weights":[1.9786831E-2,4.765428E-5,5.102258E-1,-2.8099263E-1,3.7258398E-2,1.0261853E-1,2.5281942E-1,1.167611E-2,-7.29428E-2,-2.5420252E-2,6.9749164E-3,-1.2874524E-2,8.573528E-2],"categories":[],"categories_nodes":[],"categories_segments":[],"categories_sizes":[],"default_left":[0,0,0,0,0,0,0,0,0,0,0,0,0],"id":79,"left_children":[1,3,5,7,9,-1,11,-1,-1,-1,-1,-1,-1],"loss_changes":[3.2527452E0,3.39877E0,1.4671066E0,6.8631086E0,2.7355595E0,0E0,2.4170656E0,0E0,0E0,0E0,0E0,0E0,0E0],"parents":[2147483647,0,0,1,1,2,2,3,3,4,4,6,6],"right_children":[2,4,6,8,10,-1,12,-1,-1,-1,-1,-1,-1],"split_conditions":[8.7E1,7.2E1,1.004E-1,1.149E-1,2.52E-2,1.0261853E-1,4.824E-1,1.167611E-2,-7.29428E-2,-2.5420252E-2,6.9749164E-3,-1.2874524E-2,8.573528E-2],"split_indices":[1,24,9,16,9,0,12,0,0,0,0,0,0],"split_type":[0,0,0,0,0,0,0,0,0,0,0,0,0],"sum_hessian":[3.35E2,3.23E2,1.2E1,3.7E1,2.86E2,3E0,9E0,2E1,1.7E1,2.8E1,2.58E2,6E0,3E0],"tree_param":{"num_deleted":"0","num_feature":"43","num_nodes":"13","size_leaf_vector":"0"}},{"base_weights":[-9.847326E-3,-2.1107896E-6,-8.29461E-2,-3.2322252E-1,2.0519827E-2,9.156513E-4,-1.1002997E-1,5.6913435E-3,-1.2890753E-2],"categories":[],"categories_nodes":[],"categories_segments":[],"categories_sizes":[],"default_left":[1,0,0,0,1,0,0,0,0],"id":80,"left_children":[1,3,-1,5,7,-1,-1,-1,-1],"loss_changes":[2.7193432E0,2.2220907E0,0E0,5.1757574E0,1.7203696E0,0E0,0E0,0E0,0E0],"parents":[2147483647,0,0,1,1,3,3,4,4],"right_children":[2,4,-1,6,8,-1,-1,-1,-1],"split_conditions":[3.1066668E1,2.36E1,-8.29461E-2,1.54E-2,2.5233334E1,9.156513E-4,-1.1002997E-1,5.6913435E-3,-1.2890753E-2],"split_indices":[23,23,0,10,38,0,0,0,0],"split_type":[0,0,0,0,0,0,0,0,0],"sum_hessian":[3.36E2,3.33E2,3E0,1.9E1,3.14E2,1.4E1,5E0,2.53E2,6.1E1],"tree_param":{"num_deleted":"0","num_feature":"43","num_nodes":"9","size_leaf_vector":"0"}},{"base_weights":[4.4224977E-2,1.22264005E-1,-5.44596E-2,6.2017996E-2,5.7259023E-1,-3.0406654E-1,4.987655E-2,1.1201492E-3,3.3394642E-2,-6.8828754E-2,8.209747E-2,-3.0749987E-3,-5.2851286E-2,8.518433E-2,-7.659222E-5],"categories":[],"categories_nodes":[],"categories_segments":[],"categories_sizes":[],"default_left":[0,1,0,0,0,0,0,0,0,0,0,0,0,0,0],"id":81,"left_children":[1,3,5,7,9,11,13,-1,-1,-1,-1,-1,-1,-1,-1],"loss_changes":[2.471058E0,4.8208227E0,3.7132757E0,2.193393E0,7.1418977E0,2.5602334E0,4.102624E0,0E0,0E0,0E0,0E0,0E0,0E0,0E0,0E0],"parents":[2147483647,0,0,1,1,2,2,3,3,4,4,5,5,6,6],"right_children":[2,4,6,8,10,12,14,-1,-1,-1,-1,-1,-1,-1,-1],"split_conditions":[1.021E-1,6.44E2,1.216E-1,1.503E-1,8.43E-2,1.166E-1,5.366667E0,1.1201492E-3,3.3394642E-2,-6.8828754E-2,8.209747E-2,-3.0749987E-3,-5.2851286E-2,8.518433E-2,-7.659222E-5],"split_indices":[19,34,18,12,15,16,26,0,0,0,0,0,0,0,0],"split_type":[0,0,0,0,0,0,0,0,0,0,0,0,0,0,0],"sum_hessian":[3.19E2,1.78E2,1.41E2,1.58E2,2E1,4.1E1,1E2,1.34E2,2.4E1,3E0,1.7E1,1.9E1,2.2E1,5E0,9.5E1],"tree_param":{"num_deleted":"0","num_feature":"43","num_nodes":"15","size_leaf_vector":"0"}},{"base_weights":[1.3595841E-2,-2.0284194E-2,3.1809127E-1,2.9726366E-3,-3.693018E-1,8.89597E-2,2.046763E-1,-2.8763968E-3,3.031354E-2,-1.5844E-2,-5.6255918E-2,3.4568217E-2,-1.9104868E-2],"categories":[],"categories_nodes":[],"categories_segments":[],"categories_sizes":[],"default_left":[0,0,0,0,0,0,0,0,0,0,0,0,0],"id":82,"left_children":[1,3,5,7,9,-1,11,-1,-1,-1,-1,-1,-1],"loss_changes":[3.297357E0,2.3388064E0,1.8920748E0,2.590305E0,6.443789E-1,0E0,1.6284293E0,0E0,0E0,0E0,0E0,0E0,0E0],"parents":[2147483647,0,0,1,1,2,2,3,3,4,4,6,6],"right_children":[2,4,6,8,10,-1,12,-1,-1,-1,-1,-1,-1],"split_conditions":[1.817E-1,1.4E1,1.541E-1,8E0,5.23E-2,8.89597E-2,6.0780533E-2,-2.8763968E-3,3.031354E-2,-1.5844E-2,-5.6255918E-2,3.4568217E-2,-1.9104868E-2],"split_indices":[12,1,13,1,9,0,22,0,0,0,0,0,0],"split_type":[0,0,0,0,0,0,0,0,0,0,0,0,0],"sum_hessian":[3.18E2,2.87E2,3.1E1,2.7E2,1.7E1,4E0,2.7E1,2.45E2,2.5E1,9E0,8E0,2E1,7E0],"tree_param":{"num_deleted":"0","num_feature":"43","num_nodes":"13","size_leaf_vector":"0"}},{"base_weights":[-2.1974042E-2,-7.6333153E-1,9.544077E-3,9.833562E-3,-1.0072713E0,3.3113962E-1,-1.22722145E-2,-1.27955E-1,-5.6711406E-2,-1.952812E-2,6.0829874E-2,-1.3268082E-2,4.9160677E-3],"categories":[],"categories_nodes":[],"categories_segments":[],"categories_sizes":[],"default_left":[0,0,0,0,0,0,0,0,0,0,0,0,0],"id":83,"left_children":[1,3,5,-1,7,9,11,-1,-1,-1,-1,-1,-1],"loss_changes":[8.02189E0,3.0417786E0,2.3193512E0,0E0,5.926485E-1,3.1827378E0,2.2996075E0,0E0,0E0,0E0,0E0,0E0,0E0],"parents":[2147483647,0,0,1,1,2,2,4,4,5,5,6,6],"right_children":[2,4,6,-1,8,10,12,-1,-1,-1,-1,-1,-1],"split_conditions":[5.8E1,1.233E-1,1.6911412E2,9.833562E-3,7E0,1.15E-2,2.11E-2,-1.27955E-1,-5.6711406E-2,-1.952812E-2,6.0829874E-2,-1.3268082E-2,4.9160677E-3],"split_indices":[31,12,5,0,21,10,20,0,0,0,0,0,0],"split_type":[0,0,0,0,0,0,0,0,0,0,0,0,0],"sum_hessian":[3.42E2,1.3E1,3.29E2,3E0,1E1,2E1,3.09E2,5E0,5E0,7E0,1.3E1,1.04E2,2.05E2],"tree_param":{"num_deleted":"0","num_feature":"43","num_nodes":"13","size_leaf_vector":"0"}},{"base_weights":[1.7848825E-2,-2.4649192E-1,5.698263E-2,-4.949102E-1,-8.958184E-3,1.1727346E-2,3.2392508E-1,-6.221801E-2,3.6789514E-3,2.8886268E-2,-3.6011394E-2,3.173745E-3,-5.254018E-2,6.0411222E-2,4.174987E-3],"categories":[],"categories_nodes":[],"categories_segments":[],"categories_sizes":[],"default_left":[0,0,0,0,0,1,0,0,0,0,0,0,0,0,0],"id":84,"left_children":[1,3,5,7,9,11,13,-1,-1,-1,-1,-1,-1,-1,-1],"loss_changes":[3.4484727E0,2.532899E0,3.4995625E0,1.4439464E0,2.509398E0,2.6929293E0,3.2953768E0,0E0,0E0,0E0,0E0,0E0,0E0,0E0,0E0],"parents":[2147483647,0,0,1,1,2,2,3,3,4,4,5,5,6,6],"right_children":[2,4,6,8,10,12,14,-1,-1,-1,-1,-1,-1,-1,-1],"split_conditions":[7.1E1,1.4475705E-1,7E0,8.7E1,2.14E-2,2.61E1,2.12E-2,-6.221801E-2,3.6789514E-3,2.8886268E-2,-3.6011394E-2,3.173745E-3,-5.254018E-2,6.0411222E-2,4.174987E-3],"split_indices":[24,22,1,1,20,30,10,0,0,0,0,0,0,0,0],"split_type":[0,0,0,0,0,0,0,0,0,0,0,0,0,0,0],"sum_hessian":[3.31E2,4.2E1,2.89E2,2E1,2.2E1,2.48E2,4.1E1,1.6E1,4E0,1.2E1,1E1,2.4E2,8E0,2E1,2.1E1],"tree_param":{"num_deleted":"0","num_feature":"43","num_nodes":"15","size_leaf_vector":"0"}},{"base_weights":[-5.143202E-3,2.5944646E-2,-4.6964937E-1,-1.0015855E-3,2.7685788E-1,2.9739207E-2,-6.799967E-1,-3.7498926E-3,1.1763043E-2,6.41599E-2,-2.2140805E-2,-9.345224E-2,-2.1924632E-2],"categories":[],"categories_nodes":[],"categories_segments":[],"categories_sizes":[],"default_left":[1,1,0,0,0,0,0,0,0,0,0,0,0],"id":85,"left_children":[1,3,5,7,9,-1,11,-1,-1,-1,-1,-1,-1],"loss_changes":[4.6042633E0,2.0218658E0,3.4291286E0,1.177774E0,5.4124594E0,0E0,1.671474E0,0E0,0E0,0E0,0E0,0E0,0E0],"parents":[2147483647,0,0,1,1,2,2,3,3,4,4,6,6],"right_children":[2,4,6,8,10,-1,12,-1,-1,-1,-1,-1,-1],"split_conditions":[6.52E2,6.3E2,8.24E-2,3.111968E0,1.09E-1,2.9739207E-2,9.93E-2,-3.7498926E-3,1.1763043E-2,6.41599E-2,-2.2140805E-2,-9.345224E-2,-2.1924632E-2],"split_indices":[34,34,17,6,15,0,14,0,0,0,0,0,0],"split_type":[0,0,0,0,0,0,0,0,0,0,0,0,0],"sum_hessian":[3.17E2,2.98E2,1.9E1,2.7E2,2.8E1,4E0,1.5E1,2.07E2,6.3E1,1.6E1,1.2E1,9E0,6E0],"tree_param":{"num_deleted":"0","num_feature":"43","num_nodes":"13","size_leaf_vector":"0"}},{"base_weights":[1.8946951E-2,1.9140689E-1,-1.951214E-2,8.16285E-2,1.2206968E-1,-4.2430443E-1,-2.2059437E-5,1.0974875E-3,6.9213085E-2,-8.97742E-2,-1.6188205E-3,-2.1211673E-2,1.8642358E-3],"categories":[],"categories_nodes":[],"categories_segments":[],"categories_sizes":[],"default_left":[0,0,0,0,0,0,0,0,0,0,0,0,0],"id":86,"left_children":[1,3,5,7,-1,9,11,-1,-1,-1,-1,-1,-1],"loss_changes":[2.2919996E0,7.018964E0,2.2327006E0,2.4941876E0,0E0,2.4972954E0,1.0767413E0,0E0,0E0,0E0,0E0,0E0,0E0],"parents":[2147483647,0,0,1,1,2,2,3,3,5,5,6,6],"right_children":[2,4,6,8,-1,10,12,-1,-1,-1,-1,-1,-1],"split_conditions":[1.57E-2,1.105E-1,6E1,1E1,1.2206968E-1,7E0,1.7858404E1,1.0974875E-3,6.9213085E-2,-8.97742E-2,-1.6188205E-3,-2.1211673E-2,1.8642358E-3],"split_indices":[10,15,31,21,0,21,3,0,0,0,0,0,0],"split_type":[0,0,0,0,0,0,0,0,0,0,0,0,0],"sum_hessian":[3.44E2,6.2E1,2.82E2,5.7E1,5E0,1.2E1,2.7E2,5.2E1,5E0,5E0,7E0,2.1E1,2.49E2],"tree_param":{"num_deleted":"0","num_feature":"43","num_nodes":"13","size_leaf_vector":"0"}},{"base_weights":[6.9089405E-2,4.173782E-2,5.2611136E-1,2.4218342E-1,-1.6389972E-2,9.1384965E-1,8.576193E-2,-2.8876921E-2,3.426629E-2,-3.68378E-2,6.1470945E-4,1.4420992E-1,3.213334E-2,-2.3667626E-2,3.401668E-2],"categories":[],"categories_nodes":[],"categories_segments":[],"categories_sizes":[],"default_left":[0,0,0,0,0,0,0,0,0,0,0,0,0,0,0],"id":87,"left_children":[1,3,5,7,9,11,13,-1,-1,-1,-1,-1,-1,-1,-1],"loss_changes":[4.2031336E0,3.7324367E0,3.1656928E0,3.9401393E0,1.9775263E0,2.6665697E0,9.0080774E-1,0E0,0E0,0E0,0E0,0E0,0E0,0E0,0E0],"parents":[2147483647,0,0,1,1,2,2,3,3,4,4,5,5,6,6],"right_children":[2,4,6,8,10,12,14,-1,-1,-1,-1,-1,-1,-1,-1],"split_conditions":[2.7E1,1.61E-2,4.8E0,2.54E1,3.9E1,2.683E-1,1.626E-1,-2.8876921E-2,3.426629E-2,-3.68378E-2,6.1470945E-4,1.4420992E-1,3.213334E-2,-2.3667626E-2,3.401668E-2],"split_indices":[21,10,33,30,25,11,13,0,0,0,0,0,0,0,0],"split_type":[0,0,0,0,0,0,0,0,0,0,0,0,0,0,0],"sum_hessian":[3.37E2,3.19E2,1.8E1,7.1E1,2.48E2,9E0,9E0,1.1E1,6E1,1.4E1,2.34E2,4E0,5E0,4E0,5E0],"tree_param":{"num_deleted":"0","num_feature":"43","num_nodes":"15","size_leaf_vector":"0"}},{"base_weights":[-3.188176E-2,-2.5310978E-1,2.2542017E-2,-3.9664978E-1,-3.3886578E-2,1.3636371E-1,-3.7619658E-2,8.229076E-3,-5.1525023E-2,1.2956731E-1,-2.4526065E-2,1.7966716E-2,-1.817326E-2,-3.882822E-2,-1.713269E-3],"categories":[],"categories_nodes":[],"categories_segments":[],"categories_sizes":[],"default_left":[0,0,1,0,0,0,0,0,0,0,0,0,0,0,0],"id":88,"left_children":[1,3,5,7,9,11,13,-1,-1,-1,-1,-1,-1,-1,-1],"loss_changes":[4.147488E0,2.1263347E0,1.9019439E0,2.371305E0,8.186742E0,1.3550192E0,1.3008378E0,0E0,0E0,0E0,0E0,0E0,0E0,0E0,0E0],"parents":[2147483647,0,0,1,1,2,2,3,3,4,4,5,5,6,6],"right_children":[2,4,6,8,10,12,14,-1,-1,-1,-1,-1,-1,-1,-1],"split_conditions":[2.71E1,1.1E1,2.2866667E1,1.46E-2,1.758E-1,9E0,1.5666667E1,8.229076E-3,-5.1525023E-2,1.2956731E-1,-2.4526065E-2,1.7966716E-2,-1.817326E-2,-3.882822E-2,-1.713269E-3],"split_indices":[30,1,38,20,11,1,40,0,0,0,0,0,0,0,0],"split_type":[0,0,0,0,0,0,0,0,0,0,0,0,0,0,0],"sum_hessian":[3.43E2,6.7E1,2.76E2,4E1,2.7E1,9.5E1,1.81E2,8E0,3.2E1,3E0,2.4E1,8.4E1,1.1E1,9E0,1.72E2],"tree_param":{"num_deleted":"0","num_feature":"43","num_nodes":"15","size_leaf_vector":"0"}},{"base_weights":[1.8846555E-2,3.6651057E-1,-1.3869903E-2,-3.4099035E-2,5.156835E-1,-3.773622E-2,2.1754186E-1,1.7186883E-1,2.840442E-2,-9.190804E-3,8.382805E-3,1.4313872E-2,6.839784E-2],"categories":[],"categories_nodes":[],"categories_segments":[],"categories_sizes":[],"default_left":[0,0,0,0,0,0,0,0,0,0,0,0,0],"id":89,"left_children":[1,3,5,-1,7,9,11,-1,-1,-1,-1,-1,-1],"loss_changes":[4.0998445E0,3.4475818E0,1.8307815E0,0E0,6.7570577E0,1.983312E0,9.7793114E-1,0E0,0E0,0E0,0E0,0E0,0E0],"parents":[2147483647,0,0,1,1,2,2,4,4,5,5,6,6],"right_children":[2,4,6,-1,8,10,12,-1,-1,-1,-1,-1,-1],"split_conditions":[6.1E1,2.54E1,3.346753E0,-3.4099035E-2,7.5E-2,1.533E-1,1.51E-1,1.7186883E-1,2.840442E-2,-9.190804E-3,8.382805E-3,1.4313872E-2,6.839784E-2],"split_indices":[31,30,6,0,14,18,12,0,0,0,0,0,0],"split_type":[0,0,0,0,0,0,0,0,0,0,0,0,0],"sum_hessian":[3.59E2,3E1,3.29E2,5E0,2.5E1,2.99E2,3E1,3E0,2.2E1,2.07E2,9.2E1,2.7E1,3E0],"tree_param":{"num_deleted":"0","num_feature":"43","num_nodes":"13","size_leaf_vector":"0"}},{"base_weights":[2.3344351E-2,3.861588E-1,-1.3012398E-2,1.1733595E0,1.5029626E-1,-2.7858648E-1,1.1261071E-2,3.614931E-2,1.691886E-1,1.8127386E-3,6.7534626E-2,8.984133E-3,-5.1446896E-2,3.4460142E-2,-2.639703E-3],"categories":[],"categories_nodes":[],"categories_segments":[],"categories_sizes":[],"default_left":[0,0,0,0,0,0,0,0,0,0,0,0,0,0,0],"id":90,"left_children":[1,3,5,7,9,11,13,-1,-1,-1,-1,-1,-1,-1,-1],"loss_changes":[4.489881E0,5.579454E0,2.0015225E0,2.3352137E0,1.7226393E0,2.3057678E0,3.5866911E0,0E0,0E0,0E0,0E0,0E0,0E0,0E0,0E0],"parents":[2147483647,0,0,1,1,2,2,3,3,4,4,5,5,6,6],"right_children":[2,4,6,8,10,12,14,-1,-1,-1,-1,-1,-1,-1,-1],"split_conditions":[1.22E-2,5.8E1,2.8E-2,1.594E-1,1.91E-2,2.39E-2,1.74E-2,3.614931E-2,1.691886E-1,1.8127386E-3,6.7534626E-2,8.984133E-3,-5.1446896E-2,3.4460142E-2,-2.639703E-3],"split_indices":[10,31,9,11,20,9,10,0,0,0,0,0,0,0,0],"split_type":[0,0,0,0,0,0,0,0,0,0,0,0,0,0,0],"sum_hessian":[3.39E2,3E1,3.09E2,6E0,2.4E1,2.5E1,2.84E2,3E0,3E0,2E1,4E0,1E1,1.5E1,2.8E1,2.56E2],"tree_param":{"num_deleted":"0","num_feature":"43","num_nodes":"15","size_leaf_vector":"0"}},{"base_weights":[-2.1740044E-2,-2.7277568E-1,3.5848994E-2,7.6368585E-2,-3.3732685E-1,2.4670635E-1,1.8343685E-2,-4.1375767E-2,2.1119332E-2,9.53054E-2,7.6034307E-3,-4.150766E-2,3.77285E-3],"categories":[],"categories_nodes":[],"categories_segments":[],"categories_sizes":[],"default_left":[0,0,0,0,0,0,0,0,0,0,0,0,0],"id":91,"left_children":[1,3,5,-1,7,9,11,-1,-1,-1,-1,-1,-1],"loss_changes":[4.8817544E0,4.472614E0,1.0105333E0,0E0,2.6028147E0,2.4591646E0,2.158112E0,0E0,0E0,0E0,0E0,0E0,0E0],"parents":[2147483647,0,0,1,1,2,2,4,4,5,5,6,6],"right_children":[2,4,6,-1,8,10,12,-1,-1,-1,-1,-1,-1],"split_conditions":[9.8E0,9.7E-3,2.15E-2,7.6368585E-2,6.21E-2,2.4261169E-1,1.31E-2,-4.1375767E-2,2.1119332E-2,9.53054E-2,7.6034307E-3,-4.150766E-2,3.77285E-3],"split_indices":[33,10,9,0,9,22,10,0,0,0,0,0,0],"split_type":[0,0,0,0,0,0,0,0,0,0,0,0,0],"sum_hessian":[3.36E2,6.2E1,2.74E2,3E0,5.9E1,2E1,2.54E2,5.2E1,7E0,3E0,1.7E1,1E1,2.44E2],"tree_param":{"num_deleted":"0","num_feature":"43","num_nodes":"13","size_leaf_vector":"0"}},{"base_weights":[8.194652E-3,-4.6171423E-2,1.4106818E-1,-2.8724793E-2,-6.40238E-1,1.1507674E-1,7.649251E-2,2.4939276E-2,-4.828743E-3,-1.09277226E-1,-2.7644278E-3,-2.9330356E-2,2.1083344E-2],"categories":[],"categories_nodes":[],"categories_segments":[],"categories_sizes":[],"default_left":[0,0,0,0,0,0,0,0,0,0,0,0,0],"id":92,"left_children":[1,3,5,7,9,-1,11,-1,-1,-1,-1,-1,-1],"loss_changes":[2.513176E0,2.5416307E0,6.4973764E0,1.3232543E0,1.9103286E0,0E0,4.830998E0,0E0,0E0,0E0,0E0,0E0,0E0],"parents":[2147483647,0,0,1,1,2,2,3,3,4,4,6,6],"right_children":[2,4,6,8,10,-1,12,-1,-1,-1,-1,-1,-1],"split_conditions":[1.707E-1,1.698E-1,1.127E-1,1.6958386E2,1.65E-2,1.1507674E-1,1.092E-1,2.4939276E-2,-4.828743E-3,-1.09277226E-1,-2.7644278E-3,-2.9330356E-2,2.1083344E-2],"split_indices":[11,11,13,5,0,0,17,0,0,0,0,0,0],"split_type":[0,0,0,0,0,0,0,0,0,0,0,0,0],"sum_hessian":[3.46E2,2.46E2,1E2,2.4E2,6E0,5E0,9.5E1,1.5E1,2.25E2,3E0,3E0,2.5E1,7E1],"tree_param":{"num_deleted":"0","num_feature":"43","num_nodes":"13","size_leaf_vector":"0"}},{"base_weights":[-1.9616934E-2,-5.1387084E-1,4.5175627E-3,2.0568622E-2,-7.109006E-1,-1.8335411E-2,1.776938E-1,-9.016867E-3,-1.0099955E-1,-5.073212E-5,-2.7087186E-2,6.31439E-2,-7.548876E-3],"categories":[],"categories_nodes":[],"categories_segments":[],"categories_sizes":[],"default_left":[0,0,1,0,0,1,0,0,0,0,0,0,0],"id":93,"left_children":[1,3,5,-1,7,9,11,-1,-1,-1,-1,-1,-1],"loss_changes":[3.8433206E0,2.2728345E0,1.2221963E0,0E0,2.1368232E0,1.2289747E0,4.18336E0,0E0,0E0,0E0,0E0,0E0,0E0],"parents":[2147483647,0,0,1,1,2,2,4,4,5,5,6,6],"right_children":[2,4,6,-1,8,10,12,-1,-1,-1,-1,-1,-1],"split_conditions":[5.8E1,3.9967716E-2,5.133333E0,2.0568622E-2,2E-2,7.4E1,1.136E-1,-9.016867E-3,-1.0099955E-1,-5.073212E-5,-2.7087186E-2,6.31439E-2,-7.548876E-3],"split_indices":[31,22,26,0,9,24,16,0,0,0,0,0,0],"split_type":[0,0,0,0,0,0,0,0,0,0,0,0,0],"sum_hessian":[3.21E2,1.4E1,3.07E2,3E0,1.1E1,2.72E2,3.5E1,4E0,7E0,2.55E2,1.7E1,1.2E1,2.3E1],"tree_param":{"num_deleted":"0","num_feature":"43","num_nodes":"13","size_leaf_vector":"0"}},{"base_weights":[-1.4436804E-2,-2.3052422E-2,6.9349915E-2,-1.1447162E-3,-3.2672086E-1,-1.1216297E-2,4.8609427E-3,-4.818539E-2,2.9710231E-2],"categories":[],"categories_nodes":[],"categories_segments":[],"categories_sizes":[],"default_left":[0,1,0,0,0,0,0,0,0],"id":94,"left_children":[1,3,-1,5,7,-1,-1,-1,-1],"loss_changes":[2.0287576E0,2.1750522E0,0E0,1.6956793E0,2.272223E0,0E0,0E0,0E0,0E0],"parents":[2147483647,0,0,1,1,3,3,4,4],"right_children":[2,4,-1,6,8,-1,-1,-1,-1],"split_conditions":[1.007E-1,7.5E1,6.9349915E-2,1.79E-2,2.93E-2,-1.1216297E-2,4.8609427E-3,-4.818539E-2,2.9710231E-2],"split_indices":[20,24,0,20,20,0,0,0,0],"split_type":[0,0,0,0,0,0,0,0,0],"sum_hessian":[3.29E2,3.26E2,3E0,3.05E2,2.1E1,9.4E1,2.11E2,1.7E1,4E0],"tree_param":{"num_deleted":"0","num_feature":"43","num_nodes":"9","size_leaf_vector":"0"}},{"base_weights":[1.0464169E-2,-1.0973029E-2,1.945251E-1,1.0961559E-2,-3.1970206E-1,4.906125E-1,-2.7362218E-3,-7.4550736E-4,7.355371E-2,-6.2451985E-2,4.7567706E-3,7.910169E-3,8.908231E-2,-6.6733874E-2,1.8202761E-2],"categories":[],"categories_nodes":[],"categories_segments":[],"categories_sizes":[],"default_left":[1,1,0,0,0,0,0,0,0,0,0,0,0,0,0],"id":95,"left_children":[1,3,5,7,9,11,13,-1,-1,-1,-1,-1,-1,-1,-1],"loss_changes":[1.3239609E0,2.0418293E0,2.0455732E0,3.7685595E0,2.268714E0,2.2352078E0,2.8229532E0,0E0,0E0,0E0,0E0,0E0,0E0,0E0,0E0],"parents":[2147483647,0,0,1,1,2,2,3,3,4,4,5,5,6,6],"right_children":[2,4,6,8,10,12,14,-1,-1,-1,-1,-1,-1,-1,-1],"split_conditions":[2.71E1,4.1E1,1.74E-2,2.7E1,1.1E1,1.116E-1,8E0,-7.4550736E-4,7.355371E-2,-6.2451985E-2,4.7567706E-3,7.910169E-3,8.908231E-2,-6.6733874E-2,1.8202761E-2],"split_indices":[30,32,10,21,21,15,1,0,0,0,0,0,0,0,0],"split_type":[0,0,0,0,0,0,0,0,0,0,0,0,0,0,0],"sum_hessian":[3.34E2,3E2,3.4E1,2.81E2,1.9E1,1.3E1,2.1E1,2.75E2,6E0,1E1,9E0,7E0,6E0,4E0,1.7E1],"tree_param":{"num_deleted":"0","num_feature":"43","num_nodes":"15","size_leaf_vector":"0"}},{"base_weights":[-1.4341437E-2,-4.2319715E-2,1.4615853E-1,-2.335782E-2,-3.538933E-1,7.053674E-1,6.215069E-3,-1.6321708E-2,1.1851019E-3,-1.05929516E-1,-1.4219326E-2,1.2454639E-1,-1.9184113E-2,-4.9001448E-2,2.015111E-2],"categories":[],"categories_nodes":[],"categories_segments":[],"categories_sizes":[],"default_left":[1,1,0,0,0,0,0,0,0,0,0,0,0,0,0],"id":96,"left_children":[1,3,5,7,9,11,13,-1,-1,-1,-1,-1,-1,-1,-1],"loss_changes":[1.6631845E0,1.8527617E0,4.2997856E0,1.4693701E0,2.5373805E0,5.5693016E0,4.459768E0,0E0,0E0,0E0,0E0,0E0,0E0,0E0,0E0],"parents":[2147483647,0,0,1,1,2,2,3,3,4,4,5,5,6,6],"right_children":[2,4,6,8,10,12,14,-1,-1,-1,-1,-1,-1,-1,-1],"split_conditions":[8.4E0,5.3E0,5E0,7.44E-2,4.33E-2,3.38E-2,7E0,-1.6321708E-2,1.1851019E-3,-1.05929516E-1,-1.4219326E-2,1.2454639E-1,-1.9184113E-2,-4.9001448E-2,2.015111E-2],"split_indices":[33,26,1,14,9,9,21,0,0,0,0,0,0,0,0],"split_type":[0,0,0,0,0,0,0,0,0,0,0,0,0,0,0],"sum_hessian":[3.68E2,3.14E2,5.4E1,2.97E2,1.7E1,1E1,4.4E1,5.9E1,2.38E2,3E0,1.4E1,6E0,4E0,1.2E1,3.2E1],"tree_param":{"num_deleted":"0","num_feature":"43","num_nodes":"15","size_leaf_vector":"0"}},{"base_weights":[5.412741E-3,2.2626692E-1,-3.2759454E-2,-1.7256536E-1,6.639084E-1,-9.883171E-2,8.622923E-2,7.6009706E-2,-3.1488873E-2,1.14572264E-1,2.0350276E-2,-5.36837E-2,-3.6779323E-3,1.6199427E-2,-1.5895259E-2],"categories":[],"categories_nodes":[],"categories_segments":[],"categories_sizes":[],"default_left":[0,0,0,0,0,0,1,0,0,0,0,0,0,0,0],"id":97,"left_children":[1,3,5,7,9,11,13,-1,-1,-1,-1,-1,-1,-1,-1],"loss_changes":[2.9749444E0,9.190936E0,2.3749394E0,3.956056E0,5.3125916E0,5.2530346E0,2.03198E0,0E0,0E0,0E0,0E0,0E0,0E0,0E0,0E0],"parents":[2147483647,0,0,1,1,2,2,3,3,4,4,5,5,6,6],"right_children":[2,4,6,8,10,12,14,-1,-1,-1,-1,-1,-1,-1,-1],"split_conditions":[2.65E1,2.46E-2,2.1787712E-1,1.035E-1,1.92E-2,3.56E-2,2.4966667E1,7.6009706E-2,-3.1488873E-2,1.14572264E-1,2.0350276E-2,-5.36837E-2,-3.6779323E-3,1.6199427E-2,-1.5895259E-2],"split_indices":[30,20,22,13,10,9,38,0,0,0,0,0,0,0,0],"split_type":[0,0,0,0,0,0,0,0,0,0,0,0,0,0,0],"sum_hessian":[3.51E2,5.1E1,3E2,